FANN_FLO_2.1
num_layers=3
learning_rate=0.700000
connection_rate=1.000000
network_type=0
learning_momentum=0.000000
training_algorithm=2
train_error_function=1
train_stop_function=0
cascade_output_change_fraction=0.010000
quickprop_decay=-0.000100
quickprop_mu=1.750000
rprop_increase_factor=1.200000
rprop_decrease_factor=0.500000
rprop_delta_min=0.000000
rprop_delta_max=50.000000
rprop_delta_zero=0.100000
cascade_output_stagnation_epochs=12
cascade_candidate_change_fraction=0.010000
cascade_candidate_stagnation_epochs=12
cascade_max_out_epochs=150
cascade_min_out_epochs=50
cascade_max_cand_epochs=150
cascade_min_cand_epochs=50
cascade_num_candidate_groups=2
bit_fail_limit=3.49999994039535522461e-01
cascade_candidate_limit=1.00000000000000000000e+03
cascade_weight_multiplier=4.00000005960464477539e-01
cascade_activation_functions_count=10
cascade_activation_functions=3 5 7 8 10 11 14 15 16 17 
cascade_activation_steepnesses_count=4
cascade_activation_steepnesses=2.50000000000000000000e-01 5.00000000000000000000e-01 7.50000000000000000000e-01 1.00000000000000000000e+00 
layer_sizes=7 11 2 
scale_included=1
scale_mean_in=195.131729 2893.006104 11436.203125 23.604790 4.526946 17.185629 
scale_deviation_in=242.889709 4032.347656 11653.196289 37.246056 6.329114 23.562788 
scale_new_min_in=-1.000000 -1.000000 -1.000000 -1.000000 -1.000000 -1.000000 
scale_factor_in=1.000000 1.000000 1.000000 1.000000 1.000000 1.000000 
scale_mean_out=104.514969 
scale_deviation_out=160.681335 
scale_new_min_out=-1.000000 
scale_factor_out=1.000000 
neurons (num_inputs, activation_function, activation_steepness)=(0, 0, 0.00000000000000000000e+00) (0, 0, 0.00000000000000000000e+00) (0, 0, 0.00000000000000000000e+00) (0, 0, 0.00000000000000000000e+00) (0, 0, 0.00000000000000000000e+00) (0, 0, 0.00000000000000000000e+00) (0, 0, 0.00000000000000000000e+00) (7, 3, 5.00000000000000000000e-01) (7, 3, 5.00000000000000000000e-01) (7, 3, 5.00000000000000000000e-01) (7, 3, 5.00000000000000000000e-01) (7, 3, 5.00000000000000000000e-01) (7, 3, 5.00000000000000000000e-01) (7, 3, 5.00000000000000000000e-01) (7, 3, 5.00000000000000000000e-01) (7, 3, 5.00000000000000000000e-01) (7, 3, 5.00000000000000000000e-01) (0, 3, 5.00000000000000000000e-01) (11, 0, 5.00000000000000000000e-01) (0, 0, 5.00000000000000000000e-01) 
connections (connected_to_neuron, weight)=(0, -1.50000000000000000000e+03) (1, -1.50000000000000000000e+03) (2, 1.50000000000000000000e+03) (3, -1.49995727539062500000e+03) (4, 1.50000000000000000000e+03) (5, -1.50000000000000000000e+03) (6, -9.02154541015625000000e+01) (0, -6.30502685546875000000e+02) (1, -1.34899854660034179688e+01) (2, 9.86661224365234375000e+01) (3, 6.39843711853027343750e+01) (4, -9.21363143920898437500e+01) (5, 4.71682525634765625000e+02) (6, -3.46643768310546875000e+02) (0, -9.16209793090820312500e+00) (1, 2.11980075836181640625e+01) (2, 2.11485195159912109375e+01) (3, 4.24304275512695312500e+01) (4, -1.30248765945434570312e+01) (5, -2.72845249176025390625e+01) (6, -8.14422798156738281250e+00) (0, -3.43085098266601562500e+01) (1, 3.73949956893920898438e+00) (2, 9.10426807403564453125e+00) (3, 2.21358752250671386719e+00) (4, -5.79991054534912109375e+00) (5, -4.07201957702636718750e+00) (6, -4.12004585266113281250e+01) (0, -1.79894424438476562500e+02) (1, -1.21985018253326416016e+00) (2, 9.76530730724334716797e-01) (3, 4.47606205940246582031e-01) (4, 1.20147013664245605469e+00) (5, 3.82687830924987792969e+00) (6, -1.34753250122070312500e+02) (0, -6.15277099609375000000e+02) (1, 3.63852882385253906250e+01) (2, 1.36623931884765625000e+02) (3, 2.80790996551513671875e+01) (4, 1.14186029434204101562e+01) (5, 2.39682350158691406250e+01) (6, -4.10486663818359375000e+02) (0, -6.56409240722656250000e+02) (1, 1.86916942596435546875e+01) (2, 4.15421009063720703125e+00) (3, -2.47846221923828125000e+00) (4, 2.06022334098815917969e+00) (5, 2.34793567657470703125e+00) (6, -4.91133453369140625000e+02) (0, -2.54271759033203125000e+02) (1, -1.73280944824218750000e+01) (2, -1.04184932708740234375e+01) (3, 3.01076087951660156250e+01) (4, -8.00294995307922363281e-01) (5, 1.89745731353759765625e+01) (6, -1.83051223754882812500e+02) (0, -6.64488281250000000000e+02) (1, 9.67818260192871093750e+00) (2, 4.74708127975463867188e+00) (3, 6.89383745193481445312e-01) (4, 2.40399146080017089844e+00) (5, -2.47571964263916015625e+01) (6, -5.01028656005859375000e+02) (0, -6.36240783691406250000e+02) (1, 7.70545883178710937500e+01) (2, 2.82373596191406250000e+02) (3, -5.25553655624389648438e+00) (4, 3.58140068054199218750e+01) (5, 1.72103347778320312500e+01) (6, -6.07075988769531250000e+02) (7, 1.08928717672824859619e-01) (8, 3.91440719366073608398e-01) (9, 5.32317757606506347656e-01) (10, 2.45156311988830566406e+00) (11, 8.43563747406005859375e+00) (12, 5.53371608257293701172e-01) (13, 8.41260492801666259766e-01) (14, 1.35023140907287597656e+00) (15, 6.65781080722808837891e-01) (16, 7.58814215660095214844e-01) (17, -9.91362333297729492188e-01) 
