FANN_FLO_2.1
num_layers=3
learning_rate=0.700000
connection_rate=0.350000
network_type=0
learning_momentum=0.000000
training_algorithm=2
train_error_function=1
train_stop_function=1
cascade_output_change_fraction=0.010000
quickprop_decay=-0.000100
quickprop_mu=1.750000
rprop_increase_factor=1.200000
rprop_decrease_factor=0.500000
rprop_delta_min=0.000000
rprop_delta_max=50.000000
rprop_delta_zero=0.100000
cascade_output_stagnation_epochs=12
cascade_candidate_change_fraction=0.010000
cascade_candidate_stagnation_epochs=12
cascade_max_out_epochs=150
cascade_min_out_epochs=50
cascade_max_cand_epochs=150
cascade_min_cand_epochs=50
cascade_num_candidate_groups=2
bit_fail_limit=1.00000001490116119385e-01
cascade_candidate_limit=1.00000000000000000000e+03
cascade_weight_multiplier=4.00000005960464477539e-01
cascade_activation_functions_count=10
cascade_activation_functions=3 5 7 8 10 11 14 15 16 17 
cascade_activation_steepnesses_count=4
cascade_activation_steepnesses=2.50000000000000000000e-01 5.00000000000000000000e-01 7.50000000000000000000e-01 1.00000000000000000000e+00 
layer_sizes=5 151 4 
scale_included=0
neurons (num_inputs, activation_function, activation_steepness)=(0, 0, 0.00000000000000000000e+00) (0, 0, 0.00000000000000000000e+00) (0, 0, 0.00000000000000000000e+00) (0, 0, 0.00000000000000000000e+00) (0, 0, 0.00000000000000000000e+00) (2, 5, 8.99999976158142089844e-01) (2, 5, 8.99999976158142089844e-01) (3, 5, 8.99999976158142089844e-01) (2, 5, 8.99999976158142089844e-01) (3, 5, 8.99999976158142089844e-01) (2, 5, 8.99999976158142089844e-01) (2, 5, 8.99999976158142089844e-01) (3, 5, 8.99999976158142089844e-01) (2, 5, 8.99999976158142089844e-01) (3, 5, 8.99999976158142089844e-01) (2, 5, 8.99999976158142089844e-01) (2, 5, 8.99999976158142089844e-01) (3, 5, 8.99999976158142089844e-01) (2, 5, 8.99999976158142089844e-01) (3, 5, 8.99999976158142089844e-01) (2, 5, 8.99999976158142089844e-01) (2, 5, 8.99999976158142089844e-01) (3, 5, 8.99999976158142089844e-01) (2, 5, 8.99999976158142089844e-01) (3, 5, 8.99999976158142089844e-01) (2, 5, 8.99999976158142089844e-01) (2, 5, 8.99999976158142089844e-01) (3, 5, 8.99999976158142089844e-01) (2, 5, 8.99999976158142089844e-01) (3, 5, 8.99999976158142089844e-01) (2, 5, 8.99999976158142089844e-01) (2, 5, 8.99999976158142089844e-01) (3, 5, 8.99999976158142089844e-01) (2, 5, 8.99999976158142089844e-01) (3, 5, 8.99999976158142089844e-01) (2, 5, 8.99999976158142089844e-01) (2, 5, 8.99999976158142089844e-01) (3, 5, 8.99999976158142089844e-01) (2, 5, 8.99999976158142089844e-01) (3, 5, 8.99999976158142089844e-01) (2, 5, 8.99999976158142089844e-01) (2, 5, 8.99999976158142089844e-01) (3, 5, 8.99999976158142089844e-01) (2, 5, 8.99999976158142089844e-01) (3, 5, 8.99999976158142089844e-01) (2, 5, 8.99999976158142089844e-01) (2, 5, 8.99999976158142089844e-01) (3, 5, 8.99999976158142089844e-01) (2, 5, 8.99999976158142089844e-01) (3, 5, 8.99999976158142089844e-01) (2, 5, 8.99999976158142089844e-01) (2, 5, 8.99999976158142089844e-01) (3, 5, 8.99999976158142089844e-01) (2, 5, 8.99999976158142089844e-01) (3, 5, 8.99999976158142089844e-01) (2, 5, 8.99999976158142089844e-01) (2, 5, 8.99999976158142089844e-01) (3, 5, 8.99999976158142089844e-01) (2, 5, 8.99999976158142089844e-01) (3, 5, 8.99999976158142089844e-01) (2, 5, 8.99999976158142089844e-01) (2, 5, 8.99999976158142089844e-01) (3, 5, 8.99999976158142089844e-01) (2, 5, 8.99999976158142089844e-01) (3, 5, 8.99999976158142089844e-01) (2, 5, 8.99999976158142089844e-01) (2, 5, 8.99999976158142089844e-01) (3, 5, 8.99999976158142089844e-01) (2, 5, 8.99999976158142089844e-01) (3, 5, 8.99999976158142089844e-01) (2, 5, 8.99999976158142089844e-01) (2, 5, 8.99999976158142089844e-01) (3, 5, 8.99999976158142089844e-01) (2, 5, 8.99999976158142089844e-01) (3, 5, 8.99999976158142089844e-01) (2, 5, 8.99999976158142089844e-01) (2, 5, 8.99999976158142089844e-01) (3, 5, 8.99999976158142089844e-01) (2, 5, 8.99999976158142089844e-01) (3, 5, 8.99999976158142089844e-01) (2, 5, 8.99999976158142089844e-01) (2, 5, 8.99999976158142089844e-01) (3, 5, 8.99999976158142089844e-01) (2, 5, 8.99999976158142089844e-01) (3, 5, 8.99999976158142089844e-01) (2, 5, 8.99999976158142089844e-01) (2, 5, 8.99999976158142089844e-01) (3, 5, 8.99999976158142089844e-01) (2, 5, 8.99999976158142089844e-01) (3, 5, 8.99999976158142089844e-01) (2, 5, 8.99999976158142089844e-01) (2, 5, 8.99999976158142089844e-01) (3, 5, 8.99999976158142089844e-01) (2, 5, 8.99999976158142089844e-01) (3, 5, 8.99999976158142089844e-01) (2, 5, 8.99999976158142089844e-01) (2, 5, 8.99999976158142089844e-01) (3, 5, 8.99999976158142089844e-01) (2, 5, 8.99999976158142089844e-01) (3, 5, 8.99999976158142089844e-01) (2, 5, 8.99999976158142089844e-01) (2, 5, 8.99999976158142089844e-01) (3, 5, 8.99999976158142089844e-01) (2, 5, 8.99999976158142089844e-01) (3, 5, 8.99999976158142089844e-01) (2, 5, 8.99999976158142089844e-01) (2, 5, 8.99999976158142089844e-01) (3, 5, 8.99999976158142089844e-01) (2, 5, 8.99999976158142089844e-01) (3, 5, 8.99999976158142089844e-01) (2, 5, 8.99999976158142089844e-01) (2, 5, 8.99999976158142089844e-01) (3, 5, 8.99999976158142089844e-01) (2, 5, 8.99999976158142089844e-01) (3, 5, 8.99999976158142089844e-01) (2, 5, 8.99999976158142089844e-01) (2, 5, 8.99999976158142089844e-01) (3, 5, 8.99999976158142089844e-01) (2, 5, 8.99999976158142089844e-01) (3, 5, 8.99999976158142089844e-01) (2, 5, 8.99999976158142089844e-01) (2, 5, 8.99999976158142089844e-01) (3, 5, 8.99999976158142089844e-01) (2, 5, 8.99999976158142089844e-01) (3, 5, 8.99999976158142089844e-01) (2, 5, 8.99999976158142089844e-01) (2, 5, 8.99999976158142089844e-01) (3, 5, 8.99999976158142089844e-01) (2, 5, 8.99999976158142089844e-01) (3, 5, 8.99999976158142089844e-01) (2, 5, 8.99999976158142089844e-01) (2, 5, 8.99999976158142089844e-01) (3, 5, 8.99999976158142089844e-01) (2, 5, 8.99999976158142089844e-01) (3, 5, 8.99999976158142089844e-01) (2, 5, 8.99999976158142089844e-01) (2, 5, 8.99999976158142089844e-01) (3, 5, 8.99999976158142089844e-01) (2, 5, 8.99999976158142089844e-01) (3, 5, 8.99999976158142089844e-01) (2, 5, 8.99999976158142089844e-01) (2, 5, 8.99999976158142089844e-01) (3, 5, 8.99999976158142089844e-01) (2, 5, 8.99999976158142089844e-01) (3, 5, 8.99999976158142089844e-01) (2, 5, 8.99999976158142089844e-01) (2, 5, 8.99999976158142089844e-01) (3, 5, 8.99999976158142089844e-01) (2, 5, 8.99999976158142089844e-01) (3, 5, 8.99999976158142089844e-01) (2, 5, 8.99999976158142089844e-01) (2, 5, 8.99999976158142089844e-01) (3, 5, 8.99999976158142089844e-01) (2, 5, 8.99999976158142089844e-01) (3, 5, 8.99999976158142089844e-01) (0, 5, 8.99999976158142089844e-01) (53, 5, 5.00000000000000000000e-01) (54, 5, 5.00000000000000000000e-01) (54, 5, 5.00000000000000000000e-01) (0, 5, 5.00000000000000000000e-01) 
connections (connected_to_neuron, weight)=(4, -1.61090940237045288086e-01) (2, 3.87597620487213134766e-01) (4, 3.85106861591339111328e-01) (2, 3.45792442560195922852e-01) (4, -3.80472123622894287109e-01) (1, 8.81334125995635986328e-01) (0, 1.07738685607910156250e+00) (4, -3.35658282041549682617e-01) (2, 2.91310787200927734375e-01) (4, 3.40996347367763519287e-02) (1, -6.17528676986694335938e-01) (2, 9.08409118652343750000e-01) (4, 6.88393712043762207031e-01) (0, 3.77213150262832641602e-01) (4, 3.77459645271301269531e-01) (2, 5.47152876853942871094e-01) (4, 3.32667827606201171875e-01) (3, 6.55961894989013671875e+00) (1, -8.08981716632843017578e-01) (4, -6.20949625968933105469e-01) (1, 7.25251853466033935547e-01) (4, -4.04476970434188842773e-02) (1, 3.26351150870323181152e-02) (3, 3.77719938755035400391e-01) (4, -2.30270270258188247681e-02) (0, 3.38870584964752197266e-01) (4, 7.79803991317749023438e-01) (3, 6.31641924381256103516e-01) (4, 1.38980492949485778809e-01) (3, 5.39344263076782226562e+00) (1, -4.15859249187633395195e-04) (4, 3.30392330884933471680e-01) (3, 3.41404646635055541992e-01) (4, -9.83991771936416625977e-02) (1, 6.26320838928222656250e-01) (3, 2.15250208973884582520e-01) (4, 2.21792206168174743652e-01) (1, 5.33371984958648681641e-01) (4, -1.95070922374725341797e-01) (1, 6.57411694526672363281e-01) (4, -1.29359155893325805664e-01) (1, 3.48440915346145629883e-01) (3, 5.82288563251495361328e-01) (4, 1.31082046031951904297e+00) (3, -1.55491840839385986328e+00) (4, 1.43695425987243652344e+00) (2, 1.08409202098846435547e+00) (1, 1.22984319925308227539e-01) (4, 1.57093226909637451172e-01) (1, 5.27907609939575195312e-01) (4, 4.31713074445724487305e-01) (0, -2.46274005621671676636e-02) (4, -3.30127692222595214844e+00) (0, 5.26232481002807617188e-01) (2, 6.87745690345764160156e-01) (4, -5.85898756980895996094e-01) (1, 7.15996205806732177734e-01) (4, 2.81081721186637878418e-02) (3, 1.85113176703453063965e-01) (1, -5.70840537548065185547e-02) (4, -1.40461400151252746582e-01) (2, 2.79201000928878784180e-01) (4, 3.87662529945373535156e-01) (1, 6.31183981895446777344e-01) (4, -1.39276176691055297852e-01) (1, 6.66942954063415527344e-01) (2, 1.13067895174026489258e-01) (4, -3.62559258937835693359e-02) (1, 6.36038661003112792969e-01) (4, -2.97843456268310546875e+00) (2, 6.42395734786987304688e-01) (0, 4.80738371610641479492e-01) (4, -5.75374066829681396484e-01) (2, 7.01014921069145202637e-02) (4, 3.63103717565536499023e-01) (2, 4.00532960891723632812e-01) (4, 7.37543225288391113281e-01) (2, 9.06902432441711425781e-01) (1, 7.18504607677459716797e-01) (4, 3.29868674278259277344e+00) (1, 6.08332335948944091797e-01) (4, -3.37653964757919311523e-01) (1, 1.97212427854537963867e-01) (0, 1.52358382940292358398e-01) (4, 3.34145903587341308594e-01) (0, 4.16353404521942138672e-01) (4, 7.52835214138031005859e-01) (0, 7.17605412006378173828e-01) (4, -2.33501315116882324219e+00) (1, 5.14267027378082275391e-01) (2, 7.80322670936584472656e-01) (4, 5.69105148315429687500e-01) (2, -5.21574802696704864502e-02) (4, 7.21275925636291503906e-01) (1, 3.72170150279998779297e-01) (0, 7.58991062641143798828e-01) (4, -4.85530830919742584229e-02) (2, 1.85766056180000305176e-01) (4, -2.16639861464500427246e-02) (3, 2.14101716876029968262e-01) (4, 4.22905111312866210938e+00) (3, 3.22448015213012695312e-01) (2, 1.29773825407028198242e-01) (4, 2.47125431895256042480e-01) (1, 5.26919186115264892578e-01) (4, -2.64193952083587646484e-01) (2, 7.42825746536254882812e-01) (0, -3.65890651941299438477e-01) (4, -3.73578453063964843750e+00) (2, 2.21632385253906250000e+00) (4, -9.09089446067810058594e-01) (2, 1.67402327060699462891e+00) (4, 6.71412467956542968750e-01) (1, 5.34212231636047363281e-01) (0, 1.04538435116410255432e-02) (4, -1.27422177791595458984e+00) (0, 7.38904297351837158203e-01) (4, -5.90849816799163818359e-01) (2, -9.51394498348236083984e-01) (1, 8.70758712291717529297e-01) (4, -1.33853375911712646484e-01) (3, 5.71964025497436523438e-01) (4, 3.97645354270935058594e+00) (2, 2.87616550922393798828e-01) (4, -2.40600511431694030762e-01) (1, 6.49362087249755859375e-01) (3, 1.56761080026626586914e-01) (4, -2.91097145527601242065e-02) (3, 6.87897875905036926270e-02) (4, 4.63022410869598388672e-01) (2, -3.67523729801177978516e-01) (1, -1.15876011550426483154e-01) (4, 3.95391881465911865234e-01) (2, 3.29523086547851562500e-01) (4, -1.30299758166074752808e-02) (2, 1.96400061249732971191e-01) (4, -5.19326782226562500000e+00) (3, 3.21771526336669921875e+00) (2, 9.09227490425109863281e-01) (4, 1.53311073780059814453e-01) (2, 1.38699501752853393555e-01) (4, -1.25080779194831848145e-01) (2, 2.34254240989685058594e-01) (0, 2.83692836761474609375e-01) (4, 3.01439851522445678711e-01) (2, 4.27046835422515869141e-01) (4, 9.03642833232879638672e-01) (2, 3.61274510622024536133e-01) (4, -3.55728536844253540039e-01) (0, 1.47817730903625488281e-01) (1, 2.16359883546829223633e-01) (4, -9.29063186049461364746e-02) (1, 5.32881729304790496826e-02) (4, -6.91046774387359619141e-01) (2, 2.33124479651451110840e-01) (1, 2.88880288600921630859e-01) (4, 1.79466187953948974609e-01) (2, 1.66874766349792480469e-01) (4, -7.60917901992797851562e-01) (2, 6.32771670818328857422e-01) (4, 8.09413418173789978027e-02) (2, 4.25472140312194824219e-01) (0, 2.34722301363945007324e-01) (4, 1.58971041440963745117e-01) (1, 6.35251343250274658203e-01) (4, 4.13010776042938232422e-01) (1, 7.57272005081176757812e-01) (0, 5.07874608039855957031e-01) (4, -8.07169005274772644043e-02) (1, 6.46626770496368408203e-01) (4, -4.54715400934219360352e-01) (2, 7.12926626205444335938e-01) (4, -2.72894263267517089844e+00) (3, 9.86188650131225585938e-01) (2, 4.32727128267288208008e-01) (4, 3.17329883575439453125e+00) (2, 1.21619558334350585938e+00) (4, 6.61265730857849121094e-01) (2, 1.59090653061866760254e-01) (1, 4.94479946792125701904e-03) (4, -7.82334208488464355469e-01) (3, 3.31533730030059814453e-01) (4, 3.17415416240692138672e-01) (0, 4.92408007383346557617e-01) (4, -3.36024731397628784180e-01) (1, 9.78178903460502624512e-02) (2, -7.76082426309585571289e-02) (4, 4.66141939163208007812e-01) (2, 5.03383934497833251953e-01) (4, 1.49712860584259033203e-01) (0, 6.10017716884613037109e-01) (1, 2.38988533616065979004e-01) (4, -3.93077194690704345703e-01) (2, 6.82344973087310791016e-01) (4, -1.22145123779773712158e-01) (0, 2.15163469314575195312e-01) (4, -4.49371665716171264648e-01) (1, 3.61987441778182983398e-01) (3, 2.97639787197113037109e-01) (4, 2.75942802429199218750e+00) (1, 6.33263230323791503906e-01) (4, 3.64860355854034423828e-01) (2, 5.41667461395263671875e-01) (1, 4.89888489246368408203e-01) (4, 1.09844505786895751953e-02) (2, -2.66890376806259155273e-01) (4, 3.98128867149353027344e-01) (2, 2.33129560947418212891e-01) (4, -4.85256767272949218750e+00) (3, 6.92819023132324218750e+00) (2, 1.02418088912963867188e+00) (4, -1.64305061101913452148e-01) (0, 1.40174806118011474609e-01) (4, -3.10175806283950805664e-01) (1, -8.83053004741668701172e-01) (2, 2.20998740196228027344e+00) (4, 4.20290136337280273438e+00) (2, 7.77922451496124267578e-01) (4, 5.27005195617675781250e-01) (3, 3.90181988477706909180e-01) (4, 1.21761143207550048828e+00) (0, 7.22661197185516357422e-01) (1, 8.05916845798492431641e-01) (4, 9.09286662936210632324e-02) (2, 5.78017532825469970703e-01) (4, -8.02806675434112548828e-01) (2, -1.09603211283683776855e-01) (0, -2.35752627253532409668e-01) (4, 1.18859207630157470703e+00) (1, 7.82945334911346435547e-01) (4, 3.06722074747085571289e-01) (1, 4.29602235555648803711e-01) (4, -3.80387961864471435547e-01) (1, -1.08025379478931427002e-01) (2, -1.50478208065032958984e+00) (4, -2.84230969846248626709e-02) (2, -4.09165769815444946289e-02) (4, 3.85049760341644287109e-01) (0, 6.53152287006378173828e-01) (2, 9.10342097282409667969e-01) (4, -7.73126780986785888672e-02) (3, 7.40170776844024658203e-01) (4, -2.53656536340713500977e-01) (0, 3.64424973726272583008e-01) (4, 5.53332448005676269531e-01) (0, 2.22953274846076965332e-01) (2, -9.45117712020874023438e-01) (4, 1.25264632701873779297e+00) (1, -1.34669959545135498047e-01) (4, -1.47161617875099182129e-01) (1, 3.01031097769737243652e-02) (3, 2.31212079524993896484e-01) (4, -3.18244159221649169922e-01) (1, 6.63711130619049072266e-01) (4, -2.74181693792343139648e-01) (2, 2.96234130859375000000e-01) (4, -3.12060117721557617188e-01) (3, -1.23395435512065887451e-01) (2, 1.47193789482116699219e-01) (4, 4.49995905160903930664e-01) (0, 4.70307648181915283203e-01) (4, 3.11139225959777832031e+00) (2, -3.73777598142623901367e-01) (3, -4.09762525558471679688e+00) (4, -1.17625665664672851562e+00) (0, 7.33056366443634033203e-01) (4, 3.52303594350814819336e-01) (1, 8.61830472946166992188e-01) (4, -6.06188327074050903320e-02) (2, 5.48659324645996093750e-01) (0, 9.72950577735900878906e-01) (4, 1.66183754801750183105e-01) (3, 9.63298439979553222656e-01) (4, -7.33419954776763916016e-01) (0, 3.91547335311770439148e-03) (2, -7.82911404967308044434e-02) (4, -4.25082677975296974182e-03) (0, 3.27960729598999023438e-01) (4, -2.25092768669128417969e-01) (0, 3.85125726461410522461e-01) (4, -4.41370296478271484375e+00) (2, 1.23190653324127197266e+00) (3, 5.55900716781616210938e+00) (4, 2.70324301719665527344e+00) (2, 8.85669410228729248047e-01) (4, 5.49840831756591796875e+00) (2, -1.27237212657928466797e+00) (3, 6.51602792739868164062e+00) (4, 2.22342640161514282227e-01) (2, -2.13104207068681716919e-02) (4, 7.09270894527435302734e-01) (1, 6.89520299434661865234e-01) (4, -4.83964502811431884766e-01) (2, 7.53420293331146240234e-02) (1, 4.36406016349792480469e-01) (4, -2.27605938911437988281e-01) (3, 1.73197612166404724121e-01) (4, 4.58830654621124267578e-01) (2, -3.30192029476165771484e-01) (1, -1.12316058948636054993e-02) (4, -3.47171723842620849609e-02) (0, -5.29372766613960266113e-02) (4, 3.18270921707153320312e+00) (2, -8.43493580818176269531e-01) (4, 2.70628154277801513672e-01) (1, 7.47210860252380371094e-01) (2, -4.90347266197204589844e-01) (4, 1.52704998850822448730e-01) (3, 9.53004881739616394043e-02) (4, 4.80164378881454467773e-01) (3, 7.21036940813064575195e-02) (0, -2.48407125473022460938e-01) (4, 4.00378294289112091064e-02) (2, -5.74030317366123199463e-02) (4, 6.94675087928771972656e-01) (1, 5.67195057868957519531e-01) (4, 3.97672355175018310547e-01) (2, 2.33453893661499023438e+00) (1, -1.14241576194763183594e+00) (4, 2.45627877302467823029e-03) (3, -2.47411593794822692871e-01) (4, 1.13421940803527832031e+00) (2, 5.78970670700073242188e-01) (1, 8.68354141712188720703e-01) (4, 1.90429747104644775391e-01) (3, 1.19487807154655456543e-01) (4, 2.99945265054702758789e-01) (1, 3.27347069978713989258e-01) (4, -4.70856055617332458496e-02) (1, 9.96160745620727539062e-01) (0, -2.49786481261253356934e-01) (4, 5.85361957550048828125e-01) (2, -8.12766730785369873047e-01) (4, 3.55013728141784667969e-01) (1, -1.08947849273681640625e+00) (2, 2.23395705223083496094e+00) (4, -2.22556829452514648438e-01) (1, 3.09041082859039306641e-01) (4, 3.23505997657775878906e-01) (0, 1.19948767125606536865e-01) (4, 1.19772948324680328369e-01) (0, 2.77223914861679077148e-01) (1, 1.12120425701141357422e+00) (4, 5.03925800323486328125e-01) (3, 9.56977069377899169922e-01) (4, 3.35375213623046875000e+00) (3, 3.78956049680709838867e-01) (2, 2.43401527404785156250e-01) (4, -2.10330820083618164062e+00) (1, 7.66238793730735778809e-02) (4, -6.12083196640014648438e-01) (3, 2.33353242278099060059e-01) (4, 3.15446555614471435547e-02) (3, -4.81029319763183593750e+00) (1, 9.56025898456573486328e-01) (4, 2.51922488212585449219e-01) (3, -1.54857605695724487305e-01) (4, 8.28451365232467651367e-02) (1, -3.29462140798568725586e-02) (2, 4.04753118753433227539e-01) (155, -4.61513251066207885742e-02) (5, 1.79724678397178649902e-01) (6, 2.32878223061561584473e-01) (12, -1.39063239097595214844e-01) (18, 1.21819376945495605469e-01) (26, 5.46291470527648925781e-01) (36, 4.34788644313812255859e-01) (43, 5.96510767936706542969e-01) (47, 4.71969902515411376953e-01) (50, -2.72687554359436035156e-01) (55, 1.05408704280853271484e+00) (56, 5.06120681762695312500e-01) (60, 1.01779162883758544922e-01) (64, 3.78068327903747558594e-01) (66, 1.65907874703407287598e-01) (74, 5.24920642375946044922e-01) (81, 3.85728210210800170898e-01) (82, 9.62730050086975097656e-01) (89, 2.53318786621093750000e-01) (92, -1.36518418788909912109e-01) (93, 2.01424792408943176270e-01) (94, -3.34029555320739746094e-01) (103, 1.00395941734313964844e+00) (112, 5.87588846683502197266e-01) (113, 5.64856410026550292969e-01) (114, 1.15260577201843261719e+00) (116, 4.37968194484710693359e-01) (117, -2.01253835111856460571e-02) (118, -7.60544091463088989258e-02) (122, -2.18478977680206298828e-01) (123, 2.43400916457176208496e-01) (125, 7.48377561569213867188e-01) (126, 2.94591575860977172852e-01) (133, 1.01998604834079742432e-01) (135, 1.01639378070831298828e+00) (136, 3.71618002653121948242e-01) (137, -8.67829844355583190918e-02) (143, 1.11605691909790039062e+00) (144, -1.59644126892089843750e-01) (147, -1.68408721685409545898e-01) (148, -5.67580498754978179932e-02) (149, 2.60180056095123291016e-01) (152, 1.27294206619262695312e+00) (153, 1.71561765670776367188e+00) (154, 1.74078181385993957520e-01) (99, 8.18896472454071044922e-01) (35, 8.95851433277130126953e-01) (11, 3.54613929986953735352e-01) (62, -3.18033367395401000977e-01) (101, -9.06445622444152832031e-01) (100, 2.59952247142791748047e-01) (69, 1.97588816285133361816e-01) (65, 1.28796726465225219727e-01) (155, 1.60901039838790893555e-01) (8, 5.42399597167968750000e+00) (9, 1.10414290428161621094e+00) (10, -2.07453250885009765625e-01) (11, 2.24187344312667846680e-01) (16, 3.01737189292907714844e-01) (19, 2.58276849985122680664e-01) (20, -1.48299384117126464844e+00) (21, 3.06019783020019531250e-01) (22, 4.51363420486450195312e+00) (24, 3.98773908615112304688e-01) (25, -6.21656239032745361328e-01) (27, -6.95827960968017578125e-01) (31, -2.98106998205184936523e-01) (32, 7.43472993373870849609e-01) (33, 3.25521737337112426758e-01) (34, -2.79527783393859863281e-01) (39, 5.52365899085998535156e-01) (41, -4.63079884648323059082e-02) (42, -1.87574520707130432129e-01) (44, -5.22211372852325439453e-01) (46, 1.19265718460083007812e+01) (48, -1.69426047801971435547e+00) (49, -1.13354313373565673828e+00) (54, -6.45449817180633544922e-01) (57, 8.87862324714660644531e-01) (58, 2.27030366659164428711e-02) (59, 1.24541056156158447266e+00) (62, 7.89688301086425781250e+00) (65, 3.22209030389785766602e-01) (67, 4.64413022994995117188e+00) (71, 5.51389396190643310547e-01) (72, -3.39746117591857910156e+00) (73, 4.21438097953796386719e-01) (75, 2.22505152225494384766e-01) (76, 4.60482627153396606445e-01) (77, -1.17723779678344726562e+01) (79, 1.47625327110290527344e-01) (83, -5.60098028182983398438e+00) (84, -2.07671690732240676880e-02) (85, 2.16746479272842407227e-01) (86, 4.16082888841629028320e-01) (87, 2.41888582706451416016e-01) (91, 3.89157921075820922852e-01) (96, 6.41875267028808593750e-02) (97, -8.58362019062042236328e-01) (98, -3.64199727773666381836e-02) (99, 8.70433688163757324219e-01) (100, 2.12427675724029541016e-01) (101, -1.79212343692779541016e+00) (104, -1.43052982166409492493e-02) (105, -4.15212965011596679688e+00) (110, 7.01853260397911071777e-02) (111, 6.52507066726684570312e-01) (155, 3.37698996067047119141e-01) (7, -1.28504842519760131836e-01) (13, 6.46387517452239990234e-01) (14, -1.08516618609428405762e-01) (15, 4.43509489297866821289e-01) (17, -7.25554704666137695312e-01) (23, 5.64560890197753906250e+00) (28, 8.55471849441528320312e-01) (29, 6.05502462387084960938e+00) (30, -6.60672426223754882812e+00) (35, 1.03242626190185546875e+01) (37, 7.55785167217254638672e-01) (38, 9.43063735961914062500e-01) (40, -4.54216659069061279297e-01) (45, 8.94998550415039062500e+00) (51, -2.00841927528381347656e+00) (52, 8.41396629810333251953e-01) (53, -7.48199462890625000000e-01) (61, 1.50626192092895507812e+01) (63, 6.98309361934661865234e-01) (68, 8.64474028348922729492e-02) (69, -1.03325583040714263916e-02) (70, 1.02263934910297393799e-01) (78, 8.52256476879119873047e-01) (80, 1.96311521530151367188e+00) (88, 6.31284773349761962891e-01) (90, 1.06950891017913818359e+00) (95, 9.31303322315216064453e-01) (102, 4.26845028996467590332e-02) (106, 4.48680907487869262695e-01) (107, 2.12999486923217773438e+00) (108, 6.33802354335784912109e-01) (109, -1.91975221037864685059e-01) (115, -5.54554700851440429688e-01) (119, 1.87241598963737487793e-01) (120, 4.05886888504028320312e-01) (121, -3.08933794498443603516e-01) (124, 5.08274316787719726562e-01) (127, 5.67316472530364990234e-01) (128, 8.55480957031250000000e+00) (129, 5.14292299747467041016e-01) (130, 9.55079436302185058594e-01) (131, 3.05571079254150390625e+00) (132, -1.08906102180480957031e+00) (134, 1.53226578235626220703e+00) (138, 1.32410264015197753906e+00) (139, 6.27976238727569580078e-01) (140, 4.80734729766845703125e+00) (141, -2.62128591537475585938e-01) (142, 7.41683423519134521484e-01) (145, 2.06640064716339111328e-02) (146, -4.90708440542221069336e-01) (150, 1.83004587888717651367e-01) (151, 1.61421546936035156250e+01) 
