FANN_FLO_2.1
num_layers=4
learning_rate=0.700000
connection_rate=0.350000
network_type=0
learning_momentum=0.000000
training_algorithm=2
train_error_function=1
train_stop_function=1
cascade_output_change_fraction=0.010000
quickprop_decay=-0.000100
quickprop_mu=1.750000
rprop_increase_factor=1.200000
rprop_decrease_factor=0.500000
rprop_delta_min=0.000000
rprop_delta_max=50.000000
rprop_delta_zero=0.100000
cascade_output_stagnation_epochs=12
cascade_candidate_change_fraction=0.010000
cascade_candidate_stagnation_epochs=12
cascade_max_out_epochs=150
cascade_min_out_epochs=50
cascade_max_cand_epochs=150
cascade_min_cand_epochs=50
cascade_num_candidate_groups=2
bit_fail_limit=1.00000001490116119385e-01
cascade_candidate_limit=1.00000000000000000000e+03
cascade_weight_multiplier=4.00000005960464477539e-01
cascade_activation_functions_count=10
cascade_activation_functions=3 5 7 8 10 11 14 15 16 17 
cascade_activation_steepnesses_count=4
cascade_activation_steepnesses=2.50000000000000000000e-01 5.00000000000000000000e-01 7.50000000000000000000e-01 1.00000000000000000000e+00 
layer_sizes=58 51 3 3 
scale_included=0
neurons (num_inputs, activation_function, activation_steepness)=(0, 0, 0.00000000000000000000e+00) (0, 0, 0.00000000000000000000e+00) (0, 0, 0.00000000000000000000e+00) (0, 0, 0.00000000000000000000e+00) (0, 0, 0.00000000000000000000e+00) (0, 0, 0.00000000000000000000e+00) (0, 0, 0.00000000000000000000e+00) (0, 0, 0.00000000000000000000e+00) (0, 0, 0.00000000000000000000e+00) (0, 0, 0.00000000000000000000e+00) (0, 0, 0.00000000000000000000e+00) (0, 0, 0.00000000000000000000e+00) (0, 0, 0.00000000000000000000e+00) (0, 0, 0.00000000000000000000e+00) (0, 0, 0.00000000000000000000e+00) (0, 0, 0.00000000000000000000e+00) (0, 0, 0.00000000000000000000e+00) (0, 0, 0.00000000000000000000e+00) (0, 0, 0.00000000000000000000e+00) (0, 0, 0.00000000000000000000e+00) (0, 0, 0.00000000000000000000e+00) (0, 0, 0.00000000000000000000e+00) (0, 0, 0.00000000000000000000e+00) (0, 0, 0.00000000000000000000e+00) (0, 0, 0.00000000000000000000e+00) (0, 0, 0.00000000000000000000e+00) (0, 0, 0.00000000000000000000e+00) (0, 0, 0.00000000000000000000e+00) (0, 0, 0.00000000000000000000e+00) (0, 0, 0.00000000000000000000e+00) (0, 0, 0.00000000000000000000e+00) (0, 0, 0.00000000000000000000e+00) (0, 0, 0.00000000000000000000e+00) (0, 0, 0.00000000000000000000e+00) (0, 0, 0.00000000000000000000e+00) (0, 0, 0.00000000000000000000e+00) (0, 0, 0.00000000000000000000e+00) (0, 0, 0.00000000000000000000e+00) (0, 0, 0.00000000000000000000e+00) (0, 0, 0.00000000000000000000e+00) (0, 0, 0.00000000000000000000e+00) (0, 0, 0.00000000000000000000e+00) (0, 0, 0.00000000000000000000e+00) (0, 0, 0.00000000000000000000e+00) (0, 0, 0.00000000000000000000e+00) (0, 0, 0.00000000000000000000e+00) (0, 0, 0.00000000000000000000e+00) (0, 0, 0.00000000000000000000e+00) (0, 0, 0.00000000000000000000e+00) (0, 0, 0.00000000000000000000e+00) (0, 0, 0.00000000000000000000e+00) (0, 0, 0.00000000000000000000e+00) (0, 0, 0.00000000000000000000e+00) (0, 0, 0.00000000000000000000e+00) (0, 0, 0.00000000000000000000e+00) (0, 0, 0.00000000000000000000e+00) (0, 0, 0.00000000000000000000e+00) (0, 0, 0.00000000000000000000e+00) (20, 0, 5.00000000000000000000e-01) (21, 0, 5.00000000000000000000e-01) (21, 0, 5.00000000000000000000e-01) (21, 0, 5.00000000000000000000e-01) (21, 0, 5.00000000000000000000e-01) (21, 0, 5.00000000000000000000e-01) (21, 0, 5.00000000000000000000e-01) (21, 0, 5.00000000000000000000e-01) (21, 0, 5.00000000000000000000e-01) (21, 0, 5.00000000000000000000e-01) (21, 0, 5.00000000000000000000e-01) (21, 0, 5.00000000000000000000e-01) (21, 0, 5.00000000000000000000e-01) (21, 0, 5.00000000000000000000e-01) (21, 0, 5.00000000000000000000e-01) (21, 0, 5.00000000000000000000e-01) (21, 0, 5.00000000000000000000e-01) (21, 0, 5.00000000000000000000e-01) (21, 0, 5.00000000000000000000e-01) (21, 0, 5.00000000000000000000e-01) (21, 0, 5.00000000000000000000e-01) (21, 0, 5.00000000000000000000e-01) (21, 0, 5.00000000000000000000e-01) (21, 0, 5.00000000000000000000e-01) (21, 0, 5.00000000000000000000e-01) (20, 0, 5.00000000000000000000e-01) (21, 0, 5.00000000000000000000e-01) (21, 0, 5.00000000000000000000e-01) (21, 0, 5.00000000000000000000e-01) (21, 0, 5.00000000000000000000e-01) (21, 0, 5.00000000000000000000e-01) (21, 0, 5.00000000000000000000e-01) (21, 0, 5.00000000000000000000e-01) (21, 0, 5.00000000000000000000e-01) (21, 0, 5.00000000000000000000e-01) (21, 0, 5.00000000000000000000e-01) (21, 0, 5.00000000000000000000e-01) (21, 0, 5.00000000000000000000e-01) (21, 0, 5.00000000000000000000e-01) (21, 0, 5.00000000000000000000e-01) (21, 0, 5.00000000000000000000e-01) (21, 0, 5.00000000000000000000e-01) (21, 0, 5.00000000000000000000e-01) (21, 0, 5.00000000000000000000e-01) (21, 0, 5.00000000000000000000e-01) (21, 0, 5.00000000000000000000e-01) (21, 0, 5.00000000000000000000e-01) (21, 0, 5.00000000000000000000e-01) (21, 0, 5.00000000000000000000e-01) (21, 0, 5.00000000000000000000e-01) (0, 0, 5.00000000000000000000e-01) (26, 0, 5.00000000000000000000e-01) (26, 0, 5.00000000000000000000e-01) (0, 0, 5.00000000000000000000e-01) (2, 5, 5.00000000000000000000e-01) (2, 5, 5.00000000000000000000e-01) (0, 5, 5.00000000000000000000e-01) 
connections (connected_to_neuron, weight)=(57, 7.03727662563323974609e-01) (16, 1.38748991489410400391e+00) (49, 4.13672387599945068359e-01) (51, -1.69185429811477661133e-01) (14, 4.48438264429569244385e-02) (27, 6.34477078914642333984e-01) (26, -1.69117999076843261719e+00) (20, -3.00261050462722778320e-01) (46, 5.44619607925415039062e+00) (55, -1.95691511034965515137e-02) (17, 3.13501387834548950195e-01) (15, -5.98097890615463256836e-02) (33, 1.94680726528167724609e+00) (25, 1.24321928024291992188e+01) (18, -1.94827869534492492676e-01) (30, 1.21216249465942382812e+01) (39, 1.81379336863756179810e-02) (12, -1.65079221129417419434e-01) (11, 2.22833827137947082520e-01) (38, 1.86229789257049560547e+00) (57, 8.13323318958282470703e-01) (1, 4.25205379724502563477e-01) (0, 4.81126356124877929688e+00) (48, 1.69831240177154541016e+00) (42, 2.94123315811157226562e+00) (22, -9.03133213520050048828e-01) (37, 3.07589858770370483398e-01) (36, 1.90153554081916809082e-01) (53, -1.32982552051544189453e-01) (2, -9.14147257804870605469e-01) (41, 4.78892946243286132812e+00) (45, 9.14683628082275390625e+00) (40, 8.93013229370117187500e+01) (46, 2.47090649604797363281e+00) (18, -2.62710660696029663086e-01) (14, -1.57414838671684265137e-01) (33, -5.66736412048339843750e+00) (26, 3.10901145935058593750e+01) (34, 4.91667240858078002930e-01) (10, 6.72249436378479003906e-01) (3, -2.98292756080627441406e-01) (57, 8.13299119472503662109e-01) (14, -1.57486602663993835449e-01) (20, -6.59590482711791992188e-01) (34, 4.91651505231857299805e-01) (2, -9.14115905761718750000e-01) (37, 3.07560771703720092773e-01) (23, -3.60153585672378540039e-01) (21, -2.06077069044113159180e-01) (1, 4.25200492143630981445e-01) (22, -9.03163790702819824219e-01) (50, 1.46414566040039062500e+00) (8, -1.00484395027160644531e+00) (53, -1.33021041750907897949e-01) (11, 1.87725096940994262695e-01) (46, 2.47095656394958496094e+00) (41, 4.78890275955200195312e+00) (39, -6.61351010203361511230e-02) (7, -8.71482431888580322266e-01) (32, 5.66136538982391357422e-01) (28, 1.31138286590576171875e+01) (19, -4.20209735631942749023e-01) (57, 8.13336193561553955078e-01) (29, 1.92815649509429931641e+00) (30, 2.46487951278686523438e+00) (22, -9.03076708316802978516e-01) (33, -5.66739845275878906250e+00) (32, 5.66147983074188232422e-01) (18, -2.62739866971969604492e-01) (7, -8.71528446674346923828e-01) (11, 1.87788337469100952148e-01) (34, 4.91693943738937377930e-01) (27, -4.64253127574920654297e-01) (6, -1.29962515830993652344e+00) (9, -1.61460414528846740723e-01) (26, 3.10901908874511718750e+01) (19, -4.20202404260635375977e-01) (10, 6.72239422798156738281e-01) (38, 2.87558078765869140625e+00) (49, 2.90761608630418777466e-02) (4, -1.56397116184234619141e+00) (53, -1.32960557937622070312e-01) (48, 1.69837248325347900391e+00) (57, 8.13244760036468505859e-01) (43, 2.58966016769409179688e+00) (1, 4.25239115953445434570e-01) (23, -3.60142141580581665039e-01) (14, -1.57442852854728698730e-01) (16, -4.37392741441726684570e-01) (28, 1.31138515472412109375e+01) (56, 4.65294197201728820801e-02) (39, -6.62060752511024475098e-02) (13, 6.49634242057800292969e-01) (12, -6.18697702884674072266e-01) (47, 7.57584810256958007812e+00) (34, 4.91752117872238159180e-01) (38, 2.87553405761718750000e+00) (11, 1.87779575586318969727e-01) (5, -2.23951005935668945312e+00) (4, -1.56395184993743896484e+00) (31, -6.31254720687866210938e+00) (51, -4.76828843355178833008e-01) (49, 2.90452856570482254028e-02) (36, 1.90120533108711242676e-01) (57, 1.77793316543102264404e-02) (44, -2.05834373831748962402e-01) (24, -3.22282999753952026367e-01) (14, 1.60232245922088623047e+00) (38, -9.87424403429031372070e-02) (36, -1.10748732089996337891e+00) (22, 1.30084514617919921875e+01) (43, -1.12853035330772399902e-01) (11, -4.32447969913482666016e-01) (10, 2.31859594583511352539e-01) (46, -1.34251499176025390625e+00) (18, 9.34657827019691467285e-02) (5, 8.04332077503204345703e-01) (15, 4.58582592010498046875e+00) (19, 2.18165349960327148438e+00) (25, -1.45479321479797363281e-01) (40, 1.00374277681112289429e-02) (54, 4.00455027818679809570e-01) (3, 3.51711034774780273438e+00) (2, -1.00768126547336578369e-01) (41, -4.72446531057357788086e-01) (57, 7.03835546970367431641e-01) (18, -1.94907739758491516113e-01) (40, 3.60075044631958007812e+00) (52, -1.66572165489196777344e+00) (39, 1.80720109492540359497e-02) (23, -1.57931283116340637207e-01) (35, 5.47777950763702392578e-01) (53, 5.31144201755523681641e-01) (15, -5.97737878561019897461e-02) (16, 1.38752233982086181641e+00) (27, 6.34545981884002685547e-01) (31, 2.21024203300476074219e+00) (30, 1.21215486526489257812e+01) (33, 1.94680297374725341797e+00) (7, -5.26043295860290527344e-01) (29, 2.31935501098632812500e+00) (32, 4.69293403625488281250e+00) (55, -1.95462331175804138184e-02) (51, -1.69163256883621215820e-01) (48, 1.30742764472961425781e+00) (11, 2.22903922200202941895e-01) (57, 1.77624635398387908936e-02) (45, -1.71143993735313415527e-01) (49, -2.95993745326995849609e-01) (12, -4.36488330364227294922e-01) (46, -1.34221720695495605469e+00) (48, -2.71969985961914062500e+00) (53, 5.43443500995635986328e-01) (17, 5.92087209224700927734e-01) (52, 1.91058025360107421875e+01) (3, 3.51703977584838867188e+00) (26, -3.44117246568202972412e-02) (51, 5.77914762496948242188e+00) (13, 5.18704131245613098145e-02) (10, 2.31939569115638732910e-01) (5, 8.04235875606536865234e-01) (14, 1.60235440731048583984e+00) (50, -2.53525614738464355469e-01) (22, 1.30084457397460937500e+01) (19, 2.18169116973876953125e+00) (8, 1.02171313762664794922e+00) (4, 9.22643303871154785156e-01) (57, 8.13398420810699462891e-01) (21, -2.06022024154663085938e-01) (41, 4.78884935379028320312e+00) (48, 1.69833290576934814453e+00) (27, -4.64326560497283935547e-01) (30, 2.46483755111694335938e+00) (15, -8.34953725337982177734e-01) (35, -3.04440093040466308594e+00) (28, 1.31138668060302734375e+01) (17, -3.06492358446121215820e-01) (37, 3.07580083608627319336e-01) (45, 9.14678478240966796875e+00) (16, -4.37401205301284790039e-01) (34, 4.91688698530197143555e-01) (20, -6.59631133079528808594e-01) (46, 2.47093844413757324219e+00) (53, -1.32953763008117675781e-01) (32, 5.66150844097137451172e-01) (11, 1.87755554914474487305e-01) (22, -9.03166413307189941406e-01) (50, 1.46413898468017578125e+00) (57, 8.13261449337005615234e-01) (5, -2.23948049545288085938e+00) (22, -9.03112471103668212891e-01) (26, 3.10901451110839843750e+01) (43, 2.58957433700561523438e+00) (8, -1.00481271743774414062e+00) (13, 6.49668693542480468750e-01) (45, 9.14683628082275390625e+00) (35, -3.04438805580139160156e+00) (51, -4.76875334978103637695e-01) (14, -1.57441303133964538574e-01) (54, -7.10681304335594177246e-02) (40, 8.93012771606445312500e+01) (38, 2.87561368942260742188e+00) (36, 1.90052479505538940430e-01) (29, 1.92821896076202392578e+00) (4, -1.56387937068939208984e+00) (33, -5.66740417480468750000e+00) (19, -4.20192033052444458008e-01) (34, 4.91714924573898315430e-01) (9, -1.61492183804512023926e-01) (57, 1.77935175597667694092e-02) (33, -8.55184316635131835938e-01) (2, -1.00765921175479888916e-01) (40, 1.00462492555379867554e-02) (26, -3.43780964612960815430e-02) (3, 3.51709699630737304688e+00) (13, 5.18494322896003723145e-02) (0, -5.10737121105194091797e-01) (44, -2.05796942114830017090e-01) (51, 5.77916097640991210938e+00) (39, -1.60834562778472900391e+00) (12, -4.36522543430328369141e-01) (23, 6.56172847747802734375e+00) (6, 1.72818489074707031250e+01) (9, -9.98238921165466308594e-02) (16, 1.46729385852813720703e+00) (5, 8.04281532764434814453e-01) (35, 4.93128567934036254883e-01) (46, -1.34251594543457031250e+00) (41, -4.72119480371475219727e-01) (15, 4.58585882186889648438e+00) (57, 1.76764540374279022217e-02) (28, 5.33108897507190704346e-02) (25, -1.45516753196716308594e-01) (20, 3.45059722661972045898e-01) (38, -9.86963212490081787109e-02) (10, 2.31888800859451293945e-01) (39, -1.60838413238525390625e+00) (24, -3.22310537099838256836e-01) (33, -8.55123996734619140625e-01) (55, 1.05126671493053436279e-01) (2, -1.00672639906406402588e-01) (44, -2.05867394804954528809e-01) (48, -2.71968269348144531250e+00) (41, -4.71978843212127685547e-01) (47, -3.85669738054275512695e-01) (0, -5.10684192180633544922e-01) (8, 1.02164769172668457031e+00) (18, 9.34545770287513732910e-02) (6, 1.72818298339843750000e+01) (49, -2.96095490455627441406e-01) (43, -1.12838730216026306152e-01) (57, 1.76741294562816619873e-02) (17, 5.92146456241607666016e-01) (23, 6.56168079376220703125e+00) (38, -9.86727178096771240234e-02) (45, -1.71100124716758728027e-01) (6, 1.72818145751953125000e+01) (18, 9.34729352593421936035e-02) (42, -5.01311123371124267578e-01) (2, -1.00707210600376129150e-01) (40, 9.97150223702192306519e-03) (33, -8.55201840400695800781e-01) (27, 4.47525948286056518555e-01) (53, 5.43467938899993896484e-01) (47, -3.85646253824234008789e-01) (34, -4.79741781949996948242e-01) (41, -4.72121149301528930664e-01) (48, -2.71971464157104492188e+00) (8, 1.02172422409057617188e+00) (32, -2.71554231643676757812e-01) (7, 1.36615610122680664062e+00) (25, -1.45489215850830078125e-01) (57, 1.76648907363414764404e-02) (43, -1.13193884491920471191e-01) (5, 8.04287731647491455078e-01) (26, -3.44368219375610351562e-02) (9, -9.98255014419555664062e-02) (45, -1.71116814017295837402e-01) (27, 4.47609096765518188477e-01) (25, -1.45534038543701171875e-01) (13, 5.18952682614326477051e-02) (52, 1.91057186126708984375e+01) (28, 5.33055849373340606689e-02) (20, 3.45058828592300415039e-01) (21, 8.63534569740295410156e-01) (47, -3.85674983263015747070e-01) (14, 1.60239160060882568359e+00) (33, -8.55129420757293701172e-01) (3, 3.51709938049316406250e+00) (46, -1.34244298934936523438e+00) (34, -4.79752629995346069336e-01) (31, 5.29554986953735351562e+00) (32, -2.71633982658386230469e-01) (57, 1.77585892379283905029e-02) (31, 5.29599475860595703125e+00) (21, 8.63567829132080078125e-01) (10, 2.31876879930496215820e-01) (13, 5.19054606556892395020e-02) (32, -2.71621823310852050781e-01) (27, 4.47612494230270385742e-01) (55, 1.05087034404277801514e-01) (53, 5.43491542339324951172e-01) (4, 9.22606825828552246094e-01) (35, 4.93202835321426391602e-01) (37, -1.05989158153533935547e+00) (16, 1.46730077266693115234e+00) (3, 3.51701688766479492188e+00) (39, -1.60830998420715332031e+00) (14, 1.60236895084381103516e+00) (25, -1.45455956459045410156e-01) (18, 9.34212580323219299316e-02) (54, 4.00418668985366821289e-01) (30, -2.15487912297248840332e-01) (7, 1.36616230010986328125e+00) (57, 1.77497081458568572998e-02) (22, 1.30084609985351562500e+01) (42, -5.01325070858001708984e-01) (38, -9.89788323640823364258e-02) (17, 5.92099726200103759766e-01) (23, 6.56173992156982421875e+00) (12, -4.36518788337707519531e-01) (44, -2.05826625227928161621e-01) (30, -2.15410783886909484863e-01) (40, 1.00082196295261383057e-02) (9, -9.98462438583374023438e-02) (18, 9.34552922844886779785e-02) (29, -1.93894669413566589355e-01) (4, 9.22589898109436035156e-01) (3, 3.51703262329101562500e+00) (5, 8.04267704486846923828e-01) (16, 1.46732532978057861328e+00) (54, 4.00468558073043823242e-01) (14, 1.60231459140777587891e+00) (53, 5.43401420116424560547e-01) (45, -1.71120628714561462402e-01) (57, 7.03877508640289306641e-01) (8, -8.15771937370300292969e-01) (43, 4.42648696899414062500e+00) (19, -5.56312978267669677734e-01) (10, 4.59587126970291137695e-01) (50, 4.07692098617553710938e+00) (39, 1.81500334292650222778e-02) (47, 1.99495506286621093750e+01) (28, 1.18538055419921875000e+01) (16, 1.38750731945037841797e+00) (6, -3.83399099111557006836e-01) (55, -1.96007713675498962402e-02) (12, -1.65082678198814392090e-01) (17, 3.13507288694381713867e-01) (14, 4.47852946817874908447e-02) (3, -2.92810946702957153320e-02) (23, -1.57872855663299560547e-01) (53, 5.31225860118865966797e-01) (22, -4.17596191167831420898e-01) (33, 1.94683039188385009766e+00) (26, -1.69124674797058105469e+00) (57, 8.13312232494354248047e-01) (4, -1.56392061710357666016e+00) (35, -3.04433846473693847656e+00) (7, -8.71475279331207275391e-01) (31, -6.31255483627319335938e+00) (22, -9.03176665306091308594e-01) (14, -1.57430812716484069824e-01) (28, 1.31137905120849609375e+01) (53, -1.33034944534301757812e-01) (3, -2.98322200775146484375e-01) (24, 1.10854406356811523438e+01) (23, -3.60219269990921020508e-01) (43, 2.58964490890502929688e+00) (17, -3.06518107652664184570e-01) (11, 1.87726527452468872070e-01) (12, -6.18680059909820556641e-01) (56, 4.65152338147163391113e-02) (25, 7.33835124969482421875e+00) (13, 6.49623632431030273438e-01) (51, -4.76920396089553833008e-01) (50, 1.46407699584960937500e+00) (57, 8.13221156597137451172e-01) (18, -2.62689024209976196289e-01) (50, 1.46411371231079101562e+00) (27, -4.64299023151397705078e-01) (14, -1.57419487833976745605e-01) (43, 2.58960676193237304688e+00) (47, 7.57580804824829101562e+00) (35, -3.04433226585388183594e+00) (33, -5.66732788085937500000e+00) (3, -2.98300147056579589844e-01) (5, -2.23950815200805664062e+00) (38, 2.87554359436035156250e+00) (26, 3.10902061462402343750e+01) (30, 2.46489858627319335938e+00) (25, 7.33831691741943359375e+00) (48, 1.69838678836822509766e+00) (24, 1.10854139328002929688e+01) (17, -3.06553274393081665039e-01) (21, -2.06007152795791625977e-01) (8, -1.00479435920715332031e+00) (4, -1.56386840343475341797e+00) (57, 6.48051500320434570312e-01) (9, 7.59979546070098876953e-01) (30, 4.79553729295730590820e-01) (56, 2.27748453617095947266e-02) (36, -4.58026677370071411133e-01) (15, -1.06109634041786193848e-01) (4, -4.29240792989730834961e-01) (18, 6.65589690208435058594e-01) (49, 3.70914816856384277344e-01) (40, -9.65519726276397705078e-01) (52, -3.25114107131958007812e+00) (26, 3.46108436584472656250e-01) (14, 8.18296253681182861328e-01) (38, -8.11671435832977294922e-01) (47, -7.81193017959594726562e-01) (45, -8.75629067420959472656e-01) (11, 5.32000601291656494141e-01) (8, 3.67658622562885284424e-02) (27, -4.96605426073074340820e-01) (7, 7.96010792255401611328e-01) (35, -2.77141004800796508789e-01) (57, 1.78423337638378143311e-02) (24, -3.22250932455062866211e-01) (52, 1.91057109832763671875e+01) (21, 8.63519906997680664062e-01) (54, 4.00454014539718627930e-01) (8, 1.02170419692993164062e+00) (20, 3.45063596963882446289e-01) (19, 2.18170928955078125000e+00) (6, 1.72817687988281250000e+01) (34, -4.79777306318283081055e-01) (5, 8.04317653179168701172e-01) (47, -3.85622173547744750977e-01) (29, -1.93829521536827087402e-01) (42, -5.01396656036376953125e-01) (51, 5.77910327911376953125e+00) (0, -5.10703980922698974609e-01) (11, -4.32430803775787353516e-01) (14, 1.60232532024383544922e+00) (33, -8.55156362056732177734e-01) (30, -2.15398564934730529785e-01) (3, 3.51704025268554687500e+00) (57, 8.13221275806427001953e-01) (19, -4.20211166143417358398e-01) (29, 1.92818176746368408203e+00) (6, -1.30005800724029541016e+00) (42, 2.94123125076293945312e+00) (1, 4.25146251916885375977e-01) (43, 2.58957815170288085938e+00) (12, -6.18692696094512939453e-01) (24, 1.10854482650756835938e+01) (39, -6.62118494510650634766e-02) (22, -9.03150200843811035156e-01) (36, 1.90112784504890441895e-01) (50, 1.46406698226928710938e+00) (34, 4.91685837507247924805e-01) (8, -1.00483798980712890625e+00) (37, 3.07587713003158569336e-01) (21, -2.06044256687164306641e-01) (17, -3.06476324796676635742e-01) (32, 5.66226184368133544922e-01) (14, -1.57400175929069519043e-01) (2, -9.14124846458435058594e-01) (57, 1.77568010985851287842e-02) (10, 2.31921017169952392578e-01) (14, 1.60238540172576904297e+00) (46, -1.34253692626953125000e+00) (18, 9.34246554970741271973e-02) (2, -1.00684739649295806885e-01) (45, -1.71137914061546325684e-01) (49, -2.96004414558410644531e-01) (36, -1.10741174221038818359e+00) (6, 1.72818183898925781250e+01) (38, -9.89294648170471191406e-02) (19, 2.18166875839233398438e+00) (32, -2.71616935729980468750e-01) (21, 8.63536477088928222656e-01) (15, 4.58588647842407226562e+00) (23, 6.56170177459716796875e+00) (16, 1.46732079982757568359e+00) (7, 1.36609172821044921875e+00) (20, 3.45057040452957153320e-01) (8, 1.02169775962829589844e+00) (12, -4.36536490917205810547e-01) (57, 7.03890979290008544922e-01) (2, -2.08212584257125854492e-01) (41, 9.63394832611083984375e+00) (16, 1.38744723796844482422e+00) (10, 4.59526807069778442383e-01) (45, 2.10319461822509765625e+01) (50, 4.07695436477661132812e+00) (11, 2.22853139042854309082e-01) (55, -1.95894166827201843262e-02) (6, -3.83036553859710693359e-01) (18, -1.94813326001167297363e-01) (9, 4.93329577147960662842e-02) (32, 4.69296073913574218750e+00) (1, 4.46737796068191528320e-01) (12, -1.65026709437370300293e-01) (53, 5.31175673007965087891e-01) (5, -2.72048979997634887695e-01) (24, 1.56522426605224609375e+01) (42, 8.76395988464355468750e+00) (4, 4.84240055084228515625e-02) (17, 3.13561052083969116211e-01) (57, 8.13284695148468017578e-01) (49, 2.90098879486322402954e-02) (38, 2.87552833557128906250e+00) (18, -2.62725442647933959961e-01) (37, 3.07579845190048217773e-01) (20, -6.59599184989929199219e-01) (40, 8.93012466430664062500e+01) (23, -3.60152989625930786133e-01) (24, 1.10854597091674804688e+01) (21, -2.06059694290161132812e-01) (53, -1.32970452308654785156e-01) (7, -8.71492087841033935547e-01) (48, 1.69829857349395751953e+00) (22, -9.03104603290557861328e-01) (47, 7.57589197158813476562e+00) (16, -4.37440067529678344727e-01) (46, 2.47094655036926269531e+00) (17, -3.06542187929153442383e-01) (1, 4.25190955400466918945e-01) (41, 4.78887605667114257812e+00) (33, -5.66738891601562500000e+00) (57, 8.13246071338653564453e-01) (6, -1.29961276054382324219e+00) (37, 3.07525247335433959961e-01) (46, 2.47090125083923339844e+00) (43, 2.58959913253784179688e+00) (7, -8.71510565280914306641e-01) (17, -3.06562989950180053711e-01) (23, -3.60195189714431762695e-01) (45, 9.14682483673095703125e+00) (13, 6.49713993072509765625e-01) (34, 4.91738289594650268555e-01) (21, -2.06032693386077880859e-01) (31, -6.31263971328735351562e+00) (15, -8.35054457187652587891e-01) (30, 2.46483373641967773438e+00) (16, -4.37424689531326293945e-01) (41, 4.78886270523071289062e+00) (25, 7.33832836151123046875e+00) (28, 1.31138362884521484375e+01) (51, -4.76853519678115844727e-01) (57, 3.69179576635360717773e-01) (39, 1.54909574985504150391e+00) (43, 9.10054492950439453125e+00) (55, 6.71511963009834289551e-02) (48, 1.74535286426544189453e+00) (11, 1.30813002586364746094e+00) (28, 1.82067737579345703125e+01) (29, 3.21190261840820312500e+00) (21, 8.22546184062957763672e-02) (23, -5.14890372753143310547e-01) (32, 7.34326314926147460938e+00) (44, 4.86542463302612304688e+00) (15, -5.24599969387054443359e-01) (26, 1.31485061645507812500e+01) (2, 1.94386649131774902344e+00) (25, 2.03605403900146484375e+01) (6, -2.90459799766540527344e+00) (54, 2.71833330392837524414e-01) (34, 3.47338819503784179688e+00) (33, 3.42441225051879882812e+00) (1, 8.22301149368286132812e-01) (57, 8.13410222530364990234e-01) (23, -3.60216051340103149414e-01) (46, 2.47089266777038574219e+00) (53, -1.33037149906158447266e-01) (48, 1.69835197925567626953e+00) (24, 1.10854253768920898438e+01) (19, -4.20243412256240844727e-01) (9, -1.61476358771324157715e-01) (44, 3.01236486434936523438e+00) (31, -6.31254911422729492188e+00) (13, 6.49685978889465332031e-01) (27, -4.64310705661773681641e-01) (6, -1.30001413822174072266e+00) (39, -6.62050023674964904785e-02) (28, 1.31138134002685546875e+01) (36, 1.90139487385749816895e-01) (30, 2.46483564376831054688e+00) (20, -6.59585595130920410156e-01) (4, -1.56392157077789306641e+00) (54, -7.10778757929801940918e-02) (10, 6.72205209732055664062e-01) (57, 7.03794658184051513672e-01) (21, -4.83814366161823272705e-02) (16, 1.38752067089080810547e+00) (43, 4.42646217346191406250e+00) (51, -1.69162064790725708008e-01) (14, 4.48503829538822174072e-02) (8, -8.15733075141906738281e-01) (12, -1.65117546916007995605e-01) (27, 6.34496510028839111328e-01) (41, 9.63394832611083984375e+00) (29, 2.31934547424316406250e+00) (55, -1.95407196879386901855e-02) (45, 2.10320034027099609375e+01) (50, 4.07686853408813476562e+00) (13, 4.80895787477493286133e-01) (34, 3.21582913398742675781e+00) (30, 1.21215658187866210938e+01) (25, 1.24321355819702148438e+01) (3, -2.92444266378879547119e-02) (10, 4.59514290094375610352e-01) (38, 1.86234056949615478516e+00) (57, 1.77826099097728729248e-02) (13, 5.19304946064949035645e-02) (15, 4.58590078353881835938e+00) (27, 4.47616070508956909180e-01) (31, 5.29599761962890625000e+00) (3, 3.51703739166259765625e+00) (50, -2.53559350967407226562e-01) (24, -3.22301954030990600586e-01) (34, -4.79786336421966552734e-01) (40, 1.00189493969082832336e-02) (5, 8.04291546344757080078e-01) (51, 5.77910280227661132812e+00) (45, -1.71133384108543395996e-01) (33, -8.55117261409759521484e-01) (38, -9.89881306886672973633e-02) (2, -1.00746251642704010010e-01) (47, -3.85633140802383422852e-01) (30, -2.15436771512031555176e-01) (10, 2.31917798519134521484e-01) (35, 4.93145853281021118164e-01) (12, -4.36493515968322753906e-01) (57, 7.03756868839263916016e-01) (43, 4.42652130126953125000e+00) (50, 4.07694101333618164062e+00) (41, 9.63391971588134765625e+00) (14, 4.48034144937992095947e-02) (38, 1.86228501796722412109e+00) (46, 5.44622468948364257812e+00) (36, 1.62809252738952636719e-01) (34, 3.21582937240600585938e+00) (47, 1.99495277404785156250e+01) (5, -2.72017747163772583008e-01) (40, 3.60078096389770507812e+00) (55, -1.94988176226615905762e-02) (25, 1.24321966171264648438e+01) (29, 2.31934356689453125000e+00) (35, 5.47795236110687255859e-01) (9, 4.92715612053871154785e-02) (26, -1.69122385978698730469e+00) (10, 4.59533959627151489258e-01) (7, -5.26008367538452148438e-01) (3, -2.92003042995929718018e-02) (57, 7.03907787799835205078e-01) (2, -2.08255678415298461914e-01) (25, 1.24322328567504882812e+01) (32, 4.69293117523193359375e+00) (52, -1.66568970680236816406e+00) (26, -1.69121050834655761719e+00) (48, 1.30748188495635986328e+00) (23, -1.57951325178146362305e-01) (10, 4.59559351205825805664e-01) (37, 2.00154685974121093750e+00) (55, -1.95797905325889587402e-02) (22, -4.17633146047592163086e-01) (24, 1.56521892547607421875e+01) (36, 1.62775158882141113281e-01) (6, -3.83486360311508178711e-01) (31, 2.21024966239929199219e+00) (38, 1.86236822605133056641e+00) (41, 9.63397693634033203125e+00) (21, -4.83100786805152893066e-02) (44, -5.70231485366821289062e+00) (45, 2.10319728851318359375e+01) (57, 8.13262283802032470703e-01) (34, 4.91650551557540893555e-01) (35, -3.04439187049865722656e+00) (37, 3.07555049657821655273e-01) (42, 2.94120645523071289062e+00) (44, 3.01238012313842773438e+00) (38, 2.87559700012207031250e+00) (46, 2.47095417976379394531e+00) (11, 1.87719255685806274414e-01) (39, -6.61532729864120483398e-02) (32, 5.66188037395477294922e-01) (16, -4.37444478273391723633e-01) (5, -2.23946332931518554688e+00) (45, 9.14687252044677734375e+00) (48, 1.69837200641632080078e+00) (49, 2.89903357625007629395e-02) (51, -4.76846843957901000977e-01) (52, -5.10264396667480468750e+00) (28, 1.31138668060302734375e+01) (53, -1.33006721735000610352e-01) (47, 7.57579660415649414062e+00) (57, 7.03808248043060302734e-01) (27, 6.34531319141387939453e-01) (53, 5.31201899051666259766e-01) (26, -1.69121813774108886719e+00) (41, 9.63390254974365234375e+00) (7, -5.26031494140625000000e-01) (18, -1.94875195622444152832e-01) (21, -4.83939461410045623779e-02) (47, 1.99495887756347656250e+01) (36, 1.62802457809448242188e-01) (12, -1.65083214640617370605e-01) (30, 1.21215982437133789062e+01) (5, -2.71983414888381958008e-01) (51, -1.69175058603286743164e-01) (50, 4.07695341110229492188e+00) (16, 1.38746225833892822266e+00) (11, 2.22886398434638977051e-01) (46, 5.44625329971313476562e+00) (28, 1.18537597656250000000e+01) (40, 3.60077905654907226562e+00) (55, -1.95779129862785339355e-02) (57, 1.77566222846508026123e-02) (19, 2.18174028396606445312e+00) (37, -1.05993211269378662109e+00) (47, -3.85649234056472778320e-01) (45, -1.71173200011253356934e-01) (14, 1.60238158702850341797e+00) (2, -1.00744582712650299072e-01) (4, 9.22627091407775878906e-01) (49, -2.96081066131591796875e-01) (9, -9.98405218124389648438e-02) (13, 5.18549755215644836426e-02) (42, -5.01327335834503173828e-01) (44, -2.05794319510459899902e-01) (33, -8.55156004428863525391e-01) (50, -2.53615856170654296875e-01) (30, -2.15434685349464416504e-01) (52, 1.91058101654052734375e+01) (22, 1.30084476470947265625e+01) (12, -4.36542749404907226562e-01) (29, -1.93825587630271911621e-01) (16, 1.46735179424285888672e+00) (57, 1.78172998130321502686e-02) (15, 4.58588027954101562500e+00) (12, -4.36512231826782226562e-01) (11, -4.32441413402557373047e-01) (17, 5.92175543308258056641e-01) (27, 4.47526842355728149414e-01) (47, -3.85641247034072875977e-01) (46, -1.34252309799194335938e+00) (6, 1.72817916870117187500e+01) (54, 4.00457471609115600586e-01) (48, -2.71970605850219726562e+00) (34, -4.79763239622116088867e-01) (33, -8.55135202407836914062e-01) (18, 9.34147611260414123535e-02) (35, 4.93170529603958129883e-01) (0, -5.10700881481170654297e-01) (13, 5.18766716122627258301e-02) (25, -1.45536541938781738281e-01) (22, 1.30085163116455078125e+01) (41, -4.71672177314758300781e-01) (9, -9.98274087905883789062e-02) (57, 6.86905622482299804688e-01) (46, 1.19580411911010742188e+00) (18, -4.12034451961517333984e-01) (32, 4.02442812919616699219e-01) (45, 1.14769959449768066406e+00) (21, -3.55428904294967651367e-01) (42, 1.43520200252532958984e+00) (5, -5.49110591411590576172e-01) (10, 4.23460781574249267578e-01) (8, -1.15410757064819335938e+00) (55, -1.67769134044647216797e-01) (1, 4.45103377103805541992e-01) (14, 1.65720537304878234863e-01) (36, 2.22102701663970947266e-01) (34, 4.61417078971862792969e-01) (23, 1.46229654550552368164e-01) (28, 1.14452862739562988281e+00) (11, 3.48788559436798095703e-01) (56, -1.02761089801788330078e-01) (27, 2.88714379072189331055e-01) (43, 3.36501240730285644531e-01) (57, 8.13200771808624267578e-01) (20, -6.59624695777893066406e-01) (12, -6.18665397167205810547e-01) (3, -2.98289358615875244141e-01) (52, -5.10263824462890625000e+00) (19, -4.20167118310928344727e-01) (9, -1.61493316292762756348e-01) (11, 1.87789827585220336914e-01) (54, -7.10987150669097900391e-02) (14, -1.57480046153068542480e-01) (2, -9.14158821105957031250e-01) (26, 3.10901527404785156250e+01) (15, -8.35035622119903564453e-01) (45, 9.14678859710693359375e+00) (40, 8.93012924194335937500e+01) (13, 6.49636626243591308594e-01) (23, -3.60137134790420532227e-01) (43, 2.58959150314331054688e+00) (27, -4.64226186275482177734e-01) (1, 4.25195604562759399414e-01) (36, 1.90118268132209777832e-01) (57, 8.13304126262664794922e-01) (4, -1.56391084194183349609e+00) (12, -6.18628442287445068359e-01) (47, 7.57588243484497070312e+00) (0, 4.81134080886840820312e+00) (1, 4.25198823213577270508e-01) (21, -2.06059843301773071289e-01) (23, -3.60201746225357055664e-01) (27, -4.64229404926300048828e-01) (46, 2.47096610069274902344e+00) (48, 1.69832813739776611328e+00) (32, 5.66146075725555419922e-01) (26, 3.10901451110839843750e+01) (13, 6.49701118469238281250e-01) (11, 1.87720686197280883789e-01) (42, 2.94120645523071289062e+00) (5, -2.23947858810424804688e+00) (18, -2.62654393911361694336e-01) (53, -1.32936865091323852539e-01) (33, -5.66734504699707031250e+00) (16, -4.37452226877212524414e-01) (57, 1.77068524062633514404e-02) (33, -8.55138957500457763672e-01) (50, -2.53581643104553222656e-01) (12, -4.36559379100799560547e-01) (21, 8.63614797592163085938e-01) (44, -2.05860957503318786621e-01) (39, -1.60838091373443603516e+00) (49, -2.95993328094482421875e-01) (43, -1.12764343619346618652e-01) (7, 1.36618828773498535156e+00) (17, 5.92130601406097412109e-01) (29, -1.93858847022056579590e-01) (35, 4.93210345506668090820e-01) (25, -1.45521998405456542969e-01) (28, 5.32795973122119903564e-02) (20, 3.45073491334915161133e-01) (6, 1.72818336486816406250e+01) (23, 6.56172657012939453125e+00) (22, 1.30084629058837890625e+01) (5, 8.04300606250762939453e-01) (0, -5.10668575763702392578e-01) (57, 1.77395157516002655029e-02) (28, 5.32572455704212188721e-02) (30, -2.15411141514778137207e-01) (43, -1.12792953848838806152e-01) (33, -8.55192482471466064453e-01) (14, 1.60232031345367431641e+00) (26, -3.44281159341335296631e-02) (35, 4.93150562047958374023e-01) (49, -2.96004772186279296875e-01) (44, -2.05824002623558044434e-01) (16, 1.46734583377838134766e+00) (21, 8.63580107688903808594e-01) (17, 5.92085063457489013672e-01) (11, -4.32458460330963134766e-01) (34, -4.79734331369400024414e-01) (38, -9.89917069673538208008e-02) (4, 9.22642469406127929688e-01) (47, -3.85623246431350708008e-01) (5, 8.04258525371551513672e-01) (20, 3.45129698514938354492e-01) (32, -2.71634340286254882812e-01) (57, 6.48166179656982421875e-01) (11, 5.32024621963500976562e-01) (36, -4.58058655261993408203e-01) (54, 4.45150911808013916016e-01) (52, -3.25123834609985351562e+00) (51, -4.38772857189178466797e-01) (32, -8.25242638587951660156e-01) (13, 6.50868952274322509766e-01) (56, 2.27404516190290451050e-02) (24, -7.19305634498596191406e-01) (3, 2.09127902984619140625e+00) (26, 3.46059620380401611328e-01) (9, 7.59971141815185546875e-01) (40, -9.65466558933258056641e-01) (31, -1.30782938003540039062e+00) (28, -2.32468754053115844727e-01) (38, -8.11601579189300537109e-01) (14, 8.18289577960968017578e-01) (50, -9.29519414901733398438e-01) (47, -7.81142711639404296875e-01) (8, 3.66908758878707885742e-02) (57, 1.76657848060131072998e-02) (55, 1.05100028216838836670e-01) (0, -5.10689795017242431641e-01) (19, 2.18172788619995117188e+00) (51, 5.77906465530395507812e+00) (10, 2.31935754418373107910e-01) (45, -1.71128734946250915527e-01) (16, 1.46732079982757568359e+00) (46, -1.34215950965881347656e+00) (9, -9.98135209083557128906e-02) (40, 9.95683949440717697144e-03) (31, 5.29595136642456054688e+00) (32, -2.71638989448547363281e-01) (36, -1.10748660564422607422e+00) (23, 6.56170558929443359375e+00) (18, 9.34413447976112365723e-02) (33, -8.55160355567932128906e-01) (13, 5.19137457013130187988e-02) (4, 9.22586441040039062500e-01) (49, -2.96084940433502197266e-01) (48, -2.71971750259399414062e+00) (57, 1.77255682647228240967e-02) (16, 1.46733176708221435547e+00) (4, 9.22558784484863281250e-01) (49, -2.96018660068511962891e-01) (13, 5.18410876393318176270e-02) (21, 8.63521933555603027344e-01) (44, -2.05867871642112731934e-01) (20, 3.45097094774246215820e-01) (25, -1.45481467247009277344e-01) (47, -3.85647922754287719727e-01) (24, -3.22248548269271850586e-01) (5, 8.04277122020721435547e-01) (18, 9.34180393815040588379e-02) (53, 5.43459713459014892578e-01) (48, -2.71973133087158203125e+00) (39, -1.60831260681152343750e+00) (0, -5.10769665241241455078e-01) (26, -3.43811959028244018555e-02) (17, 5.92141568660736083984e-01) (54, 4.00447994470596313477e-01) (37, -1.05984103679656982422e+00) (57, 6.48205220699310302734e-01) (3, 2.09125733375549316406e+00) (35, -2.77143865823745727539e-01) (5, 5.45875132083892822266e-01) (56, 2.27506738156080245972e-02) (53, 9.02999341487884521484e-01) (4, -4.29312884807586669922e-01) (25, -1.00592565536499023438e+00) (20, 5.63911020755767822266e-01) (50, -9.29494380950927734375e-01) (15, -1.06102600693702697754e-01) (46, 5.23775696754455566406e-01) (47, -7.81115055084228515625e-01) (29, -1.88035182654857635498e-02) (6, -1.45809805393218994141e+00) (38, -8.11411798000335693359e-01) (49, 3.70813518762588500977e-01) (23, 1.14326328039169311523e-01) (28, -2.32452660799026489258e-01) (24, -7.19318032264709472656e-01) (27, -4.96621906757354736328e-01) (57, 1.76781229674816131592e-02) (7, 1.36615443229675292969e+00) (38, -9.90160107612609863281e-02) (43, -1.13180413842201232910e-01) (45, -1.71118244528770446777e-01) (19, 2.18166208267211914062e+00) (26, -3.44070754945278167725e-02) (29, -1.93892285227775573730e-01) (3, 3.51709318161010742188e+00) (13, 5.18978312611579895020e-02) (4, 9.22547101974487304688e-01) (10, 2.31910169124603271484e-01) (32, -2.71580457687377929688e-01) (1, -1.58722862601280212402e-01) (6, 1.72818107604980468750e+01) (44, -2.05873951315879821777e-01) (51, 5.77910137176513671875e+00) (40, 9.96327772736549377441e-03) (20, 3.45134347677230834961e-01) (11, -4.32510316371917724609e-01) (52, 1.91057262420654296875e+01) (57, 3.63164283335208892822e-02) (48, -3.18284541368484497070e-01) (23, 1.42902278900146484375e+00) (55, 1.23730398714542388916e-01) (10, 3.28516751527786254883e-01) (7, 5.34194946289062500000e-01) (27, 2.56388723850250244141e-01) (46, -3.89164090156555175781e-01) (56, 1.10362153500318527222e-02) (29, -1.25869131088256835938e+00) (16, 5.46623706817626953125e-01) (38, 8.84238723665475845337e-03) (47, -2.78092890977859497070e-01) (50, -1.46010011434555053711e-01) (4, 7.82996058464050292969e-01) (43, -1.29997539520263671875e+00) (14, 5.69508612155914306641e-01) (30, -2.58583992719650268555e-01) (51, 1.29396975040435791016e+00) (34, -2.11037826538085937500e+00) (41, -3.64184945821762084961e-01) (57, 1.77337937057018280029e-02) (20, 3.45113724470138549805e-01) (8, 1.02164793014526367188e+00) (22, 1.30084381103515625000e+01) (25, -1.45459413528442382812e-01) (53, 5.43447911739349365234e-01) (49, -2.96071827411651611328e-01) (47, -3.85595709085464477539e-01) (50, -2.53552556037902832031e-01) (7, 1.36612892150878906250e+00) (18, 9.33986082673072814941e-02) (48, -2.71971321105957031250e+00) (54, 4.00408059358596801758e-01) (11, -4.32487547397613525391e-01) (46, -1.34245777130126953125e+00) (36, -1.10747873783111572266e+00) (26, -3.44119034707546234131e-02) (28, 5.33268041908740997314e-02) (24, -3.22285503149032592773e-01) (31, 5.29558324813842773438e+00) (4, 9.22621250152587890625e-01) (57, 1.76967792212963104248e-02) (0, -5.10262548923492431641e-01) (51, 5.77911949157714843750e+00) (9, -9.97923612594604492188e-02) (10, 2.31915175914764404297e-01) (45, -1.71167239546775817871e-01) (37, -1.05990254878997802734e+00) (33, -8.55165600776672363281e-01) (14, 1.60231268405914306641e+00) (53, 5.43405950069427490234e-01) (13, 5.18344119191169738770e-02) (43, -1.12756356596946716309e-01) (3, 3.51701688766479492188e+00) (11, -4.32515799999237060547e-01) (40, 1.00449379533529281616e-02) (35, 4.93184089660644531250e-01) (52, 1.91057491302490234375e+01) (20, 3.45122009515762329102e-01) (30, -2.15477004647254943848e-01) (23, 6.56174182891845703125e+00) (19, 2.18172931671142578125e+00) (57, 1.78178958594799041748e-02) (21, 8.63613009452819824219e-01) (44, -2.05874428153038024902e-01) (25, -1.45489692687988281250e-01) (3, 3.51701641082763671875e+00) (43, -1.12770661711692810059e-01) (35, 4.93162035942077636719e-01) (17, 5.92131435871124267578e-01) (22, 1.30084514617919921875e+01) (30, -2.15485468506813049316e-01) (37, -1.05985987186431884766e+00) (1, -1.58696874976158142090e-01) (46, -1.34246730804443359375e+00) (20, 3.45096498727798461914e-01) (24, -3.22311609983444213867e-01) (10, 2.31941923499107360840e-01) (39, -1.60830938816070556641e+00) (8, 1.02171778678894042969e+00) (23, 6.56166553497314453125e+00) (29, -1.93903371691703796387e-01) (19, 2.18171644210815429688e+00) (108, 8.13404738903045654297e-01) (58, 2.51916766166687011719e-01) (59, 7.52911090850830078125e-01) (60, 1.21535885334014892578e+00) (61, 8.04660916328430175781e-01) (62, 3.90926897525787353516e-02) (64, 2.44589269161224365234e-01) (66, 2.87705636024475097656e+00) (67, 1.01356911659240722656e+00) (74, 2.33767464756965637207e-01) (75, 3.62410284578800201416e-02) (76, 9.18451070785522460938e-01) (79, 2.77790951728820800781e+00) (81, 1.99340596795082092285e-01) (82, 9.69093143939971923828e-01) (83, 4.26243972778320312500e+00) (84, 7.71279513835906982422e-01) (85, 1.19227254390716552734e+00) (86, 2.35040202736854553223e-01) (88, 2.95604020357131958008e-01) (89, 2.27999329566955566406e-01) (90, 2.15969157218933105469e+00) (91, 2.59682655334472656250e-01) (94, 1.51976689696311950684e-01) (95, 1.01318931579589843750e+00) (96, 6.67335987091064453125e-01) (108, 1.78055576980113983154e-02) (63, 4.75378453731536865234e-01) (65, 7.16347873210906982422e-01) (68, 7.13361263275146484375e-01) (69, 1.78695358335971832275e-02) (70, 1.06528127193450927734e+00) (71, 4.81172472238540649414e-01) (72, 1.54106423258781433105e-01) (73, 3.65192443132400512695e-01) (77, -3.18963117897510528564e-02) (78, 4.62051659822463989258e-01) (80, 5.61035454273223876953e-01) (87, 8.81471872329711914062e-01) (92, 1.09640228748321533203e+00) (93, 5.06874382495880126953e-01) (97, 1.05770432949066162109e+00) (98, 3.94307941198348999023e-01) (99, -2.88638584315776824951e-02) (100, 1.73493072390556335449e-01) (101, 3.53641241788864135742e-01) (102, -1.06099005788564682007e-02) (103, 7.68340528011322021484e-01) (104, 2.18235120177268981934e-01) (105, 5.63581883907318115234e-01) (106, 7.53974854946136474609e-01) (107, 4.12690132856369018555e-01) (111, 8.13208878040313720703e-01) (109, 9.36127677559852600098e-02) (111, 1.77127532660961151123e-02) (110, 1.34986996650695800781e-01) 
