FANN_FLO_2.1
num_layers=3
learning_rate=0.700000
connection_rate=0.350000
network_type=0
learning_momentum=0.000000
training_algorithm=2
train_error_function=1
train_stop_function=1
cascade_output_change_fraction=0.010000
quickprop_decay=-0.000100
quickprop_mu=1.750000
rprop_increase_factor=1.200000
rprop_decrease_factor=0.500000
rprop_delta_min=0.000000
rprop_delta_max=50.000000
rprop_delta_zero=0.100000
cascade_output_stagnation_epochs=12
cascade_candidate_change_fraction=0.010000
cascade_candidate_stagnation_epochs=12
cascade_max_out_epochs=150
cascade_min_out_epochs=50
cascade_max_cand_epochs=150
cascade_min_cand_epochs=50
cascade_num_candidate_groups=2
bit_fail_limit=1.00000001490116119385e-01
cascade_candidate_limit=1.00000000000000000000e+03
cascade_weight_multiplier=4.00000005960464477539e-01
cascade_activation_functions_count=10
cascade_activation_functions=3 5 7 8 10 11 14 15 16 17 
cascade_activation_steepnesses_count=4
cascade_activation_steepnesses=2.50000000000000000000e-01 5.00000000000000000000e-01 7.50000000000000000000e-01 1.00000000000000000000e+00 
layer_sizes=19 151 5 
scale_included=0
neurons (num_inputs, activation_function, activation_steepness)=(0, 0, 0.00000000000000000000e+00) (0, 0, 0.00000000000000000000e+00) (0, 0, 0.00000000000000000000e+00) (0, 0, 0.00000000000000000000e+00) (0, 0, 0.00000000000000000000e+00) (0, 0, 0.00000000000000000000e+00) (0, 0, 0.00000000000000000000e+00) (0, 0, 0.00000000000000000000e+00) (0, 0, 0.00000000000000000000e+00) (0, 0, 0.00000000000000000000e+00) (0, 0, 0.00000000000000000000e+00) (0, 0, 0.00000000000000000000e+00) (0, 0, 0.00000000000000000000e+00) (0, 0, 0.00000000000000000000e+00) (0, 0, 0.00000000000000000000e+00) (0, 0, 0.00000000000000000000e+00) (0, 0, 0.00000000000000000000e+00) (0, 0, 0.00000000000000000000e+00) (0, 0, 0.00000000000000000000e+00) (7, 5, 8.99999976158142089844e-01) (7, 5, 8.99999976158142089844e-01) (7, 5, 8.99999976158142089844e-01) (8, 5, 8.99999976158142089844e-01) (7, 5, 8.99999976158142089844e-01) (7, 5, 8.99999976158142089844e-01) (8, 5, 8.99999976158142089844e-01) (7, 5, 8.99999976158142089844e-01) (7, 5, 8.99999976158142089844e-01) (8, 5, 8.99999976158142089844e-01) (7, 5, 8.99999976158142089844e-01) (7, 5, 8.99999976158142089844e-01) (7, 5, 8.99999976158142089844e-01) (8, 5, 8.99999976158142089844e-01) (7, 5, 8.99999976158142089844e-01) (7, 5, 8.99999976158142089844e-01) (8, 5, 8.99999976158142089844e-01) (7, 5, 8.99999976158142089844e-01) (7, 5, 8.99999976158142089844e-01) (8, 5, 8.99999976158142089844e-01) (7, 5, 8.99999976158142089844e-01) (7, 5, 8.99999976158142089844e-01) (7, 5, 8.99999976158142089844e-01) (8, 5, 8.99999976158142089844e-01) (7, 5, 8.99999976158142089844e-01) (7, 5, 8.99999976158142089844e-01) (8, 5, 8.99999976158142089844e-01) (7, 5, 8.99999976158142089844e-01) (7, 5, 8.99999976158142089844e-01) (8, 5, 8.99999976158142089844e-01) (7, 5, 8.99999976158142089844e-01) (7, 5, 8.99999976158142089844e-01) (7, 5, 8.99999976158142089844e-01) (8, 5, 8.99999976158142089844e-01) (7, 5, 8.99999976158142089844e-01) (7, 5, 8.99999976158142089844e-01) (8, 5, 8.99999976158142089844e-01) (7, 5, 8.99999976158142089844e-01) (7, 5, 8.99999976158142089844e-01) (8, 5, 8.99999976158142089844e-01) (7, 5, 8.99999976158142089844e-01) (7, 5, 8.99999976158142089844e-01) (7, 5, 8.99999976158142089844e-01) (8, 5, 8.99999976158142089844e-01) (7, 5, 8.99999976158142089844e-01) (7, 5, 8.99999976158142089844e-01) (8, 5, 8.99999976158142089844e-01) (7, 5, 8.99999976158142089844e-01) (7, 5, 8.99999976158142089844e-01) (8, 5, 8.99999976158142089844e-01) (7, 5, 8.99999976158142089844e-01) (7, 5, 8.99999976158142089844e-01) (7, 5, 8.99999976158142089844e-01) (8, 5, 8.99999976158142089844e-01) (7, 5, 8.99999976158142089844e-01) (7, 5, 8.99999976158142089844e-01) (8, 5, 8.99999976158142089844e-01) (7, 5, 8.99999976158142089844e-01) (7, 5, 8.99999976158142089844e-01) (8, 5, 8.99999976158142089844e-01) (7, 5, 8.99999976158142089844e-01) (7, 5, 8.99999976158142089844e-01) (7, 5, 8.99999976158142089844e-01) (8, 5, 8.99999976158142089844e-01) (7, 5, 8.99999976158142089844e-01) (7, 5, 8.99999976158142089844e-01) (8, 5, 8.99999976158142089844e-01) (7, 5, 8.99999976158142089844e-01) (7, 5, 8.99999976158142089844e-01) (8, 5, 8.99999976158142089844e-01) (7, 5, 8.99999976158142089844e-01) (7, 5, 8.99999976158142089844e-01) (7, 5, 8.99999976158142089844e-01) (8, 5, 8.99999976158142089844e-01) (7, 5, 8.99999976158142089844e-01) (7, 5, 8.99999976158142089844e-01) (8, 5, 8.99999976158142089844e-01) (7, 5, 8.99999976158142089844e-01) (7, 5, 8.99999976158142089844e-01) (8, 5, 8.99999976158142089844e-01) (7, 5, 8.99999976158142089844e-01) (7, 5, 8.99999976158142089844e-01) (7, 5, 8.99999976158142089844e-01) (8, 5, 8.99999976158142089844e-01) (7, 5, 8.99999976158142089844e-01) (7, 5, 8.99999976158142089844e-01) (8, 5, 8.99999976158142089844e-01) (7, 5, 8.99999976158142089844e-01) (7, 5, 8.99999976158142089844e-01) (8, 5, 8.99999976158142089844e-01) (7, 5, 8.99999976158142089844e-01) (7, 5, 8.99999976158142089844e-01) (7, 5, 8.99999976158142089844e-01) (8, 5, 8.99999976158142089844e-01) (7, 5, 8.99999976158142089844e-01) (7, 5, 8.99999976158142089844e-01) (8, 5, 8.99999976158142089844e-01) (7, 5, 8.99999976158142089844e-01) (7, 5, 8.99999976158142089844e-01) (8, 5, 8.99999976158142089844e-01) (7, 5, 8.99999976158142089844e-01) (7, 5, 8.99999976158142089844e-01) (7, 5, 8.99999976158142089844e-01) (8, 5, 8.99999976158142089844e-01) (7, 5, 8.99999976158142089844e-01) (7, 5, 8.99999976158142089844e-01) (8, 5, 8.99999976158142089844e-01) (7, 5, 8.99999976158142089844e-01) (7, 5, 8.99999976158142089844e-01) (8, 5, 8.99999976158142089844e-01) (7, 5, 8.99999976158142089844e-01) (7, 5, 8.99999976158142089844e-01) (7, 5, 8.99999976158142089844e-01) (8, 5, 8.99999976158142089844e-01) (7, 5, 8.99999976158142089844e-01) (7, 5, 8.99999976158142089844e-01) (8, 5, 8.99999976158142089844e-01) (7, 5, 8.99999976158142089844e-01) (7, 5, 8.99999976158142089844e-01) (8, 5, 8.99999976158142089844e-01) (7, 5, 8.99999976158142089844e-01) (7, 5, 8.99999976158142089844e-01) (7, 5, 8.99999976158142089844e-01) (8, 5, 8.99999976158142089844e-01) (7, 5, 8.99999976158142089844e-01) (7, 5, 8.99999976158142089844e-01) (8, 5, 8.99999976158142089844e-01) (7, 5, 8.99999976158142089844e-01) (7, 5, 8.99999976158142089844e-01) (8, 5, 8.99999976158142089844e-01) (7, 5, 8.99999976158142089844e-01) (7, 5, 8.99999976158142089844e-01) (7, 5, 8.99999976158142089844e-01) (8, 5, 8.99999976158142089844e-01) (7, 5, 8.99999976158142089844e-01) (7, 5, 8.99999976158142089844e-01) (8, 5, 8.99999976158142089844e-01) (7, 5, 8.99999976158142089844e-01) (7, 5, 8.99999976158142089844e-01) (8, 5, 8.99999976158142089844e-01) (7, 5, 8.99999976158142089844e-01) (7, 5, 8.99999976158142089844e-01) (7, 5, 8.99999976158142089844e-01) (8, 5, 8.99999976158142089844e-01) (7, 5, 8.99999976158142089844e-01) (7, 5, 8.99999976158142089844e-01) (8, 5, 8.99999976158142089844e-01) (7, 5, 8.99999976158142089844e-01) (7, 5, 8.99999976158142089844e-01) (8, 5, 8.99999976158142089844e-01) (0, 5, 8.99999976158142089844e-01) (53, 5, 5.00000000000000000000e-01) (54, 5, 5.00000000000000000000e-01) (53, 5, 5.00000000000000000000e-01) (54, 5, 5.00000000000000000000e-01) (0, 5, 5.00000000000000000000e-01) 
connections (connected_to_neuron, weight)=(18, 2.66090836375951766968e-02) (14, 1.49999951171875000000e+03) (8, 1.08734816312789916992e-01) (5, 8.24796390533447265625e+00) (4, -6.20013736188411712646e-02) (7, 1.07296846807003021240e-01) (17, 1.02462939918041229248e-01) (18, -1.20060117915272712708e-02) (12, 6.14554211497306823730e-02) (9, 1.52881324291229248047e-01) (14, -3.13998484611511230469e+00) (16, 8.54361429810523986816e-02) (4, 9.63430032134056091309e-02) (10, 7.62903913855552673340e-02) (18, -1.04895485565066337585e-02) (1, 3.81773859262466430664e-01) (5, 9.31502807617187500000e+02) (9, 4.53629434108734130859e-01) (16, -1.14995844662189483643e-01) (3, 1.93060591816902160645e-01) (13, 2.04898744821548461914e-01) (18, -9.44661255925893783569e-03) (17, -7.55081921815872192383e-02) (0, -3.87333571910858154297e-01) (4, 1.64208173751831054688e-01) (7, -1.16844125092029571533e-01) (11, 1.14959917068481445312e+01) (2, 4.64994583129882812500e+01) (6, 3.56514275074005126953e-01) (18, -4.91082854568958282471e-02) (12, 2.17022001743316650391e-01) (16, -1.23478218913078308105e-01) (11, 2.46426219940185546875e+01) (0, -5.45781254768371582031e-01) (14, -2.49328792095184326172e-01) (9, 7.64731764793395996094e-02) (18, -5.11815398931503295898e-02) (17, -1.45457968115806579590e-01) (7, -2.24201059341430664062e+00) (11, 2.46452083587646484375e+01) (10, 2.74437516927719116211e-01) (6, 4.94512528181076049805e-01) (13, 1.52758643031120300293e-01) (18, 6.15323893725872039795e-02) (10, 1.35792568325996398926e-01) (9, 2.85235404968261718750e-01) (7, 1.65058687329292297363e-01) (0, 2.61736810207366943359e-01) (17, 1.03587172925472259521e-01) (6, 8.88874903321266174316e-02) (4, 1.96042835712432861328e-01) (18, -7.99907892942428588867e-02) (10, -2.85993833094835281372e-02) (4, -1.30459651350975036621e-01) (12, 1.44870057702064514160e-01) (13, 2.44841039180755615234e-01) (14, 9.98342812061309814453e-01) (7, -4.91920113563537597656e-01) (18, -9.95161384344100952148e-03) (10, 9.75441709160804748535e-02) (9, 4.53092277050018310547e-01) (2, 4.65057945251464843750e+01) (13, 2.01788946986198425293e-01) (15, 1.49999987792968750000e+03) (12, 1.06577455997467041016e-01) (18, 3.53655330836772918701e-02) (12, 1.61955893039703369141e-01) (3, -6.38704281300306320190e-03) (9, 1.29886031150817871094e-01) (17, 1.11830651760101318359e-01) (15, 1.49951525878906250000e+03) (11, -4.88011538982391357422e-02) (13, -2.04164400696754455566e-01) (18, 1.11633658409118652344e-01) (16, 1.93889006972312927246e-01) (14, 1.85433530807495117188e+00) (13, 1.38429120182991027832e-01) (4, 2.04371750354766845703e-01) (6, 1.84024050831794738770e-01) (11, 3.54273796081542968750e-01) (18, -5.18317371606826782227e-02) (4, 1.45765468478202819824e-01) (1, 2.75694429874420166016e-01) (2, 3.77917915582656860352e-01) (10, 2.78149962425231933594e-01) (12, 2.14721858501434326172e-01) (0, -5.61182141304016113281e-01) (18, 1.05508118867874145508e-02) (4, 3.13797563314437866211e-01) (8, -2.89697200059890747070e-02) (5, -7.20307528972625732422e-01) (7, -2.00393065810203552246e-01) (14, -6.54504774138331413269e-03) (3, -4.34845089912414550781e-02) (18, -9.48684290051460266113e-02) (2, 5.32593838870525360107e-02) (10, 5.01505434513092041016e-02) (16, 1.73716023564338684082e-02) (17, -2.08376999944448471069e-02) (4, 8.49811807274818420410e-02) (14, -1.40104651451110839844e+00) (15, -2.64933168888092041016e-01) (18, 2.79402844607830047607e-02) (5, 8.24737644195556640625e+00) (8, 1.09277941286563873291e-01) (15, 1.49951525878906250000e+03) (2, 1.09080292284488677979e-01) (10, -8.40764343738555908203e-02) (14, 1.49999951171875000000e+03) (18, -1.19105465710163116455e-01) (1, -3.72255332767963409424e-02) (14, 1.49788122558593750000e+03) (11, 4.71441307067871093750e+01) (8, 6.07419684529304504395e-02) (13, -4.38655357360839843750e+01) (0, -3.63887143135070800781e+00) (18, -1.57839268445968627930e-01) (8, 8.05756151676177978516e-02) (13, -4.84016686677932739258e-02) (10, 1.15082889795303344727e-01) (2, -1.16114489734172821045e-01) (0, 1.21134687215089797974e-02) (15, -3.16420018672943115234e-01) (14, -1.83828666806221008301e-01) (18, 9.36122015118598937988e-02) (9, 1.04225493967533111572e-01) (14, -1.75929498672485351562e+00) (17, -6.19214354082942008972e-03) (1, 1.57283768057823181152e-01) (16, -5.85867883637547492981e-03) (8, 2.47889980673789978027e-01) (18, -1.30432233214378356934e-01) (14, 1.49999951171875000000e+03) (1, -2.67411381006240844727e-01) (2, -6.23936578631401062012e-02) (12, -5.46756247058510780334e-03) (15, 1.49951525878906250000e+03) (5, 1.47056555747985839844e+00) (18, -5.12294694781303405762e-02) (4, 1.49347409605979919434e-01) (1, 2.75429934263229370117e-01) (3, 1.17367163300514221191e-01) (15, 1.50000000000000000000e+03) (12, 2.16713666915893554688e-01) (0, -5.55599272251129150391e-01) (13, 1.52898237109184265137e-01) (18, 6.24534860253334045410e-02) (1, 1.80434107780456542969e-01) (12, 1.29193589091300964355e-01) (10, 1.35048210620880126953e-01) (0, 2.61426240205764770508e-01) (9, 2.85711407661437988281e-01) (6, 8.91690105199813842773e-02) (18, 6.23851567506790161133e-02) (6, 8.81657674908638000488e-02) (3, 1.60589933395385742188e-01) (12, 1.28953531384468078613e-01) (16, 1.05425588786602020264e-01) (4, 1.96412891149520874023e-01) (15, -4.52156662940979003906e-01) (18, -8.27382430434226989746e-02) (12, -6.68904408812522888184e-02) (1, -4.59888540208339691162e-02) (3, 4.76724840700626373291e-02) (11, -3.06436866521835327148e-02) (17, 3.72647047042846679688e-02) (0, 2.07001551985740661621e-01) (18, -5.96744865179061889648e-02) (12, 1.05603344738483428955e-01) (9, -5.72093836963176727295e-02) (6, 8.19169208407402038574e-02) (14, -9.32682931423187255859e-01) (16, -4.14004549384117126465e-03) (2, -1.78603053092956542969e-01) (13, -2.82939746975898742676e-02) (18, 3.52202169597148895264e-02) (5, 1.49999963378906250000e+03) (16, -3.03484275937080383301e-02) (12, 1.65131554007530212402e-01) (9, 1.41584753990173339844e-01) (1, 3.24861928820610046387e-02) (13, -2.27336302399635314941e-01) (18, -1.06595814228057861328e-01) (1, 3.50856691598892211914e-01) (6, 5.45563399791717529297e-01) (8, 6.69606104493141174316e-02) (13, -5.06236314773559570312e-01) (12, 1.79631471633911132812e-01) (15, 1.49999987792968750000e+03) (18, -1.32552653551101684570e-01) (15, 6.62765045166015625000e+01) (16, -6.51605501770973205566e-02) (7, -1.50436475872993469238e-01) (11, 2.24727249145507812500e+00) (6, -7.26587101817131042480e-02) (1, -3.81250120699405670166e-02) (17, -8.11983644962310791016e-02) (18, 3.05333696305751800537e-02) (14, 1.49999951171875000000e+03) (0, 2.94661551713943481445e-01) (7, 1.11124075949192047119e-01) (6, 2.65364404767751693726e-02) (5, 4.11566734313964843750e+00) (1, -1.07135668396949768066e-01) (18, -1.34602859616279602051e-02) (4, -1.00233018398284912109e-01) (16, 1.03986665606498718262e-01) (0, -4.79240007698535919189e-02) (11, 3.51053103804588317871e-02) (15, -1.15964925289154052734e+00) (5, 8.18458974361419677734e-01) (18, 1.10889896750450134277e-01) (5, 4.65351629257202148438e+00) (16, 1.92219883203506469727e-01) (10, 2.25491404533386230469e-01) (12, 2.24819883704185485840e-01) (9, 6.88174888491630554199e-02) (2, 1.25366091728210449219e-01) (11, 3.50062966346740722656e-01) (18, 4.67081293463706970215e-02) (13, -1.03858225047588348389e-01) (5, -2.20990762114524841309e-01) (1, 8.99439454078674316406e-02) (10, 1.33726801723241806030e-02) (4, 7.31739550828933715820e-02) (16, -3.17032739985734224319e-04) (18, 6.18996694684028625488e-02) (15, -4.52103823423385620117e-01) (4, 1.96060672402381896973e-01) (2, 8.58592212200164794922e-01) (3, 1.60147443413734436035e-01) (13, 1.71206608414649963379e-01) (7, 1.64541736245155334473e-01) (18, 8.44771414995193481445e-02) (13, -5.11284582316875457764e-02) (17, -4.62997928261756896973e-02) (1, 2.54273772239685058594e-01) (9, 1.31426766514778137207e-01) (16, -2.40009367465972900391e-01) (10, 2.13311061263084411621e-01) (18, 1.42515942454338073730e-01) (2, 3.92223215103149414062e+00) (1, -1.17478467524051666260e-01) (8, 1.62521883845329284668e-01) (4, -1.31735777854919433594e+00) (6, 2.97285705804824829102e-01) (7, -2.94681596755981445312e+00) (3, 1.60373449325561523438e-01) (18, -1.85012325644493103027e-01) (10, -5.56664206087589263916e-02) (8, -8.64663943648338317871e-02) (13, 3.28495763242244720459e-02) (9, 1.79512783885002136230e-01) (2, 2.50134849548339843750e+00) (12, 2.34634801745414733887e-02) (18, 7.20520969480276107788e-03) (15, -3.24523099698126316071e-03) (2, 9.74455755203962326050e-03) (14, -1.20788939297199249268e-01) (9, 7.48736560344696044922e-02) (7, -2.59397000074386596680e-01) (17, 9.72693879157304763794e-03) (18, 6.02906346321105957031e-02) (3, 6.14693723618984222412e-02) (4, -1.27148181200027465820e-01) (9, -7.94662833213806152344e-02) (14, 1.05130944824218750000e+03) (7, 3.01063451915979385376e-02) (16, 7.06199258565902709961e-02) (1, -8.89661088585853576660e-02) (18, 1.11756123602390289307e-01) (12, 2.28796139359474182129e-01) (3, 8.69632735848426818848e-02) (4, 2.03184500336647033691e-01) (8, 1.59933537244796752930e-01) (0, 1.24639958143234252930e-01) (9, 6.89175948500633239746e-02) (18, -1.57634079456329345703e-01) (10, 6.83648213744163513184e-02) (6, 7.06079676747322082520e-02) (16, -7.20142200589179992676e-02) (14, -2.24490714073181152344e+00) (4, 9.57894846796989440918e-02) (8, 1.75105575472116470337e-02) (18, 6.09249882400035858154e-02) (2, 8.58511090278625488281e-01) (6, 8.82913395762443542480e-02) (14, 1.54104545712471008301e-01) (4, 1.95939809083938598633e-01) (8, 8.14250186085700988770e-02) (12, 1.28477931022644042969e-01) (16, 1.05142757296562194824e-01) (18, 3.00780609250068664551e-02) (12, 1.34569212794303894043e-01) (6, 2.80899684876203536987e-02) (1, -1.25161498785018920898e-01) (3, -1.39873018488287925720e-02) (17, 1.07970766723155975342e-01) (15, 1.49951525878906250000e+03) (18, 1.54235467314720153809e-01) (2, 4.06263545155525207520e-02) (10, 9.72971692681312561035e-02) (15, 1.49966967773437500000e+03) (7, 1.67540639638900756836e-01) (1, 6.55609071254730224609e-02) (11, -8.18371474742889404297e-02) (18, 1.58617794513702392578e-01) (11, -1.77580311894416809082e-01) (1, -7.58107230067253112793e-02) (5, 4.57727146148681640625e+00) (14, 8.62184619903564453125e+00) (12, 5.94204068183898925781e-02) (8, 2.02175050973892211914e-01) (18, -1.23741514980792999268e-02) (3, 1.93038329482078552246e-01) (13, 2.04039275646209716797e-01) (11, 1.14999952316284179688e+01) (6, 5.30546784400939941406e-01) (1, 3.81856888532638549805e-01) (0, -3.99954795837402343750e-01) (16, -1.15539826452732086182e-01) (18, -8.78702383488416671753e-03) (10, 9.79473143815994262695e-02) (1, 3.82275283336639404297e-01) (2, 4.65048103332519531250e+01) (14, -7.70796728134155273438e+00) (12, 1.06578111648559570312e-01) (9, 4.52996104955673217773e-01) (18, 3.51188443601131439209e-02) (11, -2.39133499562740325928e-02) (14, -4.31222990155220031738e-02) (1, 4.81432825326919555664e-02) (15, -1.48314803838729858398e-01) (6, 2.55281534045934677124e-02) (13, 5.75724542140960693359e-02) (18, 2.65070293098688125610e-02) (12, 1.33105009794235229492e-01) (5, 8.24797821044921875000e+00) (4, -6.18849359452724456787e-02) (3, -1.52373649179935455322e-02) (16, -3.62428873777389526367e-02) (8, 1.08559042215347290039e-01) (10, -8.35328027606010437012e-02) (18, 6.37240409851074218750e-02) (8, 7.79465103149414062500e+00) (12, -7.15451889038085937500e+01) (7, -2.87582612037658691406e+00) (6, 4.75965042114257812500e+01) (9, 6.71200573444366455078e-01) (3, 4.71819543838500976562e+00) (18, -5.70945590734481811523e-02) (16, 5.96510879695415496826e-02) (5, 7.89090469479560852051e-02) (11, -3.10431048274040222168e-02) (13, -2.42289863526821136475e-02) (15, -1.18565037846565246582e-01) (3, -1.11330412328243255615e-02) (18, 5.55646866559982299805e-02) (10, 1.31102791056036949158e-02) (1, -2.73438449949026107788e-02) (9, 5.14455027878284454346e-02) (5, -2.13666968047618865967e-02) (12, 5.28887063264846801758e-02) (16, 4.07676398754119873047e-02) (4, -3.98729413747787475586e-01) (18, 2.65546571463346481323e-02) (3, -1.43514070659875869751e-02) (6, 2.52813361585140228271e-02) (14, 1.49999951171875000000e+03) (1, -1.25395745038986206055e-01) (17, 1.04229487478733062744e-01) (2, 1.10080286860466003418e-01) (18, -1.28646418452262878418e-01) (11, 1.04695916175842285156e-01) (8, -6.46464675664901733398e-02) (16, 1.26843503676354885101e-03) (15, -1.25559794902801513672e+00) (10, -4.93340976536273956299e-02) (14, -2.09318950772285461426e-01) (18, 2.90418386459350585938e-01) (4, -8.85231643915176391602e-02) (1, 1.02740131318569183350e-01) (9, -2.75954753160476684570e-02) (8, 8.97870063781738281250e-02) (13, -6.44256621599197387695e-02) (10, 3.99113483726978302002e-02) (18, 6.38466477394104003906e-02) (8, 7.79503583908081054688e+00) (15, 1.49910314941406250000e+03) (16, -2.84153878688812255859e-01) (6, 4.75960960388183593750e+01) (12, -6.95398788452148437500e+01) (10, 9.44599390029907226562e-01) (2, 1.30364395141601562500e+02) (18, -8.96503217518329620361e-03) (15, 1.49999987792968750000e+03) (1, 3.84309828281402587891e-01) (2, 4.64997520446777343750e+01) (9, 4.50966179370880126953e-01) (12, 1.07770942151546478271e-01) (5, 9.31454406738281250000e+02) (18, 1.91448479890823364258e-02) (7, 1.73567384481430053711e-02) (12, 6.99756592512130737305e-02) (6, 2.16752360574901103973e-03) (5, 3.03849716186523437500e+01) (10, 3.85142164304852485657e-03) (14, 1.49997802734375000000e+03) (18, 2.08260845392942428589e-02) (8, 2.95879207551479339600e-02) (14, 1.49997802734375000000e+03) (7, 1.50814633816480636597e-02) (4, 8.51701796054840087891e-02) (1, 7.18148946762084960938e-02) (3, 8.07441100478172302246e-02) (15, -2.61353719979524612427e-02) (18, -2.33390759676694869995e-02) (3, 8.20451304316520690918e-02) (2, -5.88035546243190765381e-02) (0, 3.75204980373382568359e-02) (9, -9.72938463091850280762e-02) (6, 3.55204083025455474854e-02) (10, -1.16169387474656105042e-02) (18, 2.82611809670925140381e-02) (8, 1.08721941709518432617e-01) (3, -1.53065277263522148132e-02) (12, 1.32838338613510131836e-01) (4, -6.27843812108039855957e-02) (16, -3.67697700858116149902e-02) (0, 2.91073590517044067383e-01) (18, 1.12068712711334228516e-01) (16, 1.93004786968231201172e-01) (13, 1.52493923902511596680e-01) (1, 1.79868504405021667480e-01) (4, 2.03621670603752136230e-01) (9, 6.93429782986640930176e-02) (5, 4.63990926742553710938e+00) (10, 2.25350320339202880859e-01) (18, 6.08026944100856781006e-02) (3, 1.60294368863105773926e-01) (10, 1.35388329625129699707e-01) (13, 1.71246334910392761230e-01) (5, 7.45917297363281250000e+02) (7, 1.64336010813713073730e-01) (4, 1.95821449160575866699e-01) (18, 1.18092086631804704666e-03) (12, 7.24560618400573730469e-02) (14, 1.49997827148437500000e+03) (15, -3.89264859259128570557e-02) (16, 1.19542498141527175903e-02) (2, 2.45064958930015563965e-01) (13, 3.09266224503517150879e-02) (18, 1.11313067376613616943e-01) (7, 8.97910222411155700684e-02) (5, 4.93476009368896484375e+00) (13, 1.82169035077095031738e-01) (3, 8.80845189094543457031e-02) (1, 1.80588617920875549316e-01) (2, 2.34182611107826232910e-01) (18, 3.03430885076522827148e-01) (1, 1.04325091838836669922e+00) (6, 4.75334129333496093750e+01) (10, 9.87853944301605224609e-01) (5, 1.49999987792968750000e+03) (3, 4.72345638275146484375e+00) (14, -4.35423065185546875000e+02) (2, 1.30093566894531250000e+02) (18, -5.07260300219058990479e-02) (11, 2.46429958343505859375e+01) (12, 2.17704996466636657715e-01) (16, -1.27267643809318542480e-01) (13, 1.52897521853446960449e-01) (9, 7.55968019366264343262e-02) (14, -2.56971746683120727539e-01) (18, 4.22287508845329284668e-02) (2, 1.41951549053192138672e+00) (8, 1.39262974262237548828e-01) (12, 1.98914095759391784668e-01) (11, 4.47364997863769531250e+01) (1, 2.00009033083915710449e-01) (15, -9.82499122619628906250e-01) (18, 9.86484810709953308105e-04) (2, 2.44832515716552734375e-01) (13, 3.15059348940849304199e-02) (14, 1.49997827148437500000e+03) (7, 1.47032421082258224487e-02) (17, 6.83338120579719543457e-02) (16, 1.16876531392335891724e-02) (4, 7.85544514656066894531e-02) (18, 2.80557963997125625610e-02) (5, 8.24720096588134765625e+00) (15, 1.49951525878906250000e+03) (14, 1.49999951171875000000e+03) (0, 2.92038321495056152344e-01) (12, 1.33267670869827270508e-01) (16, -3.65769639611244201660e-02) (18, 6.13463670015335083008e-02) (10, 1.35286301374435424805e-01) (5, 7.45918029785156250000e+02) (15, -4.51580286026000976562e-01) (13, 1.71211063861846923828e-01) (7, 1.64557740092277526855e-01) (4, 1.96886792778968811035e-01) (18, 8.19642376154661178589e-03) (8, 2.56574079394340515137e-02) (12, 2.53049079328775405884e-02) (6, 4.96261054649949073792e-03) (9, 6.34780153632164001465e-02) (16, 1.14784408360719680786e-02) (4, 2.26465817540884017944e-02) (11, -4.99037541449069976807e-02) (18, 3.02467495203018188477e-02) (8, 1.10023081302642822266e-01) (0, 2.92009770870208740234e-01) (1, -1.25846028327941894531e-01) (15, 1.49951525878906250000e+03) (5, 1.52989702224731445312e+01) (3, -1.58742908388376235962e-02) (18, 2.28758584707975387573e-02) (6, 5.01676984131336212158e-02) (4, -2.37668342888355255127e-02) (8, 1.29215985536575317383e-01) (7, 1.04781195521354675293e-01) (16, -4.45321537554264068604e-02) (1, -1.39253452420234680176e-01) (18, 6.21244087815284729004e-02) (9, 2.84921407699584960938e-01) (10, 1.35051980614662170410e-01) (4, 1.96954190731048583984e-01) (2, 8.57701838016510009766e-01) (1, 1.80565103888511657715e-01) (14, 1.54797911643981933594e-01) (18, 1.69456884264945983887e-01) (7, 2.87812262773513793945e-01) (0, 9.64530780911445617676e-02) (5, 6.59347295761108398438e-01) (10, 1.44237466156482696533e-02) (11, -4.92150038480758666992e-02) (1, 1.80257275700569152832e-01) (14, -7.75760784745216369629e-02) (18, -1.90246284008026123047e-01) (15, 1.49999987792968750000e+03) (8, -7.99058452248573303223e-02) (17, -2.33776703476905822754e-01) (13, 3.23950871825218200684e-02) (5, 2.86851596832275390625e+01) (11, 3.38158816099166870117e-01) (18, 2.86265518516302108765e-02) (2, 1.09242916107177734375e-01) (4, -6.26798719167709350586e-02) (14, 1.49999951171875000000e+03) (3, -1.52120646089315414429e-02) (6, 2.59463265538215637207e-02) (12, 1.32376521825790405273e-01) (18, 6.15306384861469268799e-02) (5, 7.45917297363281250000e+02) (2, 8.58533799648284912109e-01) (12, 1.28941133618354797363e-01) (9, 2.85163044929504394531e-01) (1, 1.80755138397216796875e-01) (4, 1.96786046028137207031e-01) (7, 1.65190130472183227539e-01) (18, 1.77001990377902984619e-02) (10, 8.72895494103431701660e-02) (13, 4.72067408263683319092e-02) (5, -4.64182674884796142578e-01) (14, 1.60663887858390808105e-01) (3, 1.85732226818799972534e-02) (7, -3.99077355861663818359e-01) (18, 1.53281316161155700684e-01) (3, 4.80391216278076171875e+00) (14, -2.15706436157226562500e+02) (10, 9.68434631824493408203e-01) (9, 7.19444692134857177734e-01) (0, -1.54886543750762939453e+00) (7, -2.71229290962219238281e+00) (18, 2.86032017320394515991e-02) (8, 1.09398506581783294678e-01) (10, -8.32062736153602600098e-02) (16, -3.62930744886398315430e-02) (17, 1.03524766862392425537e-01) (5, 8.24724578857421875000e+00) (14, 1.49999951171875000000e+03) (6, 2.58578415960073471069e-02) (18, -2.86549143493175506592e-02) (12, -4.22510385513305664062e+00) (10, 6.58193647861480712891e-01) (0, 9.25903975963592529297e-01) (7, -2.68619465827941894531e+00) (9, -5.62381558120250701904e-02) (3, 4.24167203903198242188e+00) (18, 1.12031012773513793945e-01) (14, 4.38394165039062500000e+00) (8, 1.61366999149322509766e-01) (11, 3.49867969751358032227e-01) (9, 7.06622526049613952637e-02) (3, 8.79254862666130065918e-02) (5, 4.77418041229248046875e+00) (18, -4.16813343763351440430e-02) (14, -2.17750198364257812500e+02) (0, 2.06008851528167724609e-01) (8, 7.16338306665420532227e-02) (10, 1.85398571193218231201e-02) (4, 6.33244588971138000488e-02) (13, -2.68733680248260498047e-01) (18, 8.38738158345222473145e-02) (1, -3.83333340287208557129e-02) (6, 7.16969072818756103516e-02) (10, 7.11904047057032585144e-03) (9, -2.68811043351888656616e-02) (3, 1.66726596653461456299e-02) (11, -2.77239624410867691040e-02) (5, -2.30542868375778198242e-01) (18, 1.12643934786319732666e-01) (1, 1.79118588566780090332e-01) (17, 1.18652045726776123047e-01) (8, 1.60498589277267456055e-01) (7, 8.76902863383293151855e-02) (0, 1.24265678226947784424e-01) (4, 2.03123927116394042969e-01) (18, -5.09504862129688262939e-02) (8, 8.02983492612838745117e-02) (14, -2.60976076126098632812e-01) (3, 1.17259383201599121094e-01) (13, 1.52782127261161804199e-01) (12, 2.16139405965805053711e-01) (15, 1.50000000000000000000e+03) (18, 5.52266240119934082031e-02) (15, -3.56893278658390045166e-02) (11, -3.79610545933246612549e-02) (12, 2.50636357814073562622e-02) (10, 4.75162342190742492676e-02) (4, -8.30225832760334014893e-03) (6, -4.32723853737115859985e-03) (17, 1.41812888905405998230e-02) (18, -1.24734476208686828613e-01) (10, -1.06672663241624832153e-02) (11, 9.03944671154022216797e-03) (8, -1.17975823581218719482e-01) (1, 1.80220026522874832153e-02) (15, 1.78688392043113708496e-01) (3, -2.93561886064708232880e-03) (18, 2.02179104089736938477e-02) (17, 7.44797736406326293945e-02) (7, 1.52481384575366973877e-02) (12, 7.01624974608421325684e-02) (8, 2.90380716323852539062e-02) (3, 8.17548185586929321289e-02) (1, 7.27412104606628417969e-02) (18, 1.17190638557076454163e-02) (4, 3.99595856666564941406e-01) (5, 9.63826954364776611328e-01) (2, 9.85226631164550781250e-01) (8, 1.27086684107780456543e-01) (11, 5.91180496215820312500e+01) (16, 1.00501872599124908447e-01) (9, 4.18346852064132690430e-01) (18, 1.11565493047237396240e-01) (16, 1.93418875336647033691e-01) (7, 8.99650901556015014648e-02) (9, 6.98720812797546386719e-02) (14, 9.69288870692253112793e-02) (3, 8.79219248890876770020e-02) (10, 2.26013123989105224609e-01) (18, -1.17986842989921569824e-01) (1, 4.30742383003234863281e-01) (8, -5.30261099338531494141e-02) (13, -1.31297722458839416504e-01) (14, 1.76146134734153747559e-01) (11, -2.55465880036354064941e-02) (17, 3.53344529867172241211e-02) (18, -1.67333245277404785156e-01) (2, -2.09417372941970825195e-01) (10, 3.49002704024314880371e-02) (9, -5.64667321741580963135e-02) (8, -1.15348594263195991516e-02) (6, 6.21612444519996643066e-02) (13, 1.00460886955261230469e-01) (18, 6.33331984281539916992e-02) (7, -2.87575030326843261719e+00) (11, 2.61035339355468750000e+02) (9, 6.70469939708709716797e-01) (2, 1.30364242553710937500e+02) (16, -2.85068303346633911133e-01) (4, -1.15674102306365966797e+00) (10, 9.45663690567016601562e-01) (18, 3.82511168718338012695e-02) (17, 1.15448035299777984619e-01) (1, 2.83965095877647399902e-02) (8, 1.24533489346504211426e-01) (15, 1.49951525878906250000e+03) (12, 1.58076688647270202637e-01) (13, -1.92342981696128845215e-01) (18, 1.03436417877674102783e-01) (7, 1.82679444551467895508e-01) (14, 9.71718072891235351562e-01) (9, -2.46414579451084136963e-02) (10, -4.07592672854661941528e-03) (5, -2.03926181793212890625e+00) (6, 4.53253947198390960693e-02) (18, 1.43502339720726013184e-01) (6, 6.56244009733200073242e-02) (11, 2.70670391619205474854e-02) (5, -1.01057326793670654297e+00) (15, 5.80436214804649353027e-02) (3, 7.18744620680809020996e-02) (4, -1.48750826716423034668e-01) (2, -2.03941702842712402344e-01) (18, -2.00192909687757492065e-02) (3, 8.43476355075836181641e-02) (8, -2.36250925809144973755e-03) (1, -4.61892224848270416260e-02) (7, -9.73576232790946960449e-02) (11, 4.38937284052371978760e-02) (14, -1.75188648700714111328e+00) (18, 1.96811370551586151123e-03) (3, 1.70830003917217254639e-02) (11, 1.46322879791259765625e+01) (12, 1.21280109882354736328e+00) (5, 1.07662117481231689453e+00) (2, 3.63738059997558593750e-01) (0, 1.42761379480361938477e-01) (18, 8.74050259590148925781e-02) (14, -1.09717785644531250000e+03) (4, -1.12531781196594238281e+00) (10, 9.71459984779357910156e-01) (5, 1.49999987792968750000e+03) (1, 1.34914875030517578125e+00) (13, -8.41811478137969970703e-01) (3, 4.75551509857177734375e+00) (18, -2.59547289460897445679e-02) (13, 2.07055658102035522461e-01) (2, 3.88714218139648437500e+01) (5, 1.82905776977539062500e+02) (6, 2.69271492958068847656e-01) (9, 5.34049928188323974609e-01) (11, 3.26329536437988281250e+01) (18, 6.32574260234832763672e-02) (6, 4.75958862304687500000e+01) (12, -6.95396347045898437500e+01) (11, 2.61035430908203125000e+02) (5, 1.49999987792968750000e+03) (14, -1.49999975585937500000e+03) (3, 4.72260141372680664062e+00) (18, 6.44946023821830749512e-02) (11, -1.77203223109245300293e-01) (16, 7.10402727127075195312e-02) (5, 6.69877243041992187500e+00) (10, -7.48511180281639099121e-02) (13, 7.47646437957882881165e-04) (8, 1.19376510381698608398e-01) (18, 6.08643330633640289307e-02) (8, 8.13501253724098205566e-02) (6, 8.90656709671020507812e-02) (7, 1.64642959833145141602e-01) (2, 8.57804238796234130859e-01) (12, 1.28317251801490783691e-01) (16, 1.05325415730476379395e-01) (13, 1.71393871307373046875e-01) (18, 2.71428991109132766724e-02) (15, -3.06475237011909484863e-02) (9, 2.34315633773803710938e-01) (16, 2.11095083504915237427e-02) (12, 7.60639980435371398926e-02) (11, -6.70021623373031616211e-02) (4, 8.81145969033241271973e-02) (18, -1.05557627975940704346e-02) (0, -3.92602980136871337891e-01) (2, 4.65038566589355468750e+01) (9, 4.52978819608688354492e-01) (10, 9.81215387582778930664e-02) (3, 1.94998741149902343750e-01) (17, -7.78654590249061584473e-02) (18, -5.20580261945724487305e-02) (2, 3.76991152763366699219e-01) (0, -5.57266235351562500000e-01) (12, 2.16586425900459289551e-01) (1, 2.75449901819229125977e-01) (8, 8.08187648653984069824e-02) (3, 1.17274582386016845703e-01) (6, 4.94725257158279418945e-01) (18, -1.19690582156181335449e-01) (3, 2.27254971861839294434e-01) (1, -5.25290518999099731445e-02) (14, 1.49634973144531250000e+03) (12, -7.54626214504241943359e-01) (11, 1.65843086242675781250e+01) (17, -2.65982210636138916016e-01) (18, -5.00699616968631744385e-02) (6, 4.96658116579055786133e-01) (15, 1.50000000000000000000e+03) (9, 7.57891237735748291016e-02) (11, 2.46417770385742187500e+01) (8, 8.19355845451354980469e-02) (0, -5.44729173183441162109e-01) (18, 6.26752749085426330566e-02) (4, -1.15694129467010498047e+00) (17, -1.73105761408805847168e-01) (13, -8.76094222068786621094e-01) (16, -2.84386873245239257812e-01) (7, -2.87494587898254394531e+00) (6, 4.75961837768554687500e+01) (2, 1.30364730834960937500e+02) (18, 4.39615361392498016357e-02) (15, -6.10469043254852294922e-01) (11, 5.32733917236328125000e-01) (14, 1.41541555523872375488e-01) (12, 1.18485130369663238525e-01) (7, 3.04137021303176879883e-01) (3, 1.62288784980773925781e-01) (18, 5.24535700678825378418e-02) (7, 1.12148642539978027344e-01) (1, -3.32850843667984008789e-01) (10, -7.60259851813316345215e-02) (3, 5.67118357867002487183e-03) (5, 9.88535976409912109375e+00) (11, -3.13031554222106933594e-01) (18, -6.91474080085754394531e-02) (7, -3.22414326667785644531e+00) (9, 3.04105848073959350586e-01) (5, 1.49999987792968750000e+03) (3, 1.80120360851287841797e+00) (16, -4.13345992565155029297e-01) (13, -7.69791603088378906250e-01) (18, 3.93007472157478332520e-02) (17, -1.44178615882992744446e-02) (2, -9.02463197708129882812e-02) (13, 7.22966939210891723633e-02) (10, -3.58600281178951263428e-02) (16, 7.01940208673477172852e-02) (15, 3.48451663739979267120e-04) (1, -6.03800043463706970215e-02) (18, 9.54682528972625732422e-02) (13, -4.30176928639411926270e-02) (1, 8.39197263121604919434e-02) (7, -6.38261616230010986328e-01) (4, 1.96777260862290859222e-03) (6, 1.76520958542823791504e-01) (12, -3.39153148233890533447e-02) (18, 1.12189941108226776123e-01) (7, 8.82050320506095886230e-02) (10, 2.25176021456718444824e-01) (8, 1.60258561372756958008e-01) (16, 1.91828101873397827148e-01) (12, 2.28553801774978637695e-01) (1, 1.79138883948326110840e-01) (18, 6.16627261042594909668e-02) (9, 2.85311877727508544922e-01) (7, 1.64872854948043823242e-01) (2, 8.58701407909393310547e-01) (4, 1.96486726403236389160e-01) (1, 1.81020930409431457520e-01) (15, -4.51096534729003906250e-01) (8, 8.06383863091468811035e-02) (18, 2.69211214035749435425e-02) (2, 1.08747594058513641357e-01) (16, -3.60383540391921997070e-02) (17, 1.02461703121662139893e-01) (8, 1.08580775558948516846e-01) (4, -6.26693665981292724609e-02) (12, 1.33490368723869323730e-01) (18, 1.11738227307796478271e-01) (11, 3.50314199924468994141e-01) (3, 8.66255611181259155273e-02) (1, 1.79741710424423217773e-01) (9, 6.87118917703628540039e-02) (6, 1.83378636837005615234e-01) (2, 1.07149720191955566406e-01) (18, 6.24702125787734985352e-02) (15, 1.49910314941406250000e+03) (8, 7.79456281661987304688e+00) (6, 4.75967483520507812500e+01) (7, -2.87508320808410644531e+00) (16, -2.83983349800109863281e-01) (11, 2.61034271240234375000e+02) (17, -1.73190012574195861816e-01) (18, 6.06112107634544372559e-02) (0, 2.61727362871170043945e-01) (9, 2.85667687654495239258e-01) (2, 8.58519673347473144531e-01) (14, 1.54500752687454223633e-01) (5, 7.45917297363281250000e+02) (7, 1.64792016148567199707e-01) (18, 1.11750297248363494873e-01) (9, 6.96906149387359619141e-02) (6, 1.84477329254150390625e-01) (17, 1.19674555957317352295e-01) (5, 4.57888936996459960938e+00) (11, 3.50842356681823730469e-01) (13, 1.51916980743408203125e-01) (18, 3.18286046385765075684e-02) (5, 7.34303207397460937500e+01) (2, 1.14832639694213867188e-01) (14, 1.49999951171875000000e+03) (3, -1.24001968652009963989e-02) (1, -1.13549061119556427002e-01) (4, -5.79682700335979461670e-02) (18, -5.04429526627063751221e-02) (8, 8.22254717350006103516e-02) (11, 2.46415615081787109375e+01) (5, 9.74506759643554687500e+01) (15, 1.50000000000000000000e+03) (16, -1.26515880227088928223e-01) (2, 3.75355094671249389648e-01) (0, -5.52452325820922851562e-01) (18, -1.10136866569519042969e-01) (0, 2.08160296082496643066e-01) (3, 3.20512764155864715576e-02) (9, 2.28035729378461837769e-03) (11, -3.94594594836235046387e-02) (12, -4.46722749620676040649e-03) (8, 1.78621001541614532471e-02) (18, 1.15633703768253326416e-01) (2, 2.62559980154037475586e-01) (8, 1.66209831833839416504e-01) (14, 5.55821776390075683594e-01) (17, 1.26410409808158874512e-01) (15, -1.19322292506694793701e-01) (7, 9.44121703505516052246e-02) (18, 7.98444170504808425903e-03) (16, 1.35383736342191696167e-02) (5, 1.35309896469116210938e+01) (17, 7.62879848480224609375e-02) (11, -7.55246952176094055176e-02) (14, 1.49997717285156250000e+03) (3, 7.25962519645690917969e-02) (15, -3.66975553333759307861e-02) (18, -1.48861572146415710449e-01) (9, 2.72709578275680541992e-01) (7, -2.50576645135879516602e-01) (8, 5.26815699413418769836e-03) (16, -1.97716161608695983887e-01) (4, 1.92249789834022521973e-01) (3, 6.46066889166831970215e-02) (18, 6.08949549496173858643e-02) (3, 1.60871803760528564453e-01) (14, 1.54163166880607604980e-01) (2, 8.58371257781982421875e-01) (7, 1.64568811655044555664e-01) (1, 1.80750355124473571777e-01) (5, 7.45917785644531250000e+02) (18, -4.82557155191898345947e-02) (8, 8.28518420457839965820e-02) (1, 2.75753617286682128906e-01) (11, 2.46412639617919921875e+01) (15, 1.50000000000000000000e+03) (4, 1.48909062147140502930e-01) (2, 3.75613033771514892578e-01) (13, 1.55527740716934204102e-01) (18, -1.50339761748909950256e-02) (3, 2.59871929883956909180e-01) (6, 5.29545068740844726562e-01) (8, 1.03945828974246978760e-01) (2, 4.65064620971679687500e+01) (11, 1.15081768035888671875e+01) (9, 4.45868968963623046875e-01) (18, 1.12762905657291412354e-01) (9, 6.88673481345176696777e-02) (3, 8.72354507446289062500e-02) (11, 3.49682956933975219727e-01) (13, 1.51103064417839050293e-01) (15, 7.34268722534179687500e+01) (17, 1.18460401892662048340e-01) (18, -7.03226635232567787170e-03) (2, 1.30308868408203125000e+02) (0, -7.04733215332031250000e+02) (11, 2.60982147216796875000e+02) (9, 6.14773154258728027344e-01) (12, -6.96050643920898437500e+01) (14, -1.49999877929687500000e+03) (18, 1.72677617520093917847e-02) (6, -5.38151413202285766602e-02) (15, -1.29086747765541076660e-02) (7, 4.79261353611946105957e-02) (16, 3.35436537861824035645e-02) (0, 4.34360504150390625000e-02) (5, -1.00778490304946899414e-01) (3, -1.48839252069592475891e-02) (18, 3.76254320144653320312e-02) (6, 4.12839651107788085938e-02) (13, -2.17508807778358459473e-01) (4, -1.78078915923833847046e-02) (17, 1.17138169705867767334e-01) (2, 1.16950161755084991455e-01) (15, 1.49951525878906250000e+03) (18, -4.95472587645053863525e-02) (12, 2.17196837067604064941e-01) (13, 1.52938783168792724609e-01) (4, 1.48872479796409606934e-01) (10, 2.76852369308471679688e-01) (1, 2.75990813970565795898e-01) (3, 1.17627218365669250488e-01) (18, 6.26145824790000915527e-02) (2, 1.30363815307617187500e+02) (13, -8.75525832176208496094e-01) (10, 9.44711923599243164062e-01) (9, 6.71396195888519287109e-01) (11, 2.61034515380859375000e+02) (1, 1.30323946475982666016e+00) (3, 4.72218179702758789062e+00) (18, 1.12517885863780975342e-01) (5, 4.85162401199340820312e+00) (11, 3.51221740245819091797e-01) (2, 2.07392051815986633301e-01) (14, 4.38461589813232421875e+00) (16, 1.92240431904792785645e-01) (12, 2.28156045079231262207e-01) (18, -1.16257086396217346191e-01) (10, 1.42018906772136688232e-02) (16, -4.59361225366592407227e-01) (3, 2.25188121199607849121e-01) (5, 1.49999987792968750000e+03) (14, 1.49788476562500000000e+03) (6, 5.09677052497863769531e-01) (18, -6.00820919498801231384e-03) (11, -3.63748408854007720947e-02) (3, 4.07955534756183624268e-02) (10, -8.42271968722343444824e-02) (12, 1.32591813802719116211e-01) (2, 3.39089566841721534729e-03) (6, 2.20062099397182464600e-02) (1, 8.52665156126022338867e-02) (18, -1.10915666446089744568e-02) (13, -1.07551217079162597656e-01) (9, 1.45063386298716068268e-03) (16, 7.37634524703025817871e-02) (1, 6.23078569769859313965e-02) (14, -1.27975702285766601562e+00) (4, 1.15356840193271636963e-01) (18, 6.17332831025123596191e-02) (16, 1.05980314314365386963e-01) (0, 2.62195527553558349609e-01) (15, -4.51850295066833496094e-01) (3, 1.60522550344467163086e-01) (4, 1.96506932377815246582e-01) (8, 8.06636288762092590332e-02) (18, 5.46139925718307495117e-02) (5, 1.49999987792968750000e+03) (16, -2.93010294437408447266e-01) (14, -1.49999975585937500000e+03) (4, -1.15861284732818603516e+00) (1, 1.29384672641754150391e+00) (10, 9.46811854839324951172e-01) (18, 3.51929897442460060120e-03) (14, 1.49999951171875000000e+03) (8, -9.51977446675300598145e-02) (13, -4.11949843168258666992e-01) (17, 9.50050950050354003906e-02) (3, -9.38046798110008239746e-02) (12, 1.46426364779472351074e-01) (16, -1.99530273675918579102e-03) (18, 1.39326244592666625977e-01) (4, -1.10943114757537841797e+00) (2, 1.30506713867187500000e+02) (5, 1.49999987792968750000e+03) (15, 1.49910314941406250000e+03) (14, -1.35538964843750000000e+03) (16, -1.79610714316368103027e-01) (18, 6.07364103198051452637e-02) (8, 8.05494338274002075195e-02) (2, 8.58098089694976806641e-01) (6, 8.80303308367729187012e-02) (1, 1.79960399866104125977e-01) (7, 1.64888933300971984863e-01) (3, 1.60586893558502197266e-01) (18, -1.33694950491189956665e-02) (14, -7.74817243218421936035e-02) (13, -1.16008892655372619629e-01) (1, 2.79711782932281494141e-02) (3, -1.19896251708269119263e-02) (8, 3.47498059272766113281e-02) (17, 1.10415145754814147949e-01) (11, -1.70526914298534393311e-02) (18, 6.05823919177055358887e-02) (5, 7.45917297363281250000e+02) (10, 1.36091411113739013672e-01) (4, 1.95860773324966430664e-01) (16, 1.05992309749126434326e-01) (1, 1.81195348501205444336e-01) (17, 1.03428520262241363525e-01) (18, 1.13743528723716735840e-01) (8, 1.61907121539115905762e-01) (7, 8.86698365211486816406e-02) (6, 1.85180813074111938477e-01) (2, 2.26035997271537780762e-01) (5, 5.01227998733520507812e+00) (9, 7.03919604420661926270e-02) (18, 6.31788149476051330566e-02) (12, 1.16150498390197753906e-01) (5, 2.33735824584960937500e+02) (1, 2.14219406247138977051e-01) (15, -5.04068851470947265625e-01) (2, 8.55522334575653076172e-01) (3, 1.46782547235488891602e-01) (11, 2.20650687813758850098e-01) (169, -9.44285988807678222656e-01) (66, 1.00795483589172363281e+00) (72, 6.35379180312156677246e-02) (73, 6.31801560521125793457e-02) (82, 5.60885220766067504883e-02) (97, 9.67798307538032531738e-02) (99, -9.03115049004554748535e-02) (104, 6.41697123646736145020e-02) (112, 6.32416829466819763184e-02) (118, 6.41400739550590515137e-02) (119, 6.88024312257766723633e-02) (120, 6.43093809485435485840e-02) (124, 6.34156540036201477051e-02) (128, 6.32632523775100708008e-02) (131, 9.65969562530517578125e-02) (138, 6.35421425104141235352e-02) (149, 6.41871020197868347168e-02) (151, 2.58258968591690063477e-01) (155, 6.37881308794021606445e-02) (161, 3.74861769378185272217e-02) (163, 9.72394794225692749023e-02) (22, 6.33135437965393066406e-02) (133, -3.90621274709701538086e-01) (110, 6.10028088092803955078e-01) (30, 6.39483407139778137207e-02) (125, 6.41292110085487365723e-02) (23, 6.32506757974624633789e-02) (53, 6.38237670063972473145e-02) (154, 6.40563741326332092285e-02) (148, 6.38069137930870056152e-02) (127, 6.32624179124832153320e-02) (126, 6.32033646106719970703e-02) (63, 6.37938007712364196777e-02) (54, -8.98395061492919921875e-01) (26, 2.97431737184524536133e-01) (83, 6.35604113340377807617e-02) (44, 6.35256841778755187988e-02) (20, -3.02974104881286621094e-01) (71, 1.36958849430084228516e+00) (142, 6.39590919017791748047e-02) (96, 9.59567204117774963379e-02) (157, 6.36418983340263366699e-02) (21, 6.39057606458663940430e-02) (62, 6.40865936875343322754e-02) (93, 6.38149008154869079590e-02) (27, 6.38307854533195495605e-02) (51, 2.15952172875404357910e-01) (52, -2.62785434722900390625e-01) (68, -2.86289960145950317383e-01) (146, 7.10748508572578430176e-02) (24, 6.38579875230789184570e-02) (38, 6.35837987065315246582e-02) (34, 6.41873106360435485840e-02) (169, -9.68809902667999267578e-01) (19, 2.75390855967998504639e-02) (26, 1.10128885135054588318e-02) (28, 2.78631411492824554443e-02) (33, 2.76994816958904266357e-02) (34, 2.75690071284770965576e-02) (37, 1.08393333852291107178e-01) (41, 5.46610772609710693359e-01) (43, 2.72031892091035842896e-02) (44, 2.76700221002101898193e-02) (45, 2.78472118079662322998e-02) (46, 2.83608883619308471680e-02) (49, 3.89010578393936157227e-01) (51, 2.22047418355941772461e-01) (52, 3.42134177684783935547e-01) (53, 2.82595567405223846436e-02) (55, -9.67201665043830871582e-02) (59, 2.86746099591255187988e-02) (60, 2.12398737668991088867e-01) (61, 1.73148825764656066895e-01) (65, 2.82177738845348358154e-02) (67, -7.64749571681022644043e-02) (68, 4.23381239175796508789e-01) (69, 2.76860110461711883545e-02) (71, 2.58018463850021362305e-01) (74, 2.78751365840435028076e-02) (75, 2.77678184211254119873e-02) (76, 5.17963171005249023438e-01) (77, 2.86427196115255355835e-02) (80, 2.82613001763820648193e-02) (85, 2.82561294734477996826e-02) (86, 2.80418638139963150024e-02) (89, 2.83751487731933593750e-02) (90, 1.38274335861206054688e+00) (93, 2.84797735512256622314e-02) (94, 2.86493822932243347168e-02) (98, 2.78103016316890716553e-02) (101, 5.33341765403747558594e-01) (102, 1.07478141784667968750e+00) (105, 3.11455223709344863892e-02) (107, 2.75840554386377334595e-02) (113, 2.75177769362926483154e-02) (123, 3.00744883716106414795e-02) (126, 2.80318353325128555298e-02) (130, 5.83975434303283691406e-01) (136, 2.81703900545835494995e-02) (141, 2.75939963757991790771e-02) (143, 1.84839934110641479492e-01) (145, 2.81475912779569625854e-02) (153, 2.75965351611375808716e-02) (157, 2.74833869189023971558e-02) (158, 6.01670801639556884766e-01) (162, 5.46188116073608398438e-01) (165, 2.66159147024154663086e-01) (169, -8.73269140720367431641e-01) (23, 1.12112089991569519043e-01) (24, 1.12029775977134704590e-01) (29, 1.12466879189014434814e-01) (30, 1.11846171319484710693e-01) (31, 1.72186553478240966797e+00) (32, 2.49393880367279052734e-02) (35, -2.22402408719062805176e-01) (36, -1.80454954504966735840e-01) (38, 1.11708484590053558350e-01) (42, 7.05689340829849243164e-02) (47, 6.83265253901481628418e-02) (48, 1.11660465598106384277e-01) (54, 9.67419028282165527344e-01) (56, 1.12288117408752441406e-01) (57, 1.92259680479764938354e-02) (70, 1.39061376452445983887e-01) (78, 1.12446956336498260498e-01) (81, 1.12695790827274322510e-01) (83, 1.11824505031108856201e-01) (84, 1.09202980995178222656e-01) (92, -9.08918023109436035156e-01) (96, 4.55064475536346435547e-01) (100, 1.11719705164432525635e-01) (103, 1.12017758190631866455e-01) (106, 2.30619460344314575195e-01) (108, 1.12351834774017333984e-01) (109, 1.12075917422771453857e-01) (111, 2.88382530212402343750e-01) (114, 2.32041016221046447754e-01) (115, -5.15893280506134033203e-01) (116, 4.17104586958885192871e-02) (117, 1.13285899162292480469e-01) (125, 1.12444050610065460205e-01) (127, 1.12340092658996582031e-01) (132, 1.23052847385406494141e+00) (133, 3.82045179605484008789e-01) (134, 1.12750090658664703369e-01) (137, 1.11939169466495513916e-01) (140, 1.12497158348560333252e-01) (142, 1.12837843596935272217e-01) (144, 1.06969788670539855957e-01) (146, 7.76446536183357238770e-02) (148, 1.12877577543258666992e-01) (150, 1.12375155091285705566e-01) (152, -2.55099758505821228027e-02) (154, 1.12587861716747283936e-01) (156, 1.11984044313430786133e-01) (159, 2.10273817181587219238e-01) (167, 1.12390697002410888672e-01) (104, 1.12418234348297119141e-01) (45, 1.12360253930091857910e-01) (20, 4.62786853313446044922e-02) (169, -8.61580610275268554688e-01) (20, 4.07330989837646484375e-01) (21, 6.23355433344841003418e-02) (22, 6.25267401337623596191e-02) (25, 6.21810853481292724609e-02) (27, 6.27908483147621154785e-02) (39, 6.18963316082954406738e-02) (40, 6.19985312223434448242e-02) (50, 6.19327500462532043457e-02) (58, 6.17695152759552001953e-02) (62, 6.23074173927307128906e-02) (63, 6.27562105655670166016e-02) (64, 5.90940237045288085938e-01) (79, 6.28417879343032836914e-02) (87, 6.26615807414054870605e-02) (88, 7.86905765533447265625e-01) (91, 6.18878677487373352051e-02) (95, 6.22656792402267456055e-02) (110, -2.49014310538768768311e-02) (121, 8.75093758106231689453e-01) (122, 6.26233294606208801270e-02) (129, 5.14460243284702301025e-02) (135, 6.17138966917991638184e-02) (139, 6.23759031295776367188e-02) (147, 6.19704276323318481445e-02) (160, 6.23076707124710083008e-02) (164, 6.16824850440025329590e-02) (166, 6.27405270934104919434e-02) (168, 5.03058619797229766846e-02) (123, 6.12052604556083679199e-02) (149, 6.17533847689628601074e-02) (93, 6.23071640729904174805e-02) (73, 6.22187405824661254883e-02) (74, 6.24357014894485473633e-02) (107, 6.19082823395729064941e-02) (53, 6.27466142177581787109e-02) (124, 6.23008608818054199219e-02) (106, 2.94306844472885131836e-01) (85, 6.18194788694381713867e-02) (119, 6.04358687996864318848e-02) (145, 6.22675940394401550293e-02) (75, 6.24736696481704711914e-02) (84, 8.20912718772888183594e-02) (80, 6.18309304118156433105e-02) (92, 4.80311959981918334961e-02) (132, -6.28322184085845947266e-01) (165, -1.85967702418565750122e-02) (152, 5.91196477413177490234e-01) (108, 6.27593398094177246094e-02) (45, 6.18890896439552307129e-02) (146, 9.81054753065109252930e-02) (117, 4.89215999841690063477e-02) (105, -1.30093550682067871094e+00) (67, 1.53882300853729248047e+00) 
