FANN_FLO_2.1
num_layers=3
learning_rate=0.700000
connection_rate=1.000000
network_type=0
learning_momentum=0.000000
training_algorithm=2
train_error_function=1
train_stop_function=1
cascade_output_change_fraction=0.010000
quickprop_decay=-0.000100
quickprop_mu=1.750000
rprop_increase_factor=1.200000
rprop_decrease_factor=0.500000
rprop_delta_min=0.000000
rprop_delta_max=50.000000
rprop_delta_zero=0.100000
cascade_output_stagnation_epochs=12
cascade_candidate_change_fraction=0.010000
cascade_candidate_stagnation_epochs=12
cascade_max_out_epochs=150
cascade_min_out_epochs=50
cascade_max_cand_epochs=150
cascade_min_cand_epochs=50
cascade_num_candidate_groups=2
bit_fail_limit=1.00000001490116119385e-01
cascade_candidate_limit=1.00000000000000000000e+03
cascade_weight_multiplier=4.00000005960464477539e-01
cascade_activation_functions_count=10
cascade_activation_functions=3 5 7 8 10 11 14 15 16 17 
cascade_activation_steepnesses_count=4
cascade_activation_steepnesses=2.50000000000000000000e-01 5.00000000000000000000e-01 7.50000000000000000000e-01 1.00000000000000000000e+00 
layer_sizes=8 6 3 
scale_included=0
neurons (num_inputs, activation_function, activation_steepness)=(0, 0, 0.00000000000000000000e+00) (0, 0, 0.00000000000000000000e+00) (0, 0, 0.00000000000000000000e+00) (0, 0, 0.00000000000000000000e+00) (0, 0, 0.00000000000000000000e+00) (0, 0, 0.00000000000000000000e+00) (0, 0, 0.00000000000000000000e+00) (0, 0, 0.00000000000000000000e+00) (8, 5, 5.00000000000000000000e-01) (8, 5, 5.00000000000000000000e-01) (8, 5, 5.00000000000000000000e-01) (8, 5, 5.00000000000000000000e-01) (8, 5, 5.00000000000000000000e-01) (0, 5, 5.00000000000000000000e-01) (6, 5, 5.00000000000000000000e-01) (6, 5, 5.00000000000000000000e-01) (0, 5, 5.00000000000000000000e-01) 
connections (connected_to_neuron, weight)=(0, 1.50000000000000000000e+03) (1, -1.50000000000000000000e+03) (2, -1.50000000000000000000e+03) (3, 1.50000000000000000000e+03) (4, 1.50000000000000000000e+03) (5, -1.50000000000000000000e+03) (6, 1.50000000000000000000e+03) (7, 1.54612304687500000000e+02) (0, -1.35052909851074218750e+01) (1, 1.50000000000000000000e+03) (2, -9.53593921661376953125e+00) (3, 6.04400992393493652344e-01) (4, -3.36791634559631347656e-01) (5, -5.71457147598266601562e+00) (6, 2.37255978584289550781e+00) (7, -6.03959619998931884766e-01) (0, 1.50000000000000000000e+03) (1, -1.50000000000000000000e+03) (2, -1.50000000000000000000e+03) (3, 1.50000000000000000000e+03) (4, 1.50000000000000000000e+03) (5, -1.50000000000000000000e+03) (6, 1.50000000000000000000e+03) (7, 3.57794403076171875000e+02) (0, 1.50000000000000000000e+03) (1, -1.50000000000000000000e+03) (2, -1.50000000000000000000e+03) (3, 1.50000000000000000000e+03) (4, 1.50000000000000000000e+03) (5, -1.50000000000000000000e+03) (6, 1.50000000000000000000e+03) (7, 1.54612304687500000000e+02) (0, -7.06016906738281250000e+02) (1, 1.50000000000000000000e+03) (2, -6.25468811035156250000e+02) (3, 8.70832157135009765625e+00) (4, 6.32990002632141113281e-01) (5, 3.08606719970703125000e+00) (6, -2.20715579986572265625e+01) (7, 8.34262180328369140625e+00) (8, 2.10454612970352172852e-01) (9, 1.83150720596313476562e+00) (10, 2.15374708175659179688e-01) (11, 2.11523190140724182129e-01) (12, 6.19879126548767089844e-01) (13, 2.23159134387969970703e-01) (8, 4.13228601217269897461e-01) (9, -2.04809570312500000000e+00) (10, 4.15586590766906738281e-01) (11, 4.12984997034072875977e-01) (12, -2.90102697908878326416e-03) (13, 9.65751111507415771484e-01) 
