FANN_FLO_2.1
num_layers=3
learning_rate=0.700000
connection_rate=0.350000
network_type=0
learning_momentum=0.000000
training_algorithm=2
train_error_function=1
train_stop_function=1
cascade_output_change_fraction=0.010000
quickprop_decay=-0.000100
quickprop_mu=1.750000
rprop_increase_factor=1.200000
rprop_decrease_factor=0.500000
rprop_delta_min=0.000000
rprop_delta_max=50.000000
rprop_delta_zero=0.100000
cascade_output_stagnation_epochs=12
cascade_candidate_change_fraction=0.010000
cascade_candidate_stagnation_epochs=12
cascade_max_out_epochs=150
cascade_min_out_epochs=50
cascade_max_cand_epochs=150
cascade_min_cand_epochs=50
cascade_num_candidate_groups=2
bit_fail_limit=1.00000001490116119385e-01
cascade_candidate_limit=1.00000000000000000000e+03
cascade_weight_multiplier=4.00000005960464477539e-01
cascade_activation_functions_count=10
cascade_activation_functions=3 5 7 8 10 11 14 15 16 17 
cascade_activation_steepnesses_count=4
cascade_activation_steepnesses=2.50000000000000000000e-01 5.00000000000000000000e-01 7.50000000000000000000e-01 1.00000000000000000000e+00 
layer_sizes=41 151 8 
scale_included=0
neurons (num_inputs, activation_function, activation_steepness)=(0, 0, 0.00000000000000000000e+00) (0, 0, 0.00000000000000000000e+00) (0, 0, 0.00000000000000000000e+00) (0, 0, 0.00000000000000000000e+00) (0, 0, 0.00000000000000000000e+00) (0, 0, 0.00000000000000000000e+00) (0, 0, 0.00000000000000000000e+00) (0, 0, 0.00000000000000000000e+00) (0, 0, 0.00000000000000000000e+00) (0, 0, 0.00000000000000000000e+00) (0, 0, 0.00000000000000000000e+00) (0, 0, 0.00000000000000000000e+00) (0, 0, 0.00000000000000000000e+00) (0, 0, 0.00000000000000000000e+00) (0, 0, 0.00000000000000000000e+00) (0, 0, 0.00000000000000000000e+00) (0, 0, 0.00000000000000000000e+00) (0, 0, 0.00000000000000000000e+00) (0, 0, 0.00000000000000000000e+00) (0, 0, 0.00000000000000000000e+00) (0, 0, 0.00000000000000000000e+00) (0, 0, 0.00000000000000000000e+00) (0, 0, 0.00000000000000000000e+00) (0, 0, 0.00000000000000000000e+00) (0, 0, 0.00000000000000000000e+00) (0, 0, 0.00000000000000000000e+00) (0, 0, 0.00000000000000000000e+00) (0, 0, 0.00000000000000000000e+00) (0, 0, 0.00000000000000000000e+00) (0, 0, 0.00000000000000000000e+00) (0, 0, 0.00000000000000000000e+00) (0, 0, 0.00000000000000000000e+00) (0, 0, 0.00000000000000000000e+00) (0, 0, 0.00000000000000000000e+00) (0, 0, 0.00000000000000000000e+00) (0, 0, 0.00000000000000000000e+00) (0, 0, 0.00000000000000000000e+00) (0, 0, 0.00000000000000000000e+00) (0, 0, 0.00000000000000000000e+00) (0, 0, 0.00000000000000000000e+00) (0, 0, 0.00000000000000000000e+00) (15, 5, 5.00000000000000000000e-01) (15, 5, 5.00000000000000000000e-01) (15, 5, 5.00000000000000000000e-01) (15, 5, 5.00000000000000000000e-01) (15, 5, 5.00000000000000000000e-01) (15, 5, 5.00000000000000000000e-01) (15, 5, 5.00000000000000000000e-01) (15, 5, 5.00000000000000000000e-01) (15, 5, 5.00000000000000000000e-01) (15, 5, 5.00000000000000000000e-01) (15, 5, 5.00000000000000000000e-01) (15, 5, 5.00000000000000000000e-01) (15, 5, 5.00000000000000000000e-01) (15, 5, 5.00000000000000000000e-01) (15, 5, 5.00000000000000000000e-01) (15, 5, 5.00000000000000000000e-01) (15, 5, 5.00000000000000000000e-01) (15, 5, 5.00000000000000000000e-01) (15, 5, 5.00000000000000000000e-01) (15, 5, 5.00000000000000000000e-01) (15, 5, 5.00000000000000000000e-01) (15, 5, 5.00000000000000000000e-01) (15, 5, 5.00000000000000000000e-01) (15, 5, 5.00000000000000000000e-01) (15, 5, 5.00000000000000000000e-01) (15, 5, 5.00000000000000000000e-01) (15, 5, 5.00000000000000000000e-01) (15, 5, 5.00000000000000000000e-01) (15, 5, 5.00000000000000000000e-01) (15, 5, 5.00000000000000000000e-01) (15, 5, 5.00000000000000000000e-01) (15, 5, 5.00000000000000000000e-01) (15, 5, 5.00000000000000000000e-01) (15, 5, 5.00000000000000000000e-01) (15, 5, 5.00000000000000000000e-01) (15, 5, 5.00000000000000000000e-01) (15, 5, 5.00000000000000000000e-01) (15, 5, 5.00000000000000000000e-01) (15, 5, 5.00000000000000000000e-01) (15, 5, 5.00000000000000000000e-01) (15, 5, 5.00000000000000000000e-01) (15, 5, 5.00000000000000000000e-01) (15, 5, 5.00000000000000000000e-01) (15, 5, 5.00000000000000000000e-01) (15, 5, 5.00000000000000000000e-01) (15, 5, 5.00000000000000000000e-01) (15, 5, 5.00000000000000000000e-01) (15, 5, 5.00000000000000000000e-01) (15, 5, 5.00000000000000000000e-01) (15, 5, 5.00000000000000000000e-01) (15, 5, 5.00000000000000000000e-01) (15, 5, 5.00000000000000000000e-01) (15, 5, 5.00000000000000000000e-01) (15, 5, 5.00000000000000000000e-01) (15, 5, 5.00000000000000000000e-01) (15, 5, 5.00000000000000000000e-01) (15, 5, 5.00000000000000000000e-01) (15, 5, 5.00000000000000000000e-01) (15, 5, 5.00000000000000000000e-01) (15, 5, 5.00000000000000000000e-01) (15, 5, 5.00000000000000000000e-01) (15, 5, 5.00000000000000000000e-01) (15, 5, 5.00000000000000000000e-01) (15, 5, 5.00000000000000000000e-01) (15, 5, 5.00000000000000000000e-01) (15, 5, 5.00000000000000000000e-01) (15, 5, 5.00000000000000000000e-01) (15, 5, 5.00000000000000000000e-01) (15, 5, 5.00000000000000000000e-01) (15, 5, 5.00000000000000000000e-01) (15, 5, 5.00000000000000000000e-01) (15, 5, 5.00000000000000000000e-01) (15, 5, 5.00000000000000000000e-01) (15, 5, 5.00000000000000000000e-01) (15, 5, 5.00000000000000000000e-01) (15, 5, 5.00000000000000000000e-01) (15, 5, 5.00000000000000000000e-01) (15, 5, 5.00000000000000000000e-01) (15, 5, 5.00000000000000000000e-01) (15, 5, 5.00000000000000000000e-01) (15, 5, 5.00000000000000000000e-01) (15, 5, 5.00000000000000000000e-01) (15, 5, 5.00000000000000000000e-01) (15, 5, 5.00000000000000000000e-01) (15, 5, 5.00000000000000000000e-01) (15, 5, 5.00000000000000000000e-01) (15, 5, 5.00000000000000000000e-01) (15, 5, 5.00000000000000000000e-01) (15, 5, 5.00000000000000000000e-01) (15, 5, 5.00000000000000000000e-01) (15, 5, 5.00000000000000000000e-01) (15, 5, 5.00000000000000000000e-01) (15, 5, 5.00000000000000000000e-01) (15, 5, 5.00000000000000000000e-01) (15, 5, 5.00000000000000000000e-01) (15, 5, 5.00000000000000000000e-01) (15, 5, 5.00000000000000000000e-01) (15, 5, 5.00000000000000000000e-01) (15, 5, 5.00000000000000000000e-01) (15, 5, 5.00000000000000000000e-01) (15, 5, 5.00000000000000000000e-01) (15, 5, 5.00000000000000000000e-01) (15, 5, 5.00000000000000000000e-01) (15, 5, 5.00000000000000000000e-01) (15, 5, 5.00000000000000000000e-01) (15, 5, 5.00000000000000000000e-01) (15, 5, 5.00000000000000000000e-01) (15, 5, 5.00000000000000000000e-01) (15, 5, 5.00000000000000000000e-01) (15, 5, 5.00000000000000000000e-01) (15, 5, 5.00000000000000000000e-01) (15, 5, 5.00000000000000000000e-01) (15, 5, 5.00000000000000000000e-01) (15, 5, 5.00000000000000000000e-01) (15, 5, 5.00000000000000000000e-01) (15, 5, 5.00000000000000000000e-01) (15, 5, 5.00000000000000000000e-01) (15, 5, 5.00000000000000000000e-01) (15, 5, 5.00000000000000000000e-01) (15, 5, 5.00000000000000000000e-01) (15, 5, 5.00000000000000000000e-01) (15, 5, 5.00000000000000000000e-01) (15, 5, 5.00000000000000000000e-01) (15, 5, 5.00000000000000000000e-01) (15, 5, 5.00000000000000000000e-01) (15, 5, 5.00000000000000000000e-01) (15, 5, 5.00000000000000000000e-01) (15, 5, 5.00000000000000000000e-01) (15, 5, 5.00000000000000000000e-01) (15, 5, 5.00000000000000000000e-01) (15, 5, 5.00000000000000000000e-01) (15, 5, 5.00000000000000000000e-01) (15, 5, 5.00000000000000000000e-01) (15, 5, 5.00000000000000000000e-01) (15, 5, 5.00000000000000000000e-01) (15, 5, 5.00000000000000000000e-01) (15, 5, 5.00000000000000000000e-01) (15, 5, 5.00000000000000000000e-01) (15, 5, 5.00000000000000000000e-01) (15, 5, 5.00000000000000000000e-01) (15, 5, 5.00000000000000000000e-01) (15, 5, 5.00000000000000000000e-01) (15, 5, 5.00000000000000000000e-01) (15, 5, 5.00000000000000000000e-01) (15, 5, 5.00000000000000000000e-01) (15, 5, 5.00000000000000000000e-01) (15, 5, 5.00000000000000000000e-01) (15, 5, 5.00000000000000000000e-01) (15, 5, 5.00000000000000000000e-01) (15, 5, 5.00000000000000000000e-01) (0, 5, 5.00000000000000000000e-01) (53, 5, 5.00000000000000000000e-01) (54, 5, 5.00000000000000000000e-01) (53, 5, 5.00000000000000000000e-01) (54, 5, 5.00000000000000000000e-01) (53, 5, 5.00000000000000000000e-01) (54, 5, 5.00000000000000000000e-01) (54, 5, 5.00000000000000000000e-01) (0, 5, 5.00000000000000000000e-01) 
connections (connected_to_neuron, weight)=(40, -9.65028047561645507812e-01) (19, 9.92899656295776367188e-01) (35, 1.41447335481643676758e-01) (25, 1.50000000000000000000e+03) (38, 7.03442037105560302734e-01) (3, 1.50000000000000000000e+03) (12, 5.38718402385711669922e-01) (0, 4.23275530338287353516e-01) (5, -2.05669209361076354980e-01) (17, 8.29309821128845214844e-01) (23, 2.04704597592353820801e-01) (8, 5.15577256679534912109e-01) (2, -5.91222979128360748291e-02) (26, -1.36325287818908691406e+00) (9, -1.38408672809600830078e+00) (40, -9.05141651630401611328e-01) (13, 8.94698143005371093750e-01) (14, -1.61373078823089599609e-01) (30, 2.33300566673278808594e-01) (29, -5.66302597522735595703e-01) (37, -5.23956604301929473877e-02) (20, 8.33160042762756347656e-01) (25, 1.50000000000000000000e+03) (27, 1.50000000000000000000e+03) (16, -1.32802799344062805176e-01) (26, 4.97897535562515258789e-01) (17, 2.21051886677742004395e-01) (19, 2.73535817861557006836e-01) (2, 1.86752140522003173828e-01) (11, 1.70076474547386169434e-01) (40, -9.84623610973358154297e-01) (12, 5.91380774974822998047e-01) (26, 7.95439630746841430664e-02) (21, 3.86737659573554992676e-02) (30, 6.94124549627304077148e-02) (24, -2.96888947486877441406e-01) (19, 5.52786409854888916016e-01) (27, 1.50000000000000000000e+03) (23, 4.17090743780136108398e-01) (33, 1.50000000000000000000e+03) (34, 1.10009707510471343994e-01) (31, 1.50000000000000000000e+03) (11, 5.37083446979522705078e-01) (16, 3.01481574773788452148e-01) (29, 1.11872994899749755859e+00) (40, 8.99033308029174804688e-01) (29, -4.16550487279891967773e-01) (2, 2.81818747520446777344e-01) (3, 5.01713275909423828125e+00) (39, 9.49351906776428222656e-01) (23, -2.11601689457893371582e-01) (6, 1.18254542350769042969e-01) (37, 8.94409716129302978516e-01) (25, 1.50000000000000000000e+03) (30, -1.30567514896392822266e+00) (28, 4.85555708408355712891e-01) (21, 4.18398571014404296875e+00) (8, 4.18664693832397460938e-01) (26, -8.19000720977783203125e-01) (20, 8.90156209468841552734e-01) (40, 1.09351776540279388428e-01) (24, 4.36024093627929687500e+00) (17, 4.16149616241455078125e-01) (19, 6.34767115116119384766e-01) (25, 1.50000000000000000000e+03) (28, 8.02199184894561767578e-01) (11, 9.69933807849884033203e-01) (13, 2.37040340900421142578e-01) (3, 3.06090664863586425781e+00) (27, 1.50000000000000000000e+03) (33, 1.50000000000000000000e+03) (23, 1.73922315239906311035e-01) (10, 3.57599943876266479492e-01) (32, -1.86729025840759277344e+00) (35, 4.97745370864868164062e+00) (40, -7.52730429172515869141e-01) (13, -2.69016653299331665039e-01) (35, 6.29790186882019042969e-01) (32, -7.79927253723144531250e-01) (24, 4.55633923411369323730e-03) (17, 6.27134501934051513672e-01) (16, -4.63056772947311401367e-01) (27, 1.50000000000000000000e+03) (37, 5.02119958400726318359e-01) (6, 2.59495586156845092773e-01) (11, -2.85120397806167602539e-01) (30, -5.48647008836269378662e-02) (22, -1.94395452737808227539e-01) (7, 2.72321552038192749023e-01) (23, 7.16424584388732910156e-01) (40, -1.17563128471374511719e+00) (27, 1.50000000000000000000e+03) (22, 9.87144857645034790039e-02) (32, -8.05926561355590820312e-01) (10, 5.77373027801513671875e-01) (12, -2.35262975096702575684e-01) (21, -2.87700265645980834961e-01) (5, 6.71971201896667480469e-01) (3, 5.15292473137378692627e-02) (1, 2.64388859272003173828e-01) (26, 5.20959317684173583984e-01) (28, 1.20806887745857238770e-01) (24, 8.40676605701446533203e-01) (37, 5.86273968219757080078e-01) (38, 3.07195782661437988281e-01) (40, -4.29122626781463623047e-01) (22, 9.13141906261444091797e-01) (12, 1.60144400596618652344e+00) (15, -3.98628115653991699219e-01) (20, 1.16665470600128173828e+00) (3, 2.68174123764038085938e+00) (7, -3.53607833385467529297e-01) (28, 2.15937542915344238281e+00) (5, 5.81624329090118408203e-01) (9, 5.01596629619598388672e-01) (4, -2.91424363851547241211e-01) (21, -1.63263809680938720703e+00) (30, -9.25555467605590820312e-01) (6, 7.74527966976165771484e-01) (1, -8.75602722167968750000e-01) (40, -1.33195769786834716797e+00) (28, -2.39292764663696289062e+00) (1, 1.02146258577704429626e-02) (5, 2.50393152236938476562e-01) (12, -4.40482228994369506836e-01) (13, -1.06597453355789184570e-01) (0, 5.74465990066528320312e-01) (29, 4.29257839918136596680e-01) (37, 4.34486508369445800781e-01) (18, -2.92273670434951782227e-01) (35, -1.47945106029510498047e-01) (17, 1.84224426746368408203e-01) (33, 1.50000000000000000000e+03) (30, 4.29616183042526245117e-01) (4, -6.29872500896453857422e-01) (40, 6.34818315505981445312e-01) (14, -2.14320391416549682617e-01) (33, 1.50000000000000000000e+03) (23, -1.33730614185333251953e+00) (36, 3.84032040834426879883e-01) (15, 1.74484774470329284668e-01) (2, 3.58890682458877563477e-01) (9, 4.97773110866546630859e-01) (29, 1.80727231502532958984e+00) (25, 1.50000000000000000000e+03) (3, -3.71302574872970581055e-01) (24, -6.60076960921287536621e-02) (39, 3.54255974292755126953e-01) (32, 6.20280742645263671875e-01) (7, 4.79508101940155029297e-01) (40, -4.29548949003219604492e-01) (0, 4.89692270755767822266e-01) (28, -2.46999546885490417480e-01) (26, 1.44188404083251953125e-01) (13, -1.43118143081665039062e-01) (25, 1.50000000000000000000e+03) (38, 2.26758971810340881348e-01) (18, -8.02514076232910156250e-01) (2, -5.54321229457855224609e-01) (27, 1.50000000000000000000e+03) (12, 4.76488977670669555664e-01) (19, 3.39445829391479492188e-01) (1, -8.38139891624450683594e-01) (8, -1.58069610595703125000e-01) (6, 9.40351605415344238281e-01) (40, 2.41861015558242797852e-01) (21, 7.53637838363647460938e+00) (33, 1.50000000000000000000e+03) (25, 1.50000000000000000000e+03) (9, -6.51401519775390625000e-01) (35, 2.91001677513122558594e-01) (34, -1.23951625823974609375e+00) (20, 9.00619089603424072266e-01) (4, 6.41677081584930419922e-02) (22, 8.46819221973419189453e-01) (10, 4.77210789918899536133e-01) (14, -3.93694549798965454102e-01) (6, 6.82523369789123535156e-01) (36, 8.08396875858306884766e-01) (37, -7.91654467582702636719e-01) (40, -2.97828704118728637695e-01) (8, 1.24262161552906036377e-01) (7, 5.75289726257324218750e-01) (9, 7.23972976207733154297e-01) (2, 3.45454782247543334961e-01) (6, -2.88457013666629791260e-02) (14, 1.57773424871265888214e-03) (17, 7.15946137905120849609e-01) (21, 7.75970029830932617188e+00) (24, 7.51736700534820556641e-01) (5, 5.15064597129821777344e-01) (25, 1.50000000000000000000e+03) (23, -2.20495104789733886719e+00) (36, 9.97132003307342529297e-01) (34, 2.08802983164787292480e-01) (40, -1.45241284370422363281e+00) (36, 1.80215388536453247070e-01) (0, 3.23245972394943237305e-02) (7, -4.62259829044342041016e-01) (39, 5.35804852843284606934e-02) (25, 1.50000000000000000000e+03) (30, 1.81138992309570312500e-01) (9, 1.90365642309188842773e-01) (28, -4.63965564966201782227e-01) (6, 1.29861384630203247070e-01) (35, -3.35815772414207458496e-02) (17, 2.07230180501937866211e-01) (19, 3.71247023344039916992e-01) (8, -1.83903604745864868164e-01) (12, -6.07793126255273818970e-03) (40, -8.68089437484741210938e-01) (7, 1.64333447813987731934e-01) (4, 2.01973468065261840820e-01) (3, -3.17498117685317993164e-01) (17, -3.03324222564697265625e-01) (11, 5.62262594699859619141e-01) (35, 6.49444460868835449219e-02) (16, 2.82340109348297119141e-01) (23, -2.84055657684803009033e-02) (18, 5.72963118553161621094e-01) (24, 1.74057364463806152344e-01) (13, 5.42691111564636230469e-01) (20, 2.77894228696823120117e-01) (1, -6.11588060855865478516e-02) (32, -1.11424398422241210938e+00) (40, -5.39971649646759033203e-01) (11, 5.54607957601547241211e-02) (17, -1.14907369017601013184e-01) (38, 5.49805700778961181641e-01) (19, 8.95773470401763916016e-02) (7, 4.14080977439880371094e-01) (21, -6.90607130527496337891e-01) (26, 6.75360858440399169922e-01) (9, -9.48603674769401550293e-02) (22, -4.55472797155380249023e-01) (2, 7.52448849380016326904e-03) (37, 3.76608937978744506836e-01) (18, 5.55019736289978027344e-01) (8, -2.83562481403350830078e-01) (0, -4.16591137647628784180e-01) (40, -1.61086332798004150391e+00) (27, 1.50000000000000000000e+03) (35, 1.62919104099273681641e-01) (24, 1.99996024370193481445e-01) (6, 3.68171721696853637695e-01) (14, 9.46508824825286865234e-01) (23, -7.58884102106094360352e-02) (32, -4.08395379781723022461e-01) (10, -1.82698979973793029785e-01) (26, 1.81320905685424804688e-01) (37, -7.45074450969696044922e-01) (3, 1.08954942226409912109e+00) (20, 9.48486477136611938477e-02) (29, -3.20894181728363037109e-01) (7, -4.22848701477050781250e-01) (40, -1.25305145978927612305e-01) (25, 1.50000000000000000000e+03) (30, 1.50972500443458557129e-01) (27, 1.50000000000000000000e+03) (28, 4.86405521631240844727e-01) (16, 1.50636553764343261719e+00) (29, 7.04311668872833251953e-01) (35, 5.83723485469818115234e-01) (14, -1.63630232214927673340e-01) (2, 1.29008173942565917969e-01) (19, 5.35113632678985595703e-01) (23, 8.97534489631652832031e-01) (5, 5.50097048282623291016e-01) (24, 6.97155535221099853516e-01) (20, 8.56059789657592773438e-01) (40, 1.04426786303520202637e-01) (29, -6.02896690368652343750e-01) (34, -2.19432577490806579590e-01) (28, 4.31385904550552368164e-01) (33, 1.50000000000000000000e+03) (2, -4.72284525632858276367e-01) (5, -1.48759111762046813965e-01) (37, -1.33747398853302001953e-01) (12, -6.69455081224441528320e-02) (30, 3.90632361173629760742e-01) (15, -4.55385178327560424805e-01) (1, 5.92272341251373291016e-01) (25, 1.50000000000000000000e+03) (17, 2.59695261716842651367e-01) (21, 1.23555290699005126953e+00) (40, 2.70019471645355224609e-01) (32, 7.82849365234375000000e+02) (33, 1.50000000000000000000e+03) (25, 1.50000000000000000000e+03) (10, 4.76998612284660339355e-02) (1, 8.29652547836303710938e-01) (17, 4.51720952987670898438e-01) (13, 6.12856447696685791016e-01) (23, 6.13872766494750976562e-01) (22, 5.18858075141906738281e-01) (9, 2.83076971769332885742e-01) (30, 7.03015863895416259766e-01) (18, 2.78896713256835937500e+00) (35, 6.87472343444824218750e-01) (39, 1.69202834367752075195e-02) (40, 1.69305372238159179688e+00) (15, 7.49925315380096435547e-01) (24, 1.81381836533546447754e-01) (30, 4.42632198333740234375e+00) (34, -1.93065226078033447266e+00) (14, 1.68783098459243774414e-01) (35, -1.64093017578125000000e+00) (13, 4.15907323360443115234e-01) (3, 1.49609923362731933594e+00) (1, 1.45025563240051269531e+00) (25, 1.50000000000000000000e+03) (16, 2.55941104888916015625e+00) (18, 2.02315378189086914062e+00) (21, -1.46500140428543090820e-01) (33, 1.50000000000000000000e+03) (40, 2.82189071178436279297e-01) (32, -2.07512145996093750000e+02) (24, 3.54430377483367919922e-01) (27, 1.50000000000000000000e+03) (36, 1.76464572548866271973e-01) (31, 1.50000000000000000000e+03) (28, -8.28060448169708251953e-01) (26, 4.05594110488891601562e-01) (1, 2.27672964334487915039e-01) (22, 2.68848150968551635742e-01) (5, 4.84692044556140899658e-02) (29, -9.89912450313568115234e-01) (12, 2.71112263202667236328e-01) (14, 2.41632740944623947144e-02) (17, -7.79645368456840515137e-02) (40, 4.94440674781799316406e-01) (7, 7.77930319309234619141e-01) (2, 5.73670864105224609375e-01) (24, -7.19484966248273849487e-03) (21, 1.11345279216766357422e+00) (8, 8.12726169824600219727e-02) (35, 5.85398554801940917969e-01) (20, 2.74580776691436767578e-01) (37, 3.35761815309524536133e-01) (29, 4.38306331634521484375e-01) (30, 2.21403241157531738281e-01) (31, 1.50000000000000000000e+03) (34, 5.89638519287109375000e+00) (18, 1.42699554562568664551e-01) (36, 8.35547268390655517578e-01) (40, 1.03588294982910156250e+00) (27, 1.50000000000000000000e+03) (32, 2.99963498115539550781e+00) (17, 5.02792060375213623047e-01) (9, -1.63322007656097412109e+00) (15, 1.08720920979976654053e-01) (20, 1.59885391592979431152e-01) (22, -1.34650412946939468384e-02) (7, -3.68957281112670898438e-01) (10, 7.88595914840698242188e-01) (2, 9.04102325439453125000e-01) (12, 2.07400634884834289551e-01) (35, 1.65274858474731445312e-01) (25, 1.50000000000000000000e+03) (19, 6.13837420940399169922e-01) (40, -2.37891241908073425293e-01) (35, 2.29727074503898620605e-01) (3, -8.02179455757141113281e-01) (30, 7.90958046913146972656e-01) (33, 1.50000000000000000000e+03) (24, 2.05147075653076171875e+00) (18, -3.83179211616516113281e+00) (5, -6.59519284963607788086e-02) (25, 1.50000000000000000000e+03) (21, 6.60800123214721679688e+00) (17, 5.69258272647857666016e-01) (23, 9.60109770298004150391e-01) (15, 8.40033054351806640625e-01) (2, 5.15787720680236816406e-01) (27, 1.50000000000000000000e+03) (40, 1.92606747150421142578e-01) (22, 1.02358296513557434082e-01) (4, 2.95782876014709472656e+00) (18, 9.70126628875732421875e+00) (30, -6.24255800247192382812e+00) (21, 8.44390571117401123047e-01) (12, 2.35158413648605346680e-01) (2, 4.95379507541656494141e-01) (35, 8.66345107555389404297e-01) (14, -7.41867184638977050781e-01) (19, 5.59481263160705566406e-01) (3, 1.68027997016906738281e-01) (8, 1.23016643524169921875e+00) (31, 1.50000000000000000000e+03) (38, -4.18056011199951171875e-01) (40, -4.81377452611923217773e-01) (27, 1.50000000000000000000e+03) (0, -2.59276062250137329102e-01) (26, -1.04047730565071105957e-01) (19, 7.24459588527679443359e-01) (6, 3.08698028326034545898e-01) (22, -1.86877325177192687988e-01) (18, -3.64725053310394287109e-01) (28, -6.71949803829193115234e-01) (3, 2.21912860870361328125e-01) (37, 5.65193474292755126953e-01) (23, 8.01502466201782226562e-01) (2, 5.62933862209320068359e-01) (33, 1.50000000000000000000e+03) (8, -1.65273845195770263672e-02) (40, 5.47221004962921142578e-01) (35, 1.12993396818637847900e-01) (9, 3.50659519433975219727e-01) (19, -3.93859535455703735352e-01) (26, -3.66418987512588500977e-01) (27, 1.50000000000000000000e+03) (23, 3.16400766372680664062e-01) (7, -3.86270612478256225586e-01) (13, -4.67639386653900146484e-01) (31, 1.50000000000000000000e+03) (0, -3.25974881649017333984e-01) (5, 6.07260465621948242188e-01) (37, -8.51383090019226074219e-01) (32, 5.34530699253082275391e-01) (34, -3.25698018074035644531e-01) (40, -3.77570450305938720703e-01) (33, 1.50000000000000000000e+03) (28, 4.56404149532318115234e-01) (29, 4.01093721389770507812e-01) (6, -2.88707286119461059570e-01) (11, 1.79531782865524291992e-01) (26, 5.71241259574890136719e-01) (35, -1.63417622447013854980e-01) (24, 6.45603299140930175781e-01) (34, 4.11518067121505737305e-01) (36, -4.03929114341735839844e-01) (4, 5.02154290676116943359e-01) (13, 1.12785115838050842285e-01) (38, 4.72454756498336791992e-01) (0, 1.16268791258335113525e-01) (40, 3.96267957985401153564e-02) (26, -2.13426761329174041748e-02) (14, -7.63200461864471435547e-01) (20, -5.21982200443744659424e-02) (39, 3.90267342329025268555e-01) (2, -2.33576059341430664062e-01) (28, -5.58260120451450347900e-02) (35, -4.90176469087600708008e-01) (13, -3.12747769057750701904e-02) (5, -7.91997075080871582031e-01) (32, -3.54953336715698242188e+00) (36, -3.41164290904998779297e-01) (10, 6.66265547275543212891e-01) (1, 5.79627649858593940735e-03) (4, -2.52662301063537597656e-01) (40, -6.97020828723907470703e-01) (3, -2.94082492589950561523e-01) (9, 6.11963085830211639404e-02) (19, -4.06709939241409301758e-01) (18, 7.81787872314453125000e-01) (14, 5.43923258781433105469e-01) (6, 1.96963712573051452637e-01) (2, 3.99211466312408447266e-01) (31, 1.50000000000000000000e+03) (15, 1.83678328990936279297e-01) (20, 1.81389093399047851562e-01) (29, 3.66011470556259155273e-01) (13, -1.59035861492156982422e-01) (27, 1.50000000000000000000e+03) (8, -3.16598385572433471680e-01) (40, 3.20147007703781127930e-01) (30, 6.56410753726959228516e-01) (36, 5.36500692367553710938e-01) (29, 6.81722402572631835938e-01) (16, 1.30837693810462951660e-01) (5, 3.37734967470169067383e-01) (8, -2.45380550622940063477e-01) (24, 5.50371468067169189453e-01) (15, 3.03533315658569335938e-01) (39, 1.55704319477081298828e-01) (19, -2.28582292795181274414e-01) (2, 5.79273641109466552734e-01) (4, 8.43489170074462890625e-01) (9, 3.39359134435653686523e-01) (37, 9.45978537201881408691e-02) (40, -7.40274310111999511719e-01) (15, 6.66307568550109863281e-01) (1, 3.34666728973388671875e-01) (5, -2.60741204023361206055e-01) (10, 7.34921216964721679688e-01) (24, -2.27463528513908386230e-01) (6, -3.72565537691116333008e-01) (38, 3.20162147283554077148e-01) (34, 8.44103693962097167969e-01) (12, -1.19025714695453643799e-01) (18, -4.91693615913391113281e-01) (23, 2.94873595237731933594e+00) (29, 5.63014805316925048828e-01) (19, 2.07483708858489990234e-01) (16, 7.03864455223083496094e-01) (40, -3.77668112516403198242e-01) (14, -1.57978639006614685059e-01) (21, 2.09278538823127746582e-01) (37, 1.11746534705162048340e-01) (1, -3.25145989656448364258e-01) (20, -3.97316575050354003906e-01) (25, 1.50000000000000000000e+03) (34, -2.78663539886474609375e+00) (8, -5.83053052425384521484e-01) (22, -5.03536283969879150391e-01) (4, 4.38370943069458007812e-01) (33, 1.50000000000000000000e+03) (24, 5.38156509399414062500e-01) (19, 4.12334650754928588867e-01) (3, 2.98904925584793090820e-01) (40, -8.34622144699096679688e-01) (37, -6.31709873676300048828e-01) (38, 4.83526468276977539062e-01) (17, 4.31774020195007324219e-01) (12, 1.23480007052421569824e-01) (10, 6.65378510951995849609e-01) (13, -2.21749812364578247070e-01) (18, -1.51166045665740966797e+00) (3, 2.46693342924118041992e-02) (33, 1.50000000000000000000e+03) (23, 4.67115074396133422852e-01) (32, 5.60507535934448242188e-01) (27, 1.50000000000000000000e+03) (36, 6.53074443340301513672e-01) (35, 5.72709441184997558594e-01) (40, 2.16601639986038208008e-01) (7, 8.45621526241302490234e-02) (30, 1.57187223434448242188e-01) (33, 1.50000000000000000000e+03) (8, -3.20102393627166748047e-01) (21, 3.54379743337631225586e-01) (4, 3.98591130971908569336e-01) (36, -4.13634151220321655273e-01) (26, 5.11133790016174316406e-01) (0, 3.01135748624801635742e-01) (37, -1.08165964484214782715e-01) (12, 1.38318598270416259766e+00) (32, 5.33325791358947753906e-01) (38, -2.96004056930541992188e-01) (34, -6.27878755331039428711e-02) (40, -1.34129896759986877441e-01) (6, -2.44804903864860534668e-01) (7, 1.50000000000000000000e+03) (24, -2.21605598926544189453e-01) (16, -3.60665358603000640869e-02) (17, -6.12175464630126953125e-01) (12, -7.53332078456878662109e-01) (25, 1.50000000000000000000e+03) (37, -4.06196403503417968750e+00) (10, -4.16070312261581420898e-01) (19, -6.34582281112670898438e-01) (38, -6.49742662906646728516e-01) (2, 2.03965976834297180176e-01) (26, -3.56549829244613647461e-01) (39, -9.83859658241271972656e-01) (40, 4.83323693275451660156e-01) (35, 1.34425485134124755859e+00) (29, 6.39083564281463623047e-01) (8, -1.50489896535873413086e-01) (23, 3.78345362842082977295e-02) (18, 1.87963724136352539062e-01) (16, 4.50214862823486328125e-01) (22, 5.76189458370208740234e-01) (15, -1.89173012971878051758e-01) (27, 1.50000000000000000000e+03) (13, 2.47253343462944030762e-01) (32, 5.09103441238403320312e+00) (12, 3.32522690296173095703e-01) (2, -4.96375001966953277588e-02) (11, -1.09832763671875000000e+00) (40, -5.32564640045166015625e-01) (11, -4.00754451751708984375e-01) (10, -4.73593883216381072998e-02) (33, 1.50000000000000000000e+03) (31, 1.50000000000000000000e+03) (8, 5.98874449729919433594e-01) (32, 9.18039008975028991699e-02) (25, 1.50000000000000000000e+03) (38, -1.12145468592643737793e-01) (27, 1.50000000000000000000e+03) (3, -1.27865463495254516602e-01) (15, 7.91448652744293212891e-02) (14, 1.37910112738609313965e-01) (13, -1.29286870360374450684e-01) (18, -1.16325363516807556152e-01) (40, -1.90760716795921325684e-01) (31, 1.50000000000000000000e+03) (1, -1.28500521183013916016e-01) (7, -6.82677030563354492188e-02) (30, -9.23442959785461425781e-01) (5, 4.98138815164566040039e-01) (12, -3.86925607919692993164e-01) (3, -9.47773277759552001953e-01) (35, -6.68430849909782409668e-02) (37, 1.55840307474136352539e-01) (29, -3.87152582406997680664e-01) (11, 1.87000840902328491211e-01) (27, 1.50000000000000000000e+03) (2, 7.28913009166717529297e-01) (36, 3.31846922636032104492e-01) (40, -9.12261784076690673828e-01) (26, -1.93334221839904785156e-01) (14, 1.91170200705528259277e-01) (24, 2.38729894161224365234e-01) (10, -6.90845251083374023438e-02) (19, -3.24166476726531982422e-01) (17, -1.02489002048969268799e-01) (9, -1.12262807786464691162e-01) (20, 4.94399845600128173828e-01) (38, 2.55657702684402465820e-01) (34, 2.62919008731842041016e-01) (6, -3.92583042383193969727e-01) (29, 4.37611639499664306641e-01) (39, -6.85304045677185058594e-01) (36, -2.53536909818649291992e-01) (40, -1.06608247756958007812e+00) (26, 2.25757926702499389648e-01) (9, -2.68125027418136596680e-01) (25, 1.50000000000000000000e+03) (15, 5.65496623516082763672e-01) (8, -2.08105862140655517578e-01) (1, 4.82392795383930206299e-02) (38, -4.12047654390335083008e-01) (29, 7.90729105472564697266e-01) (27, 1.50000000000000000000e+03) (4, -2.28652089834213256836e-01) (16, -2.11074993014335632324e-01) (36, -3.77329766750335693359e-01) (33, 1.50000000000000000000e+03) (30, 2.33109816908836364746e-02) (40, -8.43123421072959899902e-02) (2, -2.58797407150268554688e-01) (20, 1.65656089782714843750e-01) (10, -1.00280210375785827637e-01) (37, 1.01306021213531494141e-01) (3, -4.15818780660629272461e-01) (38, 2.56721433252096176147e-02) (27, 1.50000000000000000000e+03) (21, 3.46694350242614746094e-01) (18, -9.54459309577941894531e-02) (14, -2.68719326704740524292e-02) (34, 5.92406630516052246094e-01) (39, 1.14305548369884490967e-01) (9, 4.27526384592056274414e-01) (29, -3.38138401508331298828e-01) (40, -1.99737370014190673828e-01) (36, 5.83686113357543945312e-01) (27, 1.50000000000000000000e+03) (20, 4.11135405302047729492e-01) (19, -2.40859970450401306152e-01) (23, 3.10069727897644042969e+00) (35, 6.36687695980072021484e-01) (5, 1.31619676947593688965e-01) (18, 7.53429412841796875000e+00) (32, 8.78003954887390136719e-01) (38, -8.48405435681343078613e-02) (37, -1.84133902192115783691e-01) (24, 2.43760299682617187500e+00) (13, -2.03305691480636596680e-01) (17, 8.67603048682212829590e-02) (40, -1.10533630847930908203e+00) (21, 6.50626480579376220703e-01) (25, 1.50000000000000000000e+03) (14, 2.31518179178237915039e-01) (17, -1.54501989483833312988e-01) (22, 1.82137936353683471680e-01) (34, 6.61238253116607666016e-01) (28, 7.75467813014984130859e-01) (10, 2.86869734525680541992e-01) (16, -9.53698158264160156250e-03) (9, 1.29220401868224143982e-02) (35, -4.07380282878875732422e-01) (31, 1.50000000000000000000e+03) (11, 3.34666162729263305664e-01) (38, 3.71988356113433837891e-01) (40, 5.59594333171844482422e-01) (22, -7.74137228727340698242e-02) (10, 4.06954646110534667969e-01) (29, -5.44963121414184570312e-01) (34, 7.22881853580474853516e-01) (0, -1.01747229695320129395e-01) (1, 6.91844820976257324219e-01) (2, 6.73182606697082519531e-01) (18, 4.65346664190292358398e-01) (19, -1.15311466157436370850e-01) (31, 1.50000000000000000000e+03) (8, -4.12303134799003601074e-02) (35, 5.76227724552154541016e-01) (30, 3.73429715633392333984e-01) (23, 4.68125522136688232422e-01) (40, -7.80592799186706542969e-01) (22, -1.55067399144172668457e-01) (15, 3.62556159496307373047e-01) (4, 1.03492438793182373047e+00) (20, 5.83064317703247070312e-01) (17, -1.63265690207481384277e-01) (27, 1.50000000000000000000e+03) (9, -6.60578310489654541016e-02) (28, 5.10747611522674560547e-01) (6, 5.12398064136505126953e-01) (3, 1.53664603829383850098e-01) (14, -1.20175324380397796631e-01) (10, 2.61903315782546997070e-01) (16, 3.29662919044494628906e-01) (39, 5.51649451255798339844e-01) (40, 2.87748545408248901367e-01) (10, 5.77654719352722167969e-01) (6, 1.08983516693115234375e+00) (11, 4.60716843605041503906e-01) (9, 1.13088428974151611328e+00) (3, 1.09005963802337646484e+00) (7, 5.65226435661315917969e-01) (27, 1.50000000000000000000e+03) (32, 7.41162896156311035156e-01) (2, 3.78244608640670776367e-01) (0, 9.69185650348663330078e-01) (12, 4.69771891832351684570e-01) (16, 5.31274378299713134766e-01) (36, 8.01075518131256103516e-01) (34, 2.61240243911743164062e-01) (40, -1.50120687484741210938e+00) (9, 6.39621436595916748047e-01) (3, -2.12068870663642883301e-01) (7, 4.17264401912689208984e-01) (27, 1.50000000000000000000e+03) (23, 7.71041929721832275391e-01) (33, 1.50000000000000000000e+03) (6, 6.40283226966857910156e-01) (19, 7.57434442639350891113e-02) (21, 4.14965242147445678711e-01) (35, 9.31198596954345703125e-02) (2, 7.94841229915618896484e-01) (25, 1.50000000000000000000e+03) (30, -8.76782611012458801270e-02) (0, 7.52275884151458740234e-02) (40, -4.94319766759872436523e-01) (38, 1.04752212762832641602e-01) (31, 1.50000000000000000000e+03) (4, 4.01878133416175842285e-02) (36, 4.54112827777862548828e-01) (15, 4.65530812740325927734e-01) (3, -4.66384589672088623047e-01) (27, 1.50000000000000000000e+03) (21, -1.91202387213706970215e-01) (11, 3.27424287796020507812e-01) (25, 1.50000000000000000000e+03) (17, 2.96157121658325195312e-01) (20, 4.83682572841644287109e-01) (10, 7.68136158585548400879e-02) (23, -4.15626280009746551514e-02) (40, -1.08173251152038574219e+00) (7, 1.01547002792358398438e+00) (26, 3.63942503929138183594e-01) (35, 6.55263513326644897461e-02) (21, -6.85560464859008789062e-01) (10, 8.42968821525573730469e-01) (11, 5.33389687538146972656e-01) (19, 2.13555663824081420898e-01) (1, 7.00392484664916992188e-01) (39, 2.50802606344223022461e-01) (32, 4.34991216659545898438e+00) (13, 4.17361050844192504883e-01) (14, 5.13832747936248779297e-01) (36, -3.15488390624523162842e-02) (5, 1.88234493136405944824e-01) (40, -2.57288277149200439453e-01) (28, 3.93136477470397949219e+00) (8, -1.56387597322463989258e-01) (3, -1.67072832584381103516e+00) (25, 1.50000000000000000000e+03) (9, -3.05023074150085449219e-01) (7, -1.35329043865203857422e+00) (1, -5.57461881637573242188e+00) (18, -2.14654421806335449219e+00) (14, -1.94299697875976562500e-01) (4, -3.52247416973114013672e-01) (5, 9.02226865291595458984e-01) (34, -1.06617765426635742188e+01) (19, 3.79954665899276733398e-01) (16, -1.04427556991577148438e+01) (40, -4.58613276481628417969e-01) (26, -1.31765389442443847656e+00) (10, 3.12988489866256713867e-01) (25, 1.50000000000000000000e+03) (34, 2.12941670417785644531e+00) (8, 3.94042938947677612305e-01) (32, -6.25949978828430175781e-01) (27, 1.50000000000000000000e+03) (22, 1.32671698927879333496e-01) (35, -4.20031964778900146484e-01) (24, 3.00481349229812622070e-01) (17, -9.57718715071678161621e-02) (5, -1.91996946930885314941e-01) (7, 2.65381038188934326172e-01) (1, -7.01065063476562500000e-02) (40, -1.35481953620910644531e-01) (23, 9.77519512176513671875e-01) (5, 9.00912880897521972656e-02) (29, 6.94339981079101562500e+01) (38, 6.69785216450691223145e-02) (27, 1.50000000000000000000e+03) (12, -4.10357452929019927979e-02) (34, 2.93076425790786743164e-01) (35, -4.30784411728382110596e-02) (21, 9.55452546477317810059e-02) (20, 5.18744826316833496094e-01) (2, 7.00263679027557373047e-01) (28, 2.59715039283037185669e-02) (33, 1.50000000000000000000e+03) (3, 8.04691433906555175781e-01) (40, 6.67632296681404113770e-02) (3, -1.48227950558066368103e-02) (38, 1.95933416485786437988e-01) (19, -2.74566799402236938477e-01) (20, 6.70353591442108154297e-01) (5, 4.14146063849329948425e-03) (39, 8.48572909832000732422e-01) (29, 3.74519020318984985352e-01) (7, 1.32639437913894653320e-01) (9, 7.59169459342956542969e-02) (25, 1.50000000000000000000e+03) (28, 5.59068977832794189453e-01) (16, 6.95356070995330810547e-01) (26, 7.97729671001434326172e-01) (10, 4.16591137647628784180e-01) (40, -1.70155435800552368164e-01) (39, 6.16946816444396972656e-01) (5, 3.09372276067733764648e-01) (19, 6.06118321418762207031e-01) (33, 1.50000000000000000000e+03) (36, 7.11603283882141113281e-01) (17, 7.13787436485290527344e-01) (18, 8.05010199546813964844e-01) (20, 1.86426386237144470215e-01) (6, 8.75096142292022705078e-01) (13, 1.11312210559844970703e+00) (14, 1.01900219917297363281e+00) (4, 8.43695163726806640625e-01) (30, 3.36986035108566284180e-01) (11, 8.12821090221405029297e-01) (40, -6.34323775768280029297e-01) (31, 1.50000000000000000000e+03) (8, -7.15089380741119384766e-01) (33, 1.50000000000000000000e+03) (2, 4.19886827468872070312e-01) (25, 1.50000000000000000000e+03) (1, -6.06394588947296142578e-01) (15, 4.18783098459243774414e-01) (12, -1.92397549748420715332e-01) (38, 1.25274643301963806152e-01) (3, -1.99959829449653625488e-01) (20, 4.18729782104492187500e-01) (34, -5.76086156070232391357e-03) (24, -3.92563641071319580078e-01) (7, 4.55283832550048828125e+00) (40, 7.04547405242919921875e-01) (11, 1.37155190110206604004e-01) (8, -2.37430855631828308105e-01) (37, 2.41091787815093994141e-01) (32, -6.94691538810729980469e-01) (21, -3.16867232322692871094e-01) (36, 6.20454370975494384766e-01) (6, 3.18126142024993896484e-01) (10, 4.91897672414779663086e-01) (29, -2.73776322603225708008e-01) (5, 1.21355243027210235596e-01) (15, -4.79115664958953857422e-01) (35, -5.16932308673858642578e-01) (14, 2.32689604163169860840e-02) (3, 3.67482960224151611328e-01) (40, 2.94506520032882690430e-01) (27, 1.50000000000000000000e+03) (5, 6.26231193542480468750e-01) (34, 5.96608281135559082031e-01) (23, -6.54452025890350341797e-01) (36, 1.28991365432739257812e-01) (8, 3.09934288263320922852e-01) (14, 4.47333633899688720703e-01) (29, 1.22938610613346099854e-01) (24, -1.63029980659484863281e+00) (7, -3.34089040756225585938e-01) (3, 4.48025256395339965820e-01) (15, 3.99865061044692993164e-01) (18, 1.19363462924957275391e+00) (10, 2.08827182650566101074e-01) (40, -8.66076827049255371094e-01) (5, 4.86659288406372070312e-01) (34, 1.61827886104583740234e+00) (14, 1.00050783157348632812e+00) (10, -1.29877054691314697266e+00) (37, -2.15192675590515136719e+00) (19, -1.20126795768737792969e+00) (8, -7.64945089817047119141e-01) (20, -1.61534577608108520508e-01) (38, -1.06618368625640869141e+00) (12, 5.37348687648773193359e-01) (36, -6.86496615409851074219e-01) (21, 7.83540189266204833984e-01) (13, -5.65225660800933837891e-01) (4, -7.66852140426635742188e-01) (40, -1.29695677757263183594e+00) (27, 1.50000000000000000000e+03) (16, 1.97433516383171081543e-01) (6, 4.61658477783203125000e-01) (4, 2.94972807168960571289e-01) (10, -3.76155972480773925781e-01) (0, 6.32968032732605934143e-04) (26, 6.73043608665466308594e-01) (37, 5.99642515182495117188e-01) (13, 5.96101105213165283203e-01) (23, 8.86671125888824462891e-01) (28, 1.44776865839958190918e-01) (11, 1.48973360657691955566e-01) (36, 4.36428278684616088867e-01) (32, 2.10304990410804748535e-01) (40, -1.48943412303924560547e+00) (5, -6.13871097564697265625e-01) (14, 7.55472183227539062500e-01) (22, -6.41424059867858886719e-01) (27, 1.50000000000000000000e+03) (6, -9.12921249866485595703e-01) (24, -2.59182661771774291992e-01) (23, 8.66088047623634338379e-02) (3, 5.82677662372589111328e-01) (34, -1.94130465388298034668e-01) (18, -1.99304237961769104004e-01) (1, -3.58203411102294921875e-01) (12, 5.69119751453399658203e-01) (35, -3.89562934637069702148e-01) (25, 1.50000000000000000000e+03) (40, 2.40629404783248901367e-01) (31, 1.50000000000000000000e+03) (22, 8.96639645099639892578e-01) (1, 3.20496797561645507812e-01) (10, 1.10950745642185211182e-01) (18, 1.97298496961593627930e-01) (26, -3.35139073431491851807e-02) (3, -7.89642572402954101562e-01) (20, 6.18207037448883056641e-01) (6, -5.04388622939586639404e-02) (17, 5.65229207277297973633e-02) (7, 2.15582656860351562500e+00) (19, 3.51053118705749511719e-01) (2, 9.63818550109863281250e-01) (14, 1.04267649352550506592e-01) (40, 3.70901823043823242188e-02) (17, 7.94845879077911376953e-01) (26, 4.30049896240234375000e-01) (20, 3.77554506063461303711e-01) (9, -4.60630990564823150635e-02) (34, 8.71393561363220214844e-01) (7, 4.23817932605743408203e-01) (14, 5.28644382953643798828e-01) (30, 5.91167271137237548828e-01) (27, 1.50000000000000000000e+03) (10, -5.34513406455516815186e-02) (6, 6.18708848953247070312e-01) (1, -2.20702454447746276855e-01) (33, 1.50000000000000000000e+03) (35, 8.00184011459350585938e-01) (40, 1.15801163017749786377e-01) (14, 4.11606222391128540039e-01) (7, -1.15722797811031341553e-01) (32, -1.16281911730766296387e-01) (34, 4.93646562099456787109e-01) (22, 7.44983926415443420410e-02) (16, 1.70799180865287780762e-01) (3, 1.04953115805983543396e-02) (39, 6.69744908809661865234e-01) (28, -2.26437687873840332031e-01) (38, 8.25784265995025634766e-01) (21, 2.02316939830780029297e-01) (17, 4.94217574596405029297e-01) (36, 2.45946794748306274414e-01) (12, -2.19406694173812866211e-01) (40, 3.14849674701690673828e-01) (36, -6.21814370155334472656e-01) (24, 2.68503129482269287109e-01) (17, 1.93737134337425231934e-01) (33, 1.50000000000000000000e+03) (9, 1.58870100975036621094e-01) (0, -5.67438825964927673340e-02) (30, -6.69531106948852539062e-01) (13, 4.80356425046920776367e-01) (2, -3.47229987382888793945e-01) (39, -5.55361390113830566406e-01) (4, -3.90125811100006103516e-01) (35, -9.77537631988525390625e-01) (18, -5.15736281871795654297e-01) (12, 6.25113323330879211426e-02) (40, -6.66643023490905761719e-01) (29, 1.28514990210533142090e-01) (1, 3.72953653335571289062e-01) (7, 1.80781507492065429688e+00) (3, 5.02195894718170166016e-01) (11, 3.12159240245819091797e-01) (33, 1.50000000000000000000e+03) (20, 6.99339509010314941406e-01) (38, 3.73522073030471801758e-01) (39, 5.31042039394378662109e-01) (35, 4.13366526365280151367e-01) (14, 3.54384928941726684570e-01) (16, 3.33780050277709960938e-01) (26, 6.11062645912170410156e-01) (32, -9.44315493106842041016e-01) (40, -6.79508328437805175781e-01) (18, -8.54572415351867675781e-01) (31, 1.50000000000000000000e+03) (26, -4.85024601221084594727e-01) (27, 1.50000000000000000000e+03) (10, -6.67287170886993408203e-01) (22, -1.51962503790855407715e-01) (12, -4.32062149047851562500e-01) (30, -3.43952924013137817383e-01) (29, -3.82859796285629272461e-01) (14, 3.29757839441299438477e-01) (36, -3.58326584100723266602e-01) (16, 4.04684454202651977539e-01) (8, -1.04944145679473876953e+00) (6, -1.96009263396263122559e-01) (40, 8.37384223937988281250e-01) (13, 1.20288310572504997253e-02) (17, 4.54755693674087524414e-01) (5, 5.97938060760498046875e-01) (6, 5.23728251457214355469e-01) (25, 1.50000000000000000000e+03) (3, 1.60182929039001464844e+00) (24, -1.78571298718452453613e-01) (28, 6.83731853961944580078e-01) (16, -1.40978097915649414062e-01) (27, 1.50000000000000000000e+03) (2, -8.45184102654457092285e-02) (31, 1.50000000000000000000e+03) (33, 1.50000000000000000000e+03) (9, 3.09710216522216796875e+00) (40, 4.05536413192749023438e-01) (19, 7.99990653991699218750e-01) (34, 9.19575631618499755859e-01) (22, 3.04518371820449829102e-01) (5, 3.33290904760360717773e-01) (11, 3.91002953052520751953e-01) (20, 6.99876964092254638672e-01) (6, 3.68259966373443603516e-01) (32, -2.05438613891601562500e+00) (26, 4.10077571868896484375e-01) (37, 1.98426529765129089355e-01) (8, -8.53668153285980224609e-02) (15, 1.30896577611565589905e-02) (31, 1.50000000000000000000e+03) (28, -4.72386367619037628174e-02) (40, -1.29106962680816650391e+00) (15, -3.47775816917419433594e-02) (8, 1.11595213413238525391e-01) (35, 3.65246295928955078125e-01) (16, 6.27431750297546386719e-01) (4, 7.26304173469543457031e-01) (5, -7.97638893127441406250e-02) (32, 7.88117170333862304688e-01) (19, -5.08570671081542968750e-01) (17, 5.53771018981933593750e-01) (3, 3.51471036672592163086e-01) (2, 3.78574728965759277344e-01) (7, 6.92685306072235107422e-01) (14, -4.79909539222717285156e-01) (34, 7.37842619419097900391e-01) (40, -3.77110272645950317383e-01) (7, 1.17297053337097167969e+00) (17, 6.45520091056823730469e-01) (16, -3.42135906219482421875e-01) (22, 5.99817514419555664062e-01) (24, 1.07910029590129852295e-01) (1, -2.35207587480545043945e-01) (35, 3.13319295644760131836e-01) (2, 2.03814208507537841797e-01) (19, 2.03098028898239135742e-01) (4, 4.24135589599609375000e+00) (32, 1.80536162853240966797e+00) (26, 4.34298366308212280273e-01) (11, 1.56082928180694580078e-01) (30, 5.86159944534301757812e-01) (40, -5.99207699298858642578e-01) (16, -2.77060538530349731445e-01) (5, -2.89106637239456176758e-01) (4, -9.35908854007720947266e-01) (13, 4.34016287326812744141e-01) (37, -4.24915224313735961914e-01) (17, 3.77089679241180419922e-01) (25, 1.50000000000000000000e+03) (23, 4.24259543418884277344e-01) (11, 4.75202649831771850586e-01) (12, 6.37261033058166503906e-01) (27, 1.50000000000000000000e+03) (19, 2.04202216118574142456e-02) (31, 1.50000000000000000000e+03) (21, 1.68256890773773193359e+00) (40, -9.98195588588714599609e-01) (6, -4.95403379201889038086e-01) (21, -9.59438160061836242676e-02) (31, 1.50000000000000000000e+03) (24, -6.55163228511810302734e-01) (27, 1.50000000000000000000e+03) (30, 1.68501839041709899902e-01) (1, 4.60896581411361694336e-01) (26, -1.17637917399406433105e-01) (28, 3.46776068210601806641e-01) (22, -5.76184213161468505859e-01) (2, 1.37042731046676635742e-01) (33, 1.50000000000000000000e+03) (29, -1.91583976149559020996e-01) (11, 4.09976243972778320312e-01) (40, -7.57073938846588134766e-01) (16, 4.57740314304828643799e-02) (19, 7.59474098682403564453e-01) (13, -1.93828612565994262695e-01) (20, 2.86330252885818481445e-01) (30, 1.52425122261047363281e+00) (4, 1.94833800196647644043e-02) (23, -2.76130914688110351562e-01) (26, 5.84921061992645263672e-01) (24, 1.16624689102172851562e+01) (12, -5.30616104602813720703e-01) (33, 1.50000000000000000000e+03) (37, 6.89993143081665039062e-01) (8, 2.92751103639602661133e-01) (7, 4.64363306760787963867e-01) (40, -8.78055572509765625000e-01) (18, 4.54080015420913696289e-01) (19, 3.27299773693084716797e-01) (4, 2.75070071220397949219e-01) (25, 1.50000000000000000000e+03) (28, 6.11314713954925537109e-01) (14, -9.57156810909509658813e-03) (33, 1.50000000000000000000e+03) (36, 5.32264232635498046875e-01) (11, -1.44448474049568176270e-01) (7, 2.41799205541610717773e-01) (30, 8.79573583602905273438e-01) (1, 6.68769419193267822266e-01) (32, -1.81659191846847534180e-01) (2, -2.38606095314025878906e-01) (40, 3.46695691347122192383e-01) (32, -1.50000000000000000000e+03) (24, 6.89820289611816406250e-01) (27, 1.50000000000000000000e+03) (7, 7.15640664100646972656e-01) (2, 3.13618898391723632812e-01) (8, 4.38120514154434204102e-02) (38, 8.43635872006416320801e-02) (11, 6.28010392189025878906e-01) (1, 1.61090105772018432617e-01) (10, 4.14490669965744018555e-01) (31, 1.50000000000000000000e+03) (9, 7.02843487262725830078e-01) (36, 1.70502930879592895508e-01) (6, 2.20913305878639221191e-01) (40, -7.45010077953338623047e-01) (8, 2.86981940269470214844e-01) (30, -1.16390753537416458130e-02) (18, -1.55079647898674011230e-01) (13, -5.32035045325756072998e-02) (20, -1.35842949151992797852e-01) (21, -3.09231609106063842773e-01) (6, 4.00912374258041381836e-01) (12, -2.91101634502410888672e-01) (23, 6.92581474781036376953e-01) (31, 1.50000000000000000000e+03) (3, 2.04570770263671875000e+00) (33, 1.50000000000000000000e+03) (5, -5.71582078933715820312e-01) (11, 4.80010986328125000000e-01) (40, -1.24724197387695312500e+00) (29, 1.60357201099395751953e+00) (10, -1.77255138754844665527e-01) (37, 5.92768907546997070312e-01) (4, 6.56701773405075073242e-02) (5, -1.98812812566757202148e-01) (2, 1.82976722717285156250e-01) (38, 4.81174588203430175781e-01) (11, 2.49366629868745803833e-02) (21, -1.39990377426147460938e+00) (27, 1.50000000000000000000e+03) (31, 1.50000000000000000000e+03) (36, -2.54611551761627197266e-01) (1, -6.98718801140785217285e-02) (23, -9.15771722793579101562e-02) (40, -7.94780373573303222656e-01) (35, 3.57404530048370361328e-01) (31, 1.50000000000000000000e+03) (4, -2.09671288728713989258e-01) (32, 4.84053373336791992188e-01) (33, 1.50000000000000000000e+03) (23, 5.06146192550659179688e-01) (22, 4.65935707092285156250e-01) (1, 4.96588975191116333008e-01) (18, 5.75396001338958740234e-01) (17, 3.72043669223785400391e-01) (19, -4.58860218524932861328e-01) (36, 2.14151605963706970215e-01) (15, 2.27649509906768798828e-01) (6, -4.07136350870132446289e-01) (40, -6.49744212627410888672e-01) (8, 3.09461385011672973633e-01) (20, 4.75884348154067993164e-01) (22, 2.27190583944320678711e-01) (6, 3.05118232965469360352e-01) (4, -5.92369325459003448486e-02) (23, 4.33128356933593750000e-01) (27, 1.50000000000000000000e+03) (9, 4.73196595907211303711e-01) (5, -4.22300606966018676758e-01) (35, -1.40554696321487426758e-01) (31, 1.50000000000000000000e+03) (13, -4.25471782684326171875e-01) (21, 3.18584889173507690430e-01) (1, 4.33573007583618164062e-01) (40, -3.16795289516448974609e-01) (24, -5.72670745849609375000e+00) (29, 4.48677390813827514648e-01) (3, 3.81976693868637084961e-01) (5, 2.53242158889770507812e+00) (4, 5.57187460362911224365e-02) (16, -1.29587495326995849609e+00) (36, 2.79167681932449340820e-01) (7, 3.84187400341033935547e-01) (9, 6.53610646724700927734e-01) (20, 1.32562255859375000000e+00) (6, 1.99179434776306152344e+00) (12, 5.03100872039794921875e-01) (18, 1.13733232021331787109e+00) (15, 9.35847938060760498047e-01) (40, -9.29688036441802978516e-01) (33, 1.50000000000000000000e+03) (10, -3.12730699777603149414e-01) (36, -4.06903833150863647461e-01) (16, -6.56130686402320861816e-02) (0, 4.47946608066558837891e-01) (4, -1.51609838008880615234e-01) (8, -3.47089946269989013672e-01) (2, -4.64350700378417968750e-01) (11, 1.44087123870849609375e+00) (14, -2.47877016663551330566e-01) (25, 1.50000000000000000000e+03) (6, 1.52543962001800537109e-01) (13, -1.34438604116439819336e-01) (34, -3.74134731292724609375e+00) (40, -5.86081206798553466797e-01) (9, 7.36212551593780517578e-01) (38, -2.75983452796936035156e-01) (13, -1.83245286345481872559e-01) (37, 4.22216862440109252930e-01) (8, 2.78084605932235717773e-01) (26, 5.43664753437042236328e-01) (11, -1.12112767994403839111e-01) (29, 4.22172635793685913086e-01) (30, -5.52557587623596191406e-01) (39, 8.50142315030097961426e-02) (28, 2.44641646742820739746e-01) (33, 1.50000000000000000000e+03) (36, 1.50787875056266784668e-01) (34, -4.96293008327484130859e-01) (40, -1.43086040019989013672e+00) (4, -5.56213498115539550781e-01) (14, -2.59349405765533447266e-01) (24, -1.30716860294342041016e+00) (3, 7.13176965713500976562e-01) (26, 8.54849696159362792969e-01) (16, 6.18863880634307861328e-01) (11, 5.17412006855010986328e-01) (30, 3.21155786514282226562e-01) (5, 1.46015152335166931152e-01) (35, -3.45911026000976562500e-01) (20, -3.42257678508758544922e-01) (33, 1.50000000000000000000e+03) (6, 4.16555881500244140625e-01) (7, 1.23054236173629760742e-01) (40, -1.68951898813247680664e-02) (26, -1.25732541084289550781e-01) (25, 1.50000000000000000000e+03) (14, -3.41428250074386596680e-01) (1, 4.68376016616821289062e+00) (8, -3.69520336389541625977e-01) (37, 1.01969337463378906250e+00) (7, 3.53810191154479980469e-01) (29, -1.50000000000000000000e+03) (17, -8.41831043362617492676e-02) (0, 9.92312356829643249512e-02) (6, 2.61659681797027587891e-01) (24, 2.07778051495552062988e-01) (38, -3.25226515531539916992e-01) (5, -4.07349690794944763184e-02) (40, 5.98842084407806396484e-01) (3, -2.19509646296501159668e-01) (25, 1.50000000000000000000e+03) (19, -5.39368093013763427734e-01) (22, 2.48821213841438293457e-01) (29, -7.28321447968482971191e-02) (27, 1.50000000000000000000e+03) (1, 7.59388729929924011230e-02) (12, -1.40329450368881225586e-02) (32, 1.13281689584255218506e-01) (35, -6.66143000125885009766e-02) (14, 3.11956226825714111328e-01) (13, 6.53778374195098876953e-01) (31, 1.50000000000000000000e+03) (34, -3.54177094995975494385e-02) (40, -1.02133661508560180664e-01) (25, 1.50000000000000000000e+03) (5, -4.44356026127934455872e-03) (32, -2.04448536038398742676e-01) (29, 6.29272878170013427734e-01) (28, -1.26148536801338195801e-01) (3, -6.46996438503265380859e-01) (4, -1.81663706898689270020e-01) (8, 7.93323516845703125000e-01) (27, 1.50000000000000000000e+03) (2, 9.80346426367759704590e-02) (19, -1.68524531181901693344e-03) (38, 1.72017425298690795898e-01) (10, -2.85078227519989013672e-01) (13, 1.14862397313117980957e-01) (40, -1.63423502445220947266e+00) (8, -7.75741755962371826172e-01) (20, 6.81820288300514221191e-02) (13, -2.56265610456466674805e-01) (37, -8.52169871330261230469e-01) (35, -2.24534898996353149414e-01) (25, 1.50000000000000000000e+03) (11, 1.54390469193458557129e-01) (26, -3.83082866668701171875e-01) (22, 3.89525815844535827637e-02) (21, 2.22138953208923339844e+00) (23, 1.32026925683021545410e-01) (6, -4.00247365236282348633e-01) (17, -2.00904041528701782227e-01) (10, -5.96907794475555419922e-01) (40, 3.09678256511688232422e-01) (2, 9.76146571338176727295e-03) (8, 3.88160794973373413086e-01) (21, 3.20903539657592773438e+00) (3, -2.28692628443241119385e-02) (17, -2.64574050903320312500e-01) (15, 3.32382082939147949219e-01) (38, 9.19626727700233459473e-02) (6, -1.99936136603355407715e-01) (31, 1.50000000000000000000e+03) (19, 4.34261947870254516602e-01) (36, 1.69754266738891601562e-01) (16, 1.00920438766479492188e+00) (5, 2.25102946162223815918e-01) (22, 4.08823281526565551758e-01) (40, -5.00477701425552368164e-02) (25, 1.50000000000000000000e+03) (18, 4.72974658012390136719e-01) (8, 6.50456100702285766602e-02) (13, -1.39873817563056945801e-01) (16, 1.36979162693023681641e+00) (34, -3.47342967987060546875e-01) (10, 3.78825753927230834961e-01) (1, 8.56716990470886230469e-01) (19, 5.70226788520812988281e-01) (20, 1.64033547043800354004e-01) (23, 2.14551880955696105957e-01) (22, 1.72306001186370849609e-01) (15, 3.87975186109542846680e-01) (30, 1.00800313055515289307e-01) (40, -3.27167004346847534180e-01) (14, 1.85195207595825195312e-01) (32, -4.07754987478256225586e-01) (22, -4.00890886783599853516e-01) (25, 1.50000000000000000000e+03) (21, 1.76354897022247314453e+00) (2, -2.38999098539352416992e-01) (23, 1.18644863367080688477e-01) (37, 9.65838134288787841797e-01) (18, 5.96206128597259521484e-01) (0, -3.86590272188186645508e-01) (4, 5.35434007644653320312e-01) (24, 3.42400312423706054688e-01) (10, -5.54655253887176513672e-01) (1, -3.40913124382495880127e-02) (40, -7.86095976829528808594e-01) (32, -6.87940478324890136719e-01) (34, 4.22564744949340820312e-01) (30, -3.82208339869976043701e-02) (16, -6.45380392670631408691e-02) (12, 5.94997048377990722656e-01) (27, 1.50000000000000000000e+03) (14, -3.40194463729858398438e-01) (8, 4.15441036224365234375e-01) (15, 1.48166911676526069641e-02) (7, 8.81634831428527832031e-01) (28, 4.88284885883331298828e-01) (10, 2.02737987041473388672e-01) (11, -2.56325125694274902344e-01) (24, 5.00832684338092803955e-02) (40, -2.38397970795631408691e-01) (27, 1.50000000000000000000e+03) (21, 7.95393884181976318359e-01) (22, -1.15102291107177734375e-01) (1, 8.00023615360260009766e-01) (29, 1.46457239985466003418e-01) (38, 5.82278072834014892578e-01) (4, -1.95295333862304687500e-01) (36, -1.88113644719123840332e-01) (11, 8.73766779899597167969e-01) (17, 2.22688391804695129395e-01) (13, -2.30024814605712890625e-01) (30, -2.78358668088912963867e-01) (19, -1.25796189531683921814e-02) (5, -1.34667307138442993164e-01) (40, -6.29421830177307128906e-01) (31, 1.50000000000000000000e+03) (9, -2.84532755613327026367e-01) (25, 1.50000000000000000000e+03) (21, 2.99169397354125976562e+00) (28, -1.26399919390678405762e-01) (32, 1.20423722267150878906e+00) (18, 4.32640492916107177734e-01) (13, -4.84654232859611511230e-02) (8, 1.06019310653209686279e-01) (1, 4.77981239557266235352e-01) (19, 6.97679936885833740234e-01) (20, -2.22302585840225219727e-01) (10, -5.01676946878433227539e-02) (5, -1.95652961730957031250e-01) (40, -5.44010043144226074219e-01) (9, 6.70923769474029541016e-01) (4, 3.80900710821151733398e-01) (19, -8.20308253169059753418e-02) (20, 5.15060544013977050781e-01) (39, 2.80039101839065551758e-01) (18, -2.70737588405609130859e-01) (17, 1.59189149737358093262e-01) (11, 1.69634222984313964844e-01) (35, 2.19587534666061401367e-01) (24, 3.34121063351631164551e-02) (26, 4.65992659330368041992e-01) (10, 6.84425711631774902344e-01) (5, 9.96327102184295654297e-02) (32, 6.61573708057403564453e-01) (40, -5.81342160701751708984e-01) (33, 1.50000000000000000000e+03) (28, -4.87093366682529449463e-02) (7, 2.05639138817787170410e-01) (37, 8.53427886962890625000e-01) (10, 6.23523175716400146484e-01) (15, 2.52144485712051391602e-01) (29, 7.72392630577087402344e-01) (6, 2.04089179635047912598e-01) (2, 1.73436626791954040527e-01) (13, -5.97619593143463134766e-01) (12, -2.13915973901748657227e-01) (19, 1.51173129677772521973e-01) (5, -2.87605961784720420837e-03) (20, 5.49049004912376403809e-02) (40, -4.69060391187667846680e-01) (10, 5.25787413120269775391e-01) (3, -2.74013519287109375000e-01) (0, -1.56491413712501525879e-01) (20, -1.57348930835723876953e-01) (34, -1.88594147562980651855e-01) (9, 4.76463526487350463867e-01) (19, 5.58291040360927581787e-02) (16, 4.95792627334594726562e-01) (35, -5.11311041191220283508e-03) (26, 5.32944202423095703125e-01) (27, 1.50000000000000000000e+03) (28, -8.71944427490234375000e-02) (7, 6.49857044219970703125e-01) (12, 2.20152094960212707520e-01) (40, -4.44740444421768188477e-01) (10, 8.18828120827674865723e-02) (9, 5.66646099090576171875e-01) (21, -9.70776438713073730469e-01) (30, 1.11385548114776611328e+00) (12, 1.10036328434944152832e-01) (22, 2.40505889058113098145e-01) (13, 6.92610740661621093750e-02) (32, 3.81069297790527343750e+01) (28, 7.05591142177581787109e-01) (8, 8.09137344360351562500e-01) (7, 1.14424526691436767578e+00) (25, 1.50000000000000000000e+03) (17, 8.37681740522384643555e-02) (23, 7.10551528930664062500e+01) (40, -4.45885837078094482422e-01) (32, 1.06360435485839843750e+00) (22, 3.40176194906234741211e-01) (3, 4.24816578626632690430e-01) (6, 5.40114760398864746094e-01) (17, 5.36022543907165527344e-01) (5, 4.68181908130645751953e-01) (31, 1.50000000000000000000e+03) (28, 1.69694587588310241699e-01) (2, 6.21960759162902832031e-01) (18, 5.81184744834899902344e-01) (7, 4.65659439563751220703e-01) (8, 7.40422010421752929688e-01) (29, 1.79057747125625610352e-01) (25, 1.50000000000000000000e+03) (40, -1.15970849990844726562e+00) (1, 1.47789478302001953125e-01) (26, 5.15259921550750732422e-01) (21, 6.72929763793945312500e+00) (36, -4.34137284755706787109e-02) (10, 1.59909669309854507446e-02) (9, 5.61915338039398193359e-01) (15, 3.35534900426864624023e-01) (31, 1.50000000000000000000e+03) (22, 9.95601654052734375000e-01) (2, 2.10681304335594177246e-01) (4, 3.24623584747314453125e-01) (33, 1.50000000000000000000e+03) (30, -4.15215700864791870117e-01) (19, -1.10504281520843505859e+00) (40, -7.31168210506439208984e-01) (2, 7.12150752544403076172e-01) (29, 2.22698375582695007324e-01) (10, 8.01987457275390625000e+00) (3, -2.51438999176025390625e+00) (33, 1.50000000000000000000e+03) (23, 5.85390388965606689453e-01) (28, -1.38872206211090087891e+00) (6, -5.12437522411346435547e-01) (4, 9.70346927642822265625e-01) (14, -6.03618085384368896484e-01) (16, 3.94879370927810668945e-01) (26, 5.59034061431884765625e+00) (17, 1.60398364067077636719e-01) (8, 6.40250742435455322266e-01) (40, -1.67112004756927490234e+00) (12, 6.05925142765045166016e-01) (10, -6.69164240360260009766e-01) (7, -7.02901557087898254395e-02) (20, 1.04061923921108245850e-01) (26, 7.25804388523101806641e-01) (5, 5.72712779045104980469e-01) (28, 3.79658758640289306641e-01) (36, 1.23025039210915565491e-02) (9, 1.94961547851562500000e-01) (23, 5.41505336761474609375e-01) (15, -1.12164011225104331970e-02) (30, 1.60658374428749084473e-01) (39, 7.41187870502471923828e-01) (3, 1.13365316390991210938e+00) (40, 3.02509516477584838867e-01) (5, 5.12717485427856445312e-01) (22, 4.46492969989776611328e-01) (33, 1.50000000000000000000e+03) (9, 5.09479381144046783447e-02) (20, -7.31282606720924377441e-02) (13, 6.85172617435455322266e-01) (35, 8.78644883632659912109e-01) (10, 3.61167818307876586914e-01) (1, 3.91721725463867187500e-01) (26, 6.88863813877105712891e-01) (25, 1.50000000000000000000e+03) (3, 1.02473843097686767578e+00) (29, -1.86932444572448730469e+00) (8, 5.54630339145660400391e-01) (40, -2.23313972353935241699e-01) (16, 7.13961422443389892578e-01) (26, 3.67622405290603637695e-01) (9, 3.05907338857650756836e-01) (10, -9.09015610814094543457e-02) (24, -2.02318094670772552490e-02) (29, -1.49093896150588989258e-01) (11, -4.51401919126510620117e-01) (15, -3.19778859615325927734e-01) (1, 3.76410961151123046875e-01) (3, -6.50334715843200683594e-01) (6, 2.90279418230056762695e-01) (7, -5.28250277042388916016e-01) (14, -3.32995235919952392578e-01) (38, 2.70014792680740356445e-01) (40, 1.19370594620704650879e-01) (3, 3.36089313030242919922e-01) (29, 4.38557356595993041992e-01) (36, -6.08451738953590393066e-02) (34, 6.72745406627655029297e-01) (16, -1.82156693935394287109e+00) (14, -2.19598099589347839355e-01) (11, 4.98452872037887573242e-01) (5, 1.87570944428443908691e-01) (0, 5.23487687110900878906e-01) (32, -3.52053433656692504883e-01) (26, 1.35058462619781494141e+00) (18, 1.64378070831298828125e+00) (19, -1.63141563534736633301e-01) (37, 6.47447347640991210938e-01) (40, -7.16369092464447021484e-01) (33, 1.50000000000000000000e+03) (37, -7.57289975881576538086e-02) (1, -1.03587016463279724121e-01) (24, 4.08663488924503326416e-02) (16, 8.85765135288238525391e-01) (22, -2.56254076957702636719e-01) (8, 4.66514766216278076172e-01) (25, 1.50000000000000000000e+03) (20, 1.44424021244049072266e-01) (7, 2.50443011522293090820e-01) (18, 7.03108906745910644531e-01) (12, 2.21921633929014205933e-02) (23, 7.88066506385803222656e-01) (2, -1.62613525986671447754e-01) (40, -6.14802956581115722656e-01) (30, 1.34052842855453491211e-01) (4, -7.90615379810333251953e-01) (27, 1.50000000000000000000e+03) (22, 5.10910272598266601562e-01) (7, -1.02649021148681640625e+00) (8, 6.02942645549774169922e-01) (20, 4.27959710359573364258e-01) (17, 6.13785207271575927734e-01) (3, 6.82385623455047607422e-01) (29, -1.48342913016676902771e-02) (31, 1.50000000000000000000e+03) (9, 2.75307029485702514648e-01) (21, 3.28558474779129028320e-01) (6, -2.63517588376998901367e-01) (40, -1.20132601261138916016e+00) (10, 8.47403407096862792969e-02) (15, 2.37155362963676452637e-01) (16, 1.16545222699642181396e-01) (21, 1.61864769458770751953e+00) (2, -1.42726656049489974976e-02) (18, -2.65347778797149658203e-01) (29, 2.03498974442481994629e-01) (30, -1.38785585761070251465e-01) (38, -3.20418983697891235352e-01) (26, 1.80769726634025573730e-01) (17, -4.27372962236404418945e-01) (32, -1.49076786041259765625e+01) (28, -4.10914242267608642578e-01) (34, -6.76331102848052978516e-01) (40, -3.04764267057180404663e-02) (6, 8.42563056945800781250e+00) (26, 5.00762462615966796875e-01) (3, 8.71071636676788330078e-01) (20, 1.70368582010269165039e-01) (22, 4.30851638317108154297e-01) (5, 1.27529489994049072266e+00) (1, -5.75816297531127929688e+00) (0, 3.32266211509704589844e-01) (21, 1.09165918827056884766e+00) (23, 6.08067810535430908203e-01) (11, 7.02667891979217529297e-01) (27, 1.50000000000000000000e+03) (30, 1.66555762290954589844e+00) (16, 1.44861805438995361328e+00) (40, -2.36421212553977966309e-01) (18, 3.86842668056488037109e-01) (14, -1.06351442635059356689e-01) (29, 1.93350896239280700684e-01) (5, 5.79600811004638671875e-01) (3, 8.47028791904449462891e-01) (16, 4.38037663698196411133e-01) (7, 5.26416242122650146484e-01) (33, 1.50000000000000000000e+03) (32, 3.41180175542831420898e-01) (34, -1.46616816520690917969e-01) (20, 2.55922526121139526367e-01) (28, 3.62601280212402343750e-01) (30, -2.85523623228073120117e-01) (10, 3.62253159284591674805e-01) (40, -5.08350133895874023438e-01) (29, -1.99837595224380493164e-01) (33, 1.50000000000000000000e+03) (32, -5.70020735263824462891e-01) (7, -2.68456283956766128540e-02) (27, 1.50000000000000000000e+03) (16, -2.72661805152893066406e-01) (30, -5.17333686351776123047e-01) (23, 9.31742489337921142578e-01) (35, 5.24933934211730957031e-01) (24, -1.19823738932609558105e-01) (18, 1.18557013571262359619e-01) (25, 1.50000000000000000000e+03) (15, 1.58476963639259338379e-01) (13, -1.96819156408309936523e-01) (40, -9.02587175369262695312e-02) (22, 1.07261705398559570312e+00) (33, 1.50000000000000000000e+03) (3, 9.55246031284332275391e-01) (35, -1.87943005561828613281e+00) (8, 1.57463908195495605469e-01) (24, 8.36434304714202880859e-01) (37, 4.46200656890869140625e+00) (28, 2.21858787536621093750e+00) (2, 6.39562904834747314453e-01) (25, 1.50000000000000000000e+03) (9, 7.33630120754241943359e-01) (4, 9.92974266409873962402e-02) (6, 1.15650451183319091797e+00) (38, 6.89244985580444335938e-01) (40, 9.25737470388412475586e-02) (1, 9.98270139098167419434e-02) (29, -8.29906687140464782715e-02) (32, -1.13024415969848632812e+01) (37, 1.21571339666843414307e-01) (9, 5.58267414569854736328e-01) (7, -5.11299550533294677734e-01) (16, -1.54760316014289855957e-01) (2, -6.06353521347045898438e-01) (13, 6.38524889945983886719e-02) (27, 1.50000000000000000000e+03) (0, -4.55646574497222900391e-01) (20, 6.92244395613670349121e-02) (22, 3.24414461851119995117e-01) (30, -2.28691428899765014648e-01) (40, 2.96512208878993988037e-02) (24, -1.97903826832771301270e-01) (7, 4.04426008462905883789e-02) (19, -1.14294290542602539062e-01) (18, -1.26415073871612548828e-01) (27, 1.50000000000000000000e+03) (32, -1.20393604040145874023e-01) (8, 5.16811311244964599609e-01) (15, 5.84598362445831298828e-01) (34, -1.29114076495170593262e-01) (22, -1.21489651501178741455e-01) (3, -3.11631888151168823242e-01) (20, -1.83600291609764099121e-01) (33, 1.50000000000000000000e+03) (16, 1.13617622852325439453e+00) (40, 3.19252729415893554688e-01) (36, 3.06870222091674804688e-01) (25, 1.50000000000000000000e+03) (28, 4.72216516733169555664e-01) (14, 6.28506064414978027344e-01) (18, 1.10559642314910888672e+00) (30, 4.18202514648437500000e+02) (33, 1.50000000000000000000e+03) (21, -8.19971561431884765625e-01) (13, 3.90581071376800537109e-01) (39, 7.49485909938812255859e-01) (9, -1.74546146392822265625e+00) (16, -2.02542853355407714844e+00) (1, 5.18385529518127441406e-01) (23, 1.57232716679573059082e-01) (40, 1.43662467598915100098e-01) (4, 2.50819146633148193359e-01) (36, 1.13694620132446289062e+00) (9, 4.22622537612915039062e+00) (37, -2.18862819671630859375e+00) (10, 8.98254394531250000000e+00) (32, 7.91258239746093750000e+00) (27, 1.50000000000000000000e+03) (30, -5.85195875167846679688e+00) (17, 2.39170312881469726562e+00) (33, 1.50000000000000000000e+03) (0, 4.18112576007843017578e-01) (2, -1.26978740096092224121e-01) (7, 4.48413759469985961914e-01) (15, 1.39185380935668945312e+00) (40, -1.53092348575592041016e+00) (9, 1.21534454822540283203e+00) (19, -1.72966405749320983887e-01) (24, -1.91709125041961669922e+00) (7, 4.80767369270324707031e-01) (16, 1.05000960826873779297e+00) (8, -4.32855039834976196289e-01) (6, 4.12819646298885345459e-02) (5, 2.49102249741554260254e-01) (21, 6.02371692657470703125e-01) (14, -5.54371058940887451172e-01) (11, -3.13409328460693359375e-01) (10, 7.73471772670745849609e-01) (13, 2.49985858798027038574e-01) (23, 3.52325528860092163086e-01) (40, -2.58724510669708251953e-01) (31, 1.50000000000000000000e+03) (16, 7.61865749955177307129e-02) (22, 1.74848306924104690552e-02) (8, 5.00347428023815155029e-02) (34, 5.89474737644195556641e-01) (24, 2.33284711837768554688e-01) (1, 2.46327772736549377441e-01) (7, 4.99851942062377929688e-01) (18, 3.15934717655181884766e-01) (12, 2.27763041853904724121e-01) (3, 2.16478332877159118652e-01) (11, 8.11363995075225830078e-01) (28, 4.21505510807037353516e-01) (26, 6.09229087829589843750e-01) (40, 1.23265117406845092773e-01) (5, 3.35504055023193359375e-01) (10, 6.33996844291687011719e-01) (12, 1.98760673403739929199e-01) (38, 3.37437778711318969727e-01) (8, 2.12837591767311096191e-01) (30, 8.78373801708221435547e-01) (13, 6.83242619037628173828e-01) (28, -1.79768645763397216797e+00) (21, -5.01164793968200683594e-01) (1, 1.24004566669464111328e+00) (7, -5.70106923580169677734e-01) (27, 1.50000000000000000000e+03) (29, 1.03847193717956542969e+00) (2, 9.94332551956176757812e-01) (40, -1.75010308623313903809e-01) (27, 1.50000000000000000000e+03) (35, 4.43672716617584228516e-01) (4, -3.59596633911132812500e+00) (28, -3.68398714065551757812e+00) (14, -2.70882081985473632812e+00) (13, -6.57768666744232177734e-01) (37, 6.34566664695739746094e-01) (2, -4.47904855012893676758e-01) (26, -4.10712450742721557617e-01) (18, 3.59672999382019042969e+00) (17, 7.61400043964385986328e-01) (5, -1.86930581927299499512e-01) (34, -3.44089603424072265625e+00) (20, -5.88000595569610595703e-01) (40, 1.13402284681797027588e-01) (39, 3.51845324039459228516e-01) (0, 1.35166779160499572754e-01) (17, -1.51195168495178222656e-01) (18, 8.43709106445312500000e+01) (20, -9.20935049653053283691e-02) (37, 1.27406358718872070312e-01) (24, 3.80319523811340332031e+00) (7, 1.91365882754325866699e-01) (13, -3.10042351484298706055e-01) (38, -1.39712736010551452637e-01) (3, 4.14133876562118530273e-01) (36, -3.09127569198608398438e-01) (15, 1.04918086528778076172e+00) (35, 2.91857004165649414062e-01) (40, -2.69062340259552001953e-01) (20, -2.88550555706024169922e-01) (7, 3.32757443189620971680e-01) (25, 1.50000000000000000000e+03) (27, 1.50000000000000000000e+03) (34, 1.63468226790428161621e-01) (21, -1.65184155106544494629e-01) (31, 1.50000000000000000000e+03) (37, -6.09778225421905517578e-01) (23, -9.33849632740020751953e-01) (2, -1.77924171090126037598e-01) (26, 8.94770994782447814941e-02) (29, -3.89887005090713500977e-01) (3, 1.59373056888580322266e+00) (36, -6.63787603378295898438e-01) (40, 7.61520445346832275391e-01) (0, 2.74318009614944458008e-01) (3, -3.33150565624237060547e-01) (12, 7.16499447822570800781e-01) (33, 1.50000000000000000000e+03) (20, 4.47856992483139038086e-01) (11, 2.02300831675529479980e-01) (2, -1.28663569688796997070e-01) (13, 5.36053597927093505859e-01) (6, -2.80550122261047363281e-01) (22, -6.21240735054016113281e-02) (30, -1.51821464300155639648e-01) (24, 4.81434392929077148438e+00) (28, 1.14704102277755737305e-01) (5, 6.23242974281311035156e-01) (40, -1.02569234371185302734e+00) (32, -2.64030635356903076172e-01) (4, 6.09642565250396728516e-02) (3, 4.81422305107116699219e-01) (29, 2.78837770223617553711e-01) (15, -1.33365035057067871094e-01) (26, 6.67557716369628906250e-01) (39, 8.29881355166435241699e-02) (10, -1.86358362436294555664e-01) (0, 5.98995566368103027344e-01) (27, 1.50000000000000000000e+03) (22, 6.05761349201202392578e-01) (13, 4.40915375947952270508e-01) (31, 1.50000000000000000000e+03) (17, 3.71583491563796997070e-01) (40, -6.74274384975433349609e-01) (18, 6.64179205894470214844e-01) (10, 3.91539335250854492188e-01) (13, 4.86082524061203002930e-01) (38, 4.04377490282058715820e-01) (27, 1.50000000000000000000e+03) (33, 1.50000000000000000000e+03) (9, 6.13343536853790283203e-01) (32, 7.98902474343776702881e-03) (28, 7.95053958892822265625e-01) (6, 6.26065135002136230469e-01) (22, 6.28568947315216064453e-01) (37, 3.88764679431915283203e-01) (1, 2.22094938158988952637e-01) (24, 1.06194281578063964844e+00) (40, -3.59131753444671630859e-01) (10, 6.97447881102561950684e-02) (19, 5.25894820690155029297e-01) (38, 6.60281538963317871094e-01) (17, 1.46197929978370666504e-01) (11, 2.00831785798072814941e-01) (5, -1.21836110949516296387e-01) (28, 8.78968715667724609375e-01) (26, -8.51107612252235412598e-02) (29, 1.21695965528488159180e-01) (34, 4.88768911361694335938e+00) (36, 3.41156661510467529297e-01) (37, 1.07729017734527587891e+00) (30, 2.36728496551513671875e+01) (21, 3.04085850715637207031e+00) (40, -8.54412615299224853516e-01) (31, 1.50000000000000000000e+03) (20, 6.81250542402267456055e-02) (32, 2.85555028915405273438e+00) (27, 1.50000000000000000000e+03) (3, 1.09326541423797607422e+00) (9, -2.63986382633447647095e-02) (35, 8.43751549720764160156e-01) (22, 6.28830850124359130859e-01) (13, 4.90585297346115112305e-01) (25, 1.50000000000000000000e+03) (34, -9.69881892204284667969e-01) (4, 9.35629785060882568359e-01) (14, 1.12245464324951171875e+00) (11, 6.23982012271881103516e-01) (40, -6.19809567928314208984e-01) (24, 2.03890874981880187988e-01) (35, 1.39586701989173889160e-01) (33, 1.50000000000000000000e+03) (3, 4.01679366827011108398e-01) (6, 6.99352443218231201172e-01) (23, 1.79640784859657287598e-01) (25, 1.50000000000000000000e+03) (19, 4.83911991119384765625e-01) (15, 4.02103185653686523438e-01) (10, 5.64494848251342773438e-01) (28, -7.17499665915966033936e-03) (26, 5.81819355487823486328e-01) (38, 1.15143865346908569336e-01) (20, -1.75645798444747924805e-01) (40, -7.83872365951538085938e-01) (16, 3.33306026458740234375e+00) (23, 3.12549501657485961914e-01) (34, 3.24231624603271484375e+00) (25, 1.50000000000000000000e+03) (19, 7.75801181793212890625e-01) (6, 4.58873987197875976562e-01) (14, -4.16429340839385986328e-01) (27, 1.50000000000000000000e+03) (38, 1.14231812953948974609e+00) (9, -8.38791787624359130859e-01) (26, 5.39113581180572509766e-01) (29, 1.89159750938415527344e+00) (2, 4.79992121458053588867e-01) (22, 8.56818914413452148438e-01) (40, 2.46696755290031433105e-01) (25, 1.50000000000000000000e+03) (6, -4.39033448696136474609e-01) (31, 1.50000000000000000000e+03) (30, 2.12144088745117187500e+00) (4, -7.72926285862922668457e-02) (20, 4.28439974784851074219e-01) (34, 3.56074422597885131836e-02) (0, -6.55221760272979736328e-01) (33, 1.50000000000000000000e+03) (13, -2.19430327415466308594e-01) (23, 2.41195797920227050781e-01) (36, 4.14502829313278198242e-01) (19, 7.83368051052093505859e-02) (15, -4.56075668334960937500e-01) (40, 8.33281755447387695312e-01) (34, 1.04915928840637207031e+00) (24, -3.59533977508544921875e+00) (25, 1.50000000000000000000e+03) (21, 6.14561700820922851562e+00) (2, 2.58761286735534667969e-01) (29, 4.56172257661819458008e-01) (1, 2.01480180025100708008e-01) (10, 9.71855103969573974609e-01) (6, 2.59023755788803100586e-01) (0, -1.18584714829921722412e-01) (23, -1.60029470920562744141e-01) (36, 3.19256246089935302734e-01) (26, 2.01739406585693359375e+00) (30, 5.01472473144531250000e-01) (40, -9.77493822574615478516e-01) (31, 1.50000000000000000000e+03) (29, -1.59759566187858581543e-01) (18, 8.57229083776473999023e-02) (21, 2.88951769471168518066e-02) (39, 7.58615732192993164062e-01) (9, 9.10485506057739257812e-01) (30, -8.69152665138244628906e-01) (28, 1.89223146438598632812e+00) (6, 6.23684883117675781250e-01) (24, 7.32759892940521240234e-01) (33, 1.50000000000000000000e+03) (12, 1.15022337436676025391e+00) (26, -3.99998843669891357422e-01) (14, 9.36365365982055664062e-01) (40, -1.25610351562500000000e+00) (26, 7.60822057723999023438e-01) (17, 5.70695459842681884766e-01) (38, 4.65954273939132690430e-01) (16, 4.62138116359710693359e-01) (24, 7.06624507904052734375e-01) (22, -1.92425221204757690430e-01) (1, -2.28773534297943115234e-01) (4, -6.46924078464508056641e-02) (14, 4.91043329238891601562e-01) (23, 5.64912974834442138672e-01) (32, 6.34205245971679687500e+00) (35, 5.88081777095794677734e-01) (5, 1.35181173682212829590e-01) (31, 1.50000000000000000000e+03) (40, -6.82219415903091430664e-02) (16, -2.16752856969833374023e-01) (9, 3.97127956151962280273e-01) (27, 1.50000000000000000000e+03) (26, 8.43648463487625122070e-02) (38, 9.44065213203430175781e-01) (10, 4.17767912149429321289e-01) (22, 1.75981614738702774048e-02) (28, 1.59868705272674560547e+00) (24, 1.60400152206420898438e+00) (35, -4.58266958594322204590e-02) (30, -7.71908521652221679688e-01) (2, 3.91431331634521484375e-01) (8, 1.23229718208312988281e+00) (36, 4.48657453060150146484e-01) (40, -1.08282423019409179688e+00) (37, 6.26087009906768798828e-01) (8, -4.71860617399215698242e-01) (28, 6.63294970989227294922e-01) (34, 3.25583189725875854492e-01) (12, 2.84648150205612182617e-01) (35, 3.73315006494522094727e-01) (29, 1.39178231358528137207e-01) (11, 3.87045025825500488281e-01) (20, 5.95630228519439697266e-01) (9, -9.38647147268056869507e-03) (13, 2.08690315485000610352e-01) (4, 1.88770800828933715820e-01) (15, -3.27971965074539184570e-01) (1, 7.25874304771423339844e-01) (40, -2.88848817348480224609e-01) (27, 1.50000000000000000000e+03) (19, 7.78667747974395751953e-01) (8, 5.42423844337463378906e-01) (29, 5.21851623535156250000e+02) (22, 2.86715924739837646484e-01) (5, 1.74932226538658142090e-01) (6, -6.84851288795471191406e-01) (33, 1.50000000000000000000e+03) (32, 1.50000000000000000000e+03) (14, 6.07343375682830810547e-01) (1, 3.72251540422439575195e-01) (12, 5.92715978622436523438e-01) (34, 5.21756935119628906250e+00) (9, 5.59845745563507080078e-01) (40, 5.33723890781402587891e-01) (13, 1.78135097026824951172e-01) (24, 3.79976272583007812500e-01) (16, 6.65228664875030517578e-01) (15, 1.66299581527709960938e-01) (20, 8.87167304754257202148e-02) (29, 3.64286541938781738281e-01) (35, -1.15514889359474182129e-01) (23, 4.22943443059921264648e-01) (34, 5.47799579799175262451e-02) (33, 1.50000000000000000000e+03) (6, 1.98890477418899536133e-01) (8, 7.06825792789459228516e-01) (12, 4.89312320947647094727e-01) (3, 3.02367031574249267578e-01) (40, 2.92129397392272949219e-01) (34, -8.65106955170631408691e-02) (20, 6.05619966983795166016e-01) (9, 6.01105056703090667725e-02) (31, 1.50000000000000000000e+03) (19, -4.48290735483169555664e-01) (10, -4.13608998060226440430e-01) (8, 2.00763955712318420410e-01) (12, -4.13421392440795898438e-01) (7, 4.29940760135650634766e-01) (25, 1.50000000000000000000e+03) (16, 7.81985819339752197266e-01) (32, 4.78708982467651367188e+00) (1, -4.07518029212951660156e-01) (11, 3.64672303199768066406e-01) (40, -8.27138662338256835938e-01) (20, 7.55731046199798583984e-01) (1, 4.61685895919799804688e+00) (35, 4.84016656875610351562e+00) (23, 4.71139341592788696289e-01) (16, 3.50993990898132324219e+00) (13, -4.04785238206386566162e-02) (27, 1.50000000000000000000e+03) (6, -1.38854885101318359375e+00) (30, 9.42094743251800537109e-01) (28, -6.50671839714050292969e-01) (24, 3.88271164894104003906e+00) (25, 1.50000000000000000000e+03) (32, 5.06148386001586914062e+00) (33, 1.50000000000000000000e+03) (40, -5.23755908012390136719e-01) (25, 1.50000000000000000000e+03) (7, -1.50000000000000000000e+03) (8, 2.75450080633163452148e-01) (33, 1.50000000000000000000e+03) (37, 3.50654602050781250000e-01) (6, 2.36124351620674133301e-01) (13, 7.69946634769439697266e-01) (2, 9.02634680271148681641e-01) (38, 2.94546693563461303711e-01) (26, 6.30077958106994628906e-01) (27, 1.50000000000000000000e+03) (20, 2.72576481103897094727e-01) (29, 6.77502512931823730469e-01) (30, 1.22791148722171783447e-01) (40, -5.91397285461425781250e-01) (14, 3.09818714857101440430e-01) (38, -6.48542940616607666016e-01) (22, -5.57530879974365234375e-01) (35, 5.33980369567871093750e-01) (33, 1.50000000000000000000e+03) (2, -4.50137257575988769531e-01) (29, 1.74520266056060791016e+00) (10, -2.00205400586128234863e-01) (12, 2.94541977345943450928e-02) (36, -5.73898255825042724609e-01) (11, -6.48700356483459472656e-01) (13, -5.85303828120231628418e-02) (7, 1.04403364658355712891e+00) (6, 1.15602880716323852539e-01) (40, -2.80767291784286499023e-01) (36, -1.07880078256130218506e-01) (7, -2.71538704633712768555e-01) (23, 2.66464740037918090820e-01) (39, 1.27165704965591430664e-01) (1, 6.69183075428009033203e-01) (25, 1.50000000000000000000e+03) (6, 5.94940960407257080078e-01) (16, 5.65610408782958984375e-01) (4, -2.68060714006423950195e-01) (17, -3.93485933542251586914e-01) (31, 1.50000000000000000000e+03) (19, -7.78025031089782714844e-01) (26, 4.73705619573593139648e-01) (24, 2.64857470989227294922e-01) (40, 1.26503072679042816162e-02) (20, 4.84278947114944458008e-02) (31, 1.50000000000000000000e+03) (25, 1.50000000000000000000e+03) (12, 3.07858884334564208984e-01) (32, 1.83207497000694274902e-01) (26, 7.64000475406646728516e-01) (4, 7.37553462386131286621e-02) (13, 5.38305342197418212891e-01) (11, -4.22417461872100830078e-01) (29, 6.47363662719726562500e-01) (3, 8.28749537467956542969e-01) (37, 2.50075787305831909180e-01) (15, 1.75735190510749816895e-01) (6, 5.47394990921020507812e-01) (40, -1.40494859218597412109e+00) (9, 4.38455790281295776367e-01) (32, 4.03037905693054199219e-01) (2, -3.20912390947341918945e-01) (17, 2.44748100638389587402e-01) (10, 4.91157434880733489990e-02) (29, 3.96262705326080322266e-02) (22, 4.07976061105728149414e-01) (30, -1.34609207510948181152e-01) (18, 3.23635518550872802734e-01) (23, 1.05323874950408935547e+00) (5, 2.05151349306106567383e-01) (35, 7.42696598172187805176e-02) (16, -3.62449914216995239258e-01) (20, -1.81986376643180847168e-01) (40, -5.06479978561401367188e-01) (29, 4.71958427429199218750e+01) (19, 2.83689379692077636719e-01) (32, 1.50000000000000000000e+03) (37, 3.24175298213958740234e-01) (33, 1.50000000000000000000e+03) (0, 5.73395371437072753906e-01) (7, 2.08466440439224243164e-01) (12, 1.63837835192680358887e-01) (1, 2.57488414645195007324e-02) (27, 1.50000000000000000000e+03) (25, 1.50000000000000000000e+03) (31, 1.50000000000000000000e+03) (21, -1.39772796630859375000e+00) (2, 3.54874044656753540039e-01) (40, 6.11023545265197753906e-01) (34, -5.21324992179870605469e-01) (33, 1.50000000000000000000e+03) (13, -8.75268504023551940918e-02) (15, -1.53277963399887084961e-01) (36, 1.45764023065567016602e-01) (12, -2.22576171159744262695e-01) (9, 6.25560104846954345703e-01) (23, -7.68801689147949218750e-01) (32, 8.69090938568115234375e+00) (22, 4.59348231554031372070e-01) (5, -2.95763701200485229492e-01) (4, 2.16903403401374816895e-01) (11, 2.63427376747131347656e-01) (16, 1.36851668357849121094e+00) (40, 4.91373948752880096436e-02) (22, 5.18564283847808837891e-01) (21, -9.41557139158248901367e-02) (35, -9.79708433151245117188e-02) (8, 3.75131517648696899414e-01) (5, 5.54441332817077636719e-01) (9, -1.12357623875141143799e-01) (23, 2.29976698756217956543e-01) (33, 1.50000000000000000000e+03) (25, 1.50000000000000000000e+03) (37, 5.33109426498413085938e-01) (11, -8.09556722640991210938e-01) (3, -3.90897631645202636719e-01) (27, 1.50000000000000000000e+03) (15, 3.46243381500244140625e-01) (40, 8.87223258614540100098e-02) (28, -1.45955085754394531250e+00) (6, -2.43253543972969055176e-01) (33, 1.50000000000000000000e+03) (17, 4.73319828510284423828e-01) (34, 2.08604907989501953125e+00) (13, 2.83032655715942382812e-01) (18, -3.10289770364761352539e-01) (4, 3.81323862075805664062e+00) (38, 4.97983306646347045898e-01) (20, 3.82843136787414550781e-01) (10, -8.38836878538131713867e-02) (19, 6.51735186576843261719e-01) (0, -4.40743148326873779297e-01) (16, -1.31006515026092529297e+00) (40, -4.65282201766967773438e-01) (22, 7.44022607803344726562e-01) (23, 8.82913053035736083984e-01) (6, 8.13265383243560791016e-01) (25, 1.50000000000000000000e+03) (33, 1.50000000000000000000e+03) (18, -4.93811905384063720703e-01) (30, 8.17604362964630126953e-01) (29, 1.83147311210632324219e-01) (8, -3.16495835781097412109e-01) (5, 1.04101190567016601562e+01) (21, -2.20788669586181640625e+00) (38, 6.48500740528106689453e-01) (4, -3.94893065094947814941e-02) (13, -1.78450043313205242157e-03) (191, -1.35407590866088867188e+00) (57, -1.31498798727989196777e-01) (59, 2.71127343177795410156e-01) (73, 2.81236290931701660156e-01) (77, 4.48585629463195800781e-01) (96, -3.69921952486038208008e-01) (100, 2.12196856737136840820e-01) (101, 9.60149824619293212891e-01) (108, -4.02534246444702148438e-01) (113, -1.96652635931968688965e-02) (120, 3.93314540386199951172e-01) (133, 6.58502519130706787109e-01) (150, -4.42812949419021606445e-01) (121, -4.11504536867141723633e-01) (98, 6.08141839504241943359e-01) (188, 5.10724075138568878174e-02) (76, -1.34768262505531311035e-01) (97, 3.95165741443634033203e-01) (124, -1.03395851328969001770e-02) (173, 3.94308388233184814453e-01) (167, 5.31839847564697265625e-01) (94, 2.23071649670600891113e-01) (145, -1.14957287907600402832e-01) (185, -7.60209321975708007812e-01) (166, 4.79199022054672241211e-01) (109, 7.46421962976455688477e-02) (134, -5.84302783012390136719e-01) (163, 4.18769270181655883789e-01) (58, 6.80171370506286621094e-01) (112, 8.99235904216766357422e-01) (181, -9.33459460735321044922e-01) (155, -4.13542181253433227539e-01) (140, 4.99778151512145996094e-01) (136, 5.64139723777770996094e-01) (143, 1.22383736073970794678e-01) (141, 2.63808786869049072266e-01) (107, 1.08653581142425537109e+00) (129, 3.13242644071578979492e-01) (148, -2.44755148887634277344e-01) (110, -2.99581259489059448242e-01) (95, -3.25346857309341430664e-01) (99, -4.55922663211822509766e-01) (55, 2.18950584530830383301e-01) (116, 2.27711290121078491211e-01) (79, 6.21183633804321289062e-01) (128, 6.20818972587585449219e-01) (43, 2.76365637779235839844e-01) (72, 6.28333568572998046875e-01) (89, -1.95699974894523620605e-01) (176, 2.87131350487470626831e-02) (67, 5.03549516201019287109e-01) (69, 3.37802529335021972656e-01) (87, -2.92969614267349243164e-01) (191, -1.30762219429016113281e+00) (41, 8.19863915443420410156e-01) (43, 7.47290611267089843750e-01) (46, 1.04472205042839050293e-01) (52, 3.28492939472198486328e-01) (62, 4.16366070508956909180e-01) (65, -7.45210871100425720215e-02) (68, 2.64142155647277832031e-01) (84, 4.24184143543243408203e-01) (86, 6.83563292026519775391e-01) (93, 5.94358026981353759766e-01) (94, -1.52734726667404174805e-01) (107, 2.98273146152496337891e-01) (118, 7.02499032020568847656e-01) (124, 3.16493302583694458008e-01) (128, -6.55206963419914245605e-02) (143, 5.54472029209136962891e-01) (158, 5.41256546974182128906e-01) (163, 7.98249304294586181641e-01) (165, 7.78068721294403076172e-01) (166, 9.20590639114379882812e-01) (168, 4.91350501775741577148e-01) (169, 4.56277817487716674805e-01) (173, 1.25687554478645324707e-01) (175, -5.64428567886352539062e-01) (184, 3.78584526479244232178e-02) (190, -1.39318138360977172852e-01) (141, 7.62869715690612792969e-02) (98, -4.15141731500625610352e-02) (96, -2.13002681732177734375e-01) (151, 6.09359979629516601562e-01) (61, 5.33579111099243164062e-01) (135, 5.08673965930938720703e-01) (42, 1.02112388610839843750e+00) (187, 1.10751884058117866516e-02) (48, 3.31443324685096740723e-02) (121, 2.36414894461631774902e-01) (60, 4.19482648372650146484e-01) (112, 2.71353453397750854492e-01) (160, -2.09084078669548034668e-01) (44, 2.43052497506141662598e-01) (88, -9.31906700134277343750e-02) (102, 5.58900952339172363281e-01) (183, 5.63611268997192382812e-01) (154, 2.27076873183250427246e-01) (103, -1.15748256444931030273e-01) (152, 5.16961574554443359375e-01) (89, -6.08609735965728759766e-01) (57, 5.76062023639678955078e-01) (106, 8.04829120635986328125e-01) (51, 7.26451933383941650391e-01) (109, 6.80783092975616455078e-02) (91, 4.94931906461715698242e-01) (137, 1.04917943477630615234e-01) (191, -1.05991971492767333984e+00) (50, 4.29136723279953002930e-01) (51, 4.42087978124618530273e-01) (70, 2.01431483030319213867e-01) (87, 6.45745873451232910156e-01) (88, -2.91545271873474121094e-01) (89, 8.91254425048828125000e-01) (90, 5.51575124263763427734e-01) (91, -1.09322359785437583923e-02) (92, 1.02361786365509033203e+00) (103, 3.06914389133453369141e-01) (105, 6.08675956726074218750e-01) (110, -1.07384145259857177734e-01) (111, -2.03040316700935363770e-01) (130, 1.70300200581550598145e-01) (131, -2.06229269504547119141e-01) (138, -1.88944622874259948730e-01) (148, 4.24156665802001953125e-01) (154, 4.65013206005096435547e-01) (159, -2.54505872726440429688e-01) (161, 1.39014199376106262207e-01) (164, 6.31449460983276367188e-01) (172, 3.64758551120758056641e-01) (178, 6.19143307209014892578e-01) (140, -2.31645762920379638672e-01) (177, -1.85539081692695617676e-01) (46, 4.89423036575317382812e-01) (55, 8.65344166755676269531e-01) (108, 2.12917640805244445801e-01) (162, 2.41055324673652648926e-01) (60, 4.46987599134445190430e-02) (147, 1.91777318716049194336e-01) (187, -2.45778709650039672852e-02) (94, 3.87628674507141113281e-02) (107, 1.96461051702499389648e-01) (99, -2.67577350139617919922e-01) (152, -2.01508820056915283203e-01) (145, 8.00827920436859130859e-01) (80, 4.44185674190521240234e-01) (69, 2.30393204838037490845e-02) (112, 4.84018325805664062500e-01) (73, -7.52085804939270019531e-01) (49, 3.72564643621444702148e-02) (136, 5.37804126739501953125e-01) (56, 2.38893583416938781738e-01) (135, 5.09597241878509521484e-01) (128, 4.01601403951644897461e-01) (184, 1.83377832174301147461e-01) (101, -6.92660808563232421875e-01) (48, -2.60072231292724609375e-01) (116, 2.60311007499694824219e-01) (167, 4.90251004695892333984e-01) (79, 7.55585670471191406250e-01) (191, 2.44323074817657470703e-01) (49, 6.01674914360046386719e-01) (54, 3.64015489816665649414e-01) (56, -7.43735909461975097656e-01) (58, -7.25221097469329833984e-01) (71, 2.20128782093524932861e-02) (75, 1.75161853432655334473e-01) (85, -5.19425630569458007812e-01) (95, -2.70479321479797363281e-01) (98, -1.91011741757392883301e-01) (99, 2.56568610668182373047e-01) (112, 2.55895823240280151367e-01) (114, -4.83325868844985961914e-01) (116, 2.94199943542480468750e-01) (119, 6.73658609390258789062e-01) (122, 5.61880409717559814453e-01) (129, 5.45267164707183837891e-01) (136, 3.87015134096145629883e-01) (137, -3.32578569650650024414e-01) (144, 6.83680474758148193359e-01) (147, 4.66264098882675170898e-01) (176, 4.86342161893844604492e-01) (185, -1.37582048773765563965e-02) (187, -2.01323598623275756836e-01) (66, 2.57350295782089233398e-01) (170, -6.99161708354949951172e-01) (143, -2.01268658041954040527e-01) (152, 3.35057735443115234375e-01) (61, 5.67287206649780273438e-01) (184, 4.39764678478240966797e-01) (124, -4.53445076942443847656e-01) (82, 3.33694130182266235352e-01) (149, -5.31573414802551269531e-01) (164, 1.18110217154026031494e-01) (186, 1.12762451171875000000e-01) (87, -5.50882995128631591797e-01) (183, 2.77942270040512084961e-01) (89, 4.40471231937408447266e-01) (139, 1.03595770895481109619e-01) (175, 5.40955066680908203125e-01) (84, -2.04219803214073181152e-01) (158, -9.40741039812564849854e-03) (46, 5.08649289608001708984e-01) (74, -3.26766043901443481445e-01) (109, 1.41528816893696784973e-02) (168, -6.22534334659576416016e-01) (182, -2.52798974514007568359e-01) (68, 3.53874087333679199219e-01) (92, -5.41622154414653778076e-02) (161, 5.62764585018157958984e-01) (172, -3.60532641410827636719e-01) (159, 1.71673789620399475098e-01) (125, -3.38814258575439453125e-01) (110, -3.47011476755142211914e-01) (191, -5.16592264175415039062e-01) (42, 6.45829856395721435547e-01) (45, 1.27227127552032470703e-01) (47, -3.45080979168415069580e-02) (48, 2.95239120721817016602e-01) (60, -4.04361575841903686523e-01) (61, -2.26907938718795776367e-01) (63, 5.14709293842315673828e-01) (74, -4.51696515083312988281e-01) (78, -2.69520312547683715820e-01) (81, 2.57352024316787719727e-01) (82, -1.88648924231529235840e-01) (83, 1.46961987018585205078e+00) (104, -2.21437916159629821777e-01) (106, 1.15825928747653961182e-01) (115, -2.72627621889114379883e-01) (121, 3.79314780235290527344e-01) (123, -2.93370127677917480469e-01) (134, 5.86143434047698974609e-01) (135, 5.15358507633209228516e-01) (139, 4.15060445666313171387e-02) (142, -6.28502815961837768555e-02) (145, 7.14618563652038574219e-01) (149, -9.90962535142898559570e-02) (151, 5.61876237392425537109e-01) (153, -4.35224384069442749023e-01) (155, 5.93887984752655029297e-01) (160, -4.19714510440826416016e-01) (170, -9.09409463405609130859e-01) (171, -3.17063480615615844727e-01) (174, -2.27431133389472961426e-01) (179, 1.21960550546646118164e-01) (180, -1.27796828746795654297e-01) (188, 9.84465852379798889160e-02) (189, 5.69372475147247314453e-01) (165, 6.04277253150939941406e-01) (51, 5.23262023925781250000e-01) (46, 5.07669448852539062500e-01) (70, -2.94740676879882812500e-01) (131, -2.51075893640518188477e-01) (50, -2.96478956937789916992e-01) (67, -1.52409031987190246582e-01) (75, -9.83169376850128173828e-02) (79, 4.51905071735382080078e-01) (166, 5.48809945583343505859e-01) (64, 5.81224083900451660156e-01) (184, -1.59697443246841430664e-01) (119, -1.80877581238746643066e-01) (85, 1.14437565207481384277e-01) (187, -1.72698840498924255371e-01) (90, 4.07944679260253906250e-01) (159, -5.58466371148824691772e-03) (72, -1.00906722247600555420e-01) (191, 1.56185284256935119629e-01) (44, -1.04595355689525604248e-01) (53, 6.39883428812026977539e-02) (55, 5.03775596618652343750e-01) (64, 4.46633279323577880859e-01) (66, -7.04449415206909179688e-01) (67, 1.29611158370971679688e+00) (69, 1.00783780217170715332e-01) (72, 1.12899117171764373779e-01) (76, 2.97408878803253173828e-01) (79, 5.85228085517883300781e-01) (80, -6.17064416408538818359e-01) (97, -9.73155498504638671875e-02) (102, 5.58177649974822998047e-01) (109, 3.07891756296157836914e-01) (125, 3.21228176355361938477e-01) (127, 6.36023998260498046875e-01) (132, 2.32943102717399597168e-01) (140, 2.03137546777725219727e-02) (141, -2.43605375289916992188e-02) (146, -3.05837333202362060547e-01) (152, -3.59158754348754882812e-01) (156, 4.82702821493148803711e-01) (157, 4.10593211650848388672e-01) (167, -2.44157180190086364746e-01) (177, -1.71030759811401367188e-02) (182, -4.41059708595275878906e-01) (95, -1.44205108284950256348e-01) (175, 3.37619870901107788086e-01) (105, 6.34568750858306884766e-01) (62, 2.98857599496841430664e-01) (100, 4.46434676647186279297e-01) (159, -5.76166987419128417969e-01) (90, 5.37724554538726806641e-01) (114, 6.18264198303222656250e-01) (68, 1.88877850770950317383e-01) (168, -2.13455215096473693848e-01) (189, 2.29949459433555603027e-01) (131, -3.50162148475646972656e-01) (181, 1.03080436587333679199e-01) (187, 7.73412108421325683594e-01) (71, 4.33225870132446289062e-01) (49, -7.80094461515545845032e-03) (147, -2.60126646608114242554e-02) (173, 1.34906411170959472656e-01) (57, -4.02797073125839233398e-01) (84, 1.37745440006256103516e-01) (158, 2.86511778831481933594e-01) (50, 7.14663490653038024902e-02) (133, 4.20694887638092041016e-01) (111, -4.48244214057922363281e-01) (83, -1.90104231238365173340e-01) (88, -4.35843110084533691406e-01) (138, -2.26972118020057678223e-01) (191, 1.91151276230812072754e-01) (117, -2.47790917754173278809e-01) (126, -8.84985402226448059082e-02) (162, 6.26815855503082275391e-01) (181, 6.91490396857261657715e-02) (183, 2.17354401946067810059e-01) (186, 5.38558959960937500000e-01) (79, -6.70901834964752197266e-02) (182, 5.96395321190357208252e-02) (106, 2.74241507053375244141e-01) (177, 6.25857174396514892578e-01) (184, -5.05482405424118041992e-02) (43, -1.96375623345375061035e-01) (137, -7.46418833732604980469e-02) (94, 8.22154939174652099609e-01) (50, 4.70500111579895019531e-01) (91, 6.16835653781890869141e-01) (128, 4.28469300270080566406e-01) (134, -1.02859437465667724609e-01) (83, -7.22117066383361816406e-01) (119, 9.38348889350891113281e-01) (65, -1.28498375415802001953e-01) (169, -4.54636156558990478516e-01) (159, -3.47546726465225219727e-01) (170, 1.16532541811466217041e-01) (160, -2.60838389396667480469e-01) (98, 1.41923120245337486267e-02) (127, 1.16513453423976898193e-01) (165, 2.49646827578544616699e-01) (141, 7.12221682071685791016e-01) (115, -2.54507333040237426758e-01) (64, 2.58431017398834228516e-01) (151, 2.57909834384918212891e-01) (143, 2.12828032672405242920e-02) (88, -1.96680411696434020996e-01) (153, -3.39083403348922729492e-01) (62, -2.87405848503112792969e-01) (46, -6.68427228927612304688e-01) (152, -1.96860030293464660645e-01) (175, 3.40489923954010009766e-01) (100, 4.52256858348846435547e-01) (133, 6.04299977421760559082e-02) (118, 4.77456897497177124023e-01) (144, 3.64765264093875885010e-02) (180, 3.05419582873582839966e-02) (102, 4.79526370763778686523e-01) (71, 5.85475802421569824219e-01) (45, 5.94759918749332427979e-03) (86, -9.60024446249008178711e-02) (42, -3.81788969039916992188e-01) (84, 5.50705492496490478516e-01) (187, 1.18837416172027587891e-01) (60, 6.15753412246704101562e-01) (145, 4.44427043199539184570e-01) 
